10
0 785 -0.051 0.315 0.333 -0.715 -0.978 -0.250 -0.452 0.621 0.381 0.203 0.116 0.323 -0.709 -0.120 -0.675 0.812 -0.882 0.638 -0.851 0.374 -0.326 -0.191 0.685 -0.963 -0.878 0.830 0.018 -0.818 0.974 0.893 -0.775 -0.154 -0.730 -0.375 0.243 -0.673 0.394 -0.897 -0.658 0.631 -0.199 -0.162 0.192 -0.046 -0.231 -0.939 0.453 0.935 0.953 0.327 -0.287 -0.274 0.380 0.348 -0.772 -0.530 -0.273 0.023 0.620 0.000 -0.944 0.645 -0.140 0.038 -0.556 -0.146 -0.224 0.544 -0.795 0.100 -0.644 0.392 -0.926 -0.447 -0.312 0.274 -0.896 -0.081 -0.582 -0.436 -0.047 0.917 -0.038 0.912 -0.665 0.848 -0.272 -0.622 0.497 0.824 -0.987 -0.463 0.541 -0.316 -0.517 -0.983 -0.920 0.238 0.968 0.997 0.007 -0.952 -0.355 0.575 0.664 0.279 -0.541 0.054 -0.045 0.254 -0.475 0.893 0.789 -0.676 -0.417 0.746 -0.443 0.888 0.030 0.392 0.409 -0.572 -0.430 -0.490 0.367 0.388 -0.737 0.773 -0.159 -0.518 -0.129 0.959 0.120 0.249 0.840 0.924 0.521 -0.165 0.177 0.802 0.578 0.160 -0.305 -0.263 0.472 0.127 -0.966 0.420 0.808 0.595 0.795 0.821 0.070 0.578 -0.241 -0.803 -0.294 -0.376 0.868 0.378 0.083 0.244 -0.751 0.069 0.401 -0.212 -0.508 -0.186 -0.353 0.371 -0.716 -0.819 -0.375 0.392 0.519 0.319 0.869 -0.269 -0.941 -0.024 -0.113 -0.641 0.335 -0.317 -0.523 -0.345 0.888 -0.985 -0.279 -0.441 -0.597 -0.135 -0.559 0.838 0.002 0.396 -0.675 -0.071 0.213 0.686 -0.500 -0.081 0.710 0.663 -0.545 0.076 0.523 -0.209 0.347 0.327 0.945 0.108 0.362 -0.300 0.465 -0.355 -0.000 -0.278 -0.386 -0.728 -0.549 0.089 -0.496 -0.908 0.607 -0.429 0.872 0.198 -0.222 0.746 0.794 -0.358 -0.748 0.282 0.685 0.217 0.569 -0.175 0.236 -0.474 -0.186 -0.241 -0.231 -0.201 0.614 -0.660 -0.590 -0.491 0.942 0.046 -0.894 0.671 0.747 0.642 -0.282 0.469 -0.389 -0.725 0.731 0.666 -0.578 0.760 -0.951 -0.383 -0.974 -0.658 -0.673 0.432 -0.407 -0.620 -0.632 -0.376 0.724 0.214 -0.795 0.370 0.072 -0.103 0.055 0.303 0.601 0.011 0.271 -0.065 0.268 -0.223 -0.170 0.033 0.430 -0.443 0.850 -0.017 0.711 0.381 0.913 0.365 -0.146 -0.188 0.215 0.508 0.678 -0.741 -0.875 -0.784 -0.832 -0.887 -0.983 -0.501 -0.774 0.370 0.232 0.931 0.921 0.493 0.899 -0.944 -0.544 0.852 -0.049 -0.587 0.514 -0.153 0.086 -0.368 -0.517 -0.826 0.214 0.905 0.973 0.530 0.867 -0.276 -0.404 0.847 0.200 0.338 -0.975 -0.543 -0.035 0.462 0.652 0.515 -0.321 -0.237 0.725 0.979 -0.030 -0.610 0.249 0.072 -0.277 -0.539 -0.229 0.225 -0.746 0.082 0.905 0.490 -0.496 -0.163 -0.795 0.474 0.264 -0.654 0.096 0.192 0.154 -0.243 -0.380 -0.290 0.995 -0.339 0.005 -0.080 -0.654 -0.200 -0.590 -0.355 -0.266 -0.300 0.876 -0.406 -0.335 0.315 -0.205 0.031 0.295 -0.853 0.343 -0.798 -0.500 0.620 0.979 0.347 -0.657 -0.123 -0.435 0.682 -0.534 -0.608 0.276 0.274 0.179 -0.042 0.918 -0.083 0.874 -0.217 -0.069 -0.281 0.430 0.503 -0.522 0.052 0.453 0.003 0.325 0.232 0.429 -0.289 -0.387 -0.951 0.781 0.580 -0.219 0.934 0.805 -0.697 0.673 -0.158 -0.371 -0.482 -0.172 -0.896 -0.899 -0.766 -0.385 -0.683 -0.756 0.664 -0.241 -0.019 0.203 0.866 -0.708 -0.544 0.721 0.819 0.864 0.057 -0.266 -0.623 0.821 0.531 0.103 0.583 -0.479 0.067 0.813 -0.783 0.235 -0.629 0.676 0.679 0.288 -0.128 -0.957 -0.012 -0.282 -0.200 -0.845 0.841 0.044 0.123 0.685 0.793 0.099 0.088 0.694 -0.255 0.801 -0.951 0.592 0.055 0.245 0.981 -0.560 -0.185 0.599 0.493 0.048 0.554 0.355 0.738 0.300 -0.273 -0.426 -0.836 -0.753 -0.915 0.951 -0.719 0.206 -0.732 0.932 0.066 -0.646 0.653 0.720 0.956 -0.553 -0.195 0.322 -0.435 0.139 0.402 0.503 0.648 0.502 -0.429 0.511 -0.133 -0.661 -0.959 0.245 -0.284 -0.812 -0.020 -0.170 -0.349 0.132 0.078 0.060 0.975 0.810 -0.403 0.744 -0.370 0.874 -0.885 -0.364 0.864 0.323 0.413 -0.591 -0.757 0.919 -0.868 -0.649 -0.138 0.638 0.358 0.997 0.559 -0.125 0.823 -0.367 -0.897 0.919 0.762 0.321 -0.040 -0.592 -0.561 -0.865 -0.812 -0.042 0.793 0.865 0.029 0.347 -0.064 0.552 0.413 0.970 0.691 0.356 0.181 -0.663 -0.057 -0.105 -0.691 -0.597 -0.177 -0.648 0.248 -0.344 0.976 0.368 0.033 -0.132 -0.217 -0.599 0.926 0.827 0.300 0.300 -0.712 0.083 -0.666 -0.351 0.174 -0.660 -0.534 0.461 -0.031 0.779 -0.682 -0.823 0.877 0.218 0.387 0.113 -0.703 0.956 -0.009 0.818 -0.707 -0.450 0.098 -0.505 0.719 -0.479 -0.842 -0.674 -0.456 0.896 0.757 0.339 -0.147 -0.917 0.663 -0.748 -0.600 -0.130 0.725 -0.634 -0.875 0.815 -0.983 0.468 -0.719 -0.402 -0.585 -0.122 0.843 0.680 0.072 -0.825 -0.649 -0.409 0.588 0.832 -0.949 -0.331 0.920 -0.698 -0.840 -0.468 0.778 -0.474 0.442 -0.762 0.316 -0.662 0.190 0.485 0.757 -0.128 0.970 -0.187 0.899 0.828 0.997 -0.788 -0.453 0.392 0.771 -0.486 0.537 -0.046 -0.992 -0.830 -0.985 -0.543 0.865 0.359 0.726 0.833 -0.214 0.392 0.309 0.384 -0.815 0.777 -0.686 -0.109 0.375 0.489 0.653 -0.375 -0.404 0.455 -0.906 0.747 -0.369 -0.215 -0.374 0.427 -0.652 -0.729 -0.868 -0.738 0.246 0.978 -0.988 -0.075 -0.289 -0.380 -0.313 -0.784 -0.152 -0.467 -0.881 -0.730 0.856 0.437 0.966 0.628 0.477 -0.546 -0.782 0.968 0.369 0.446 -0.713 0.583 0.071 -0.824 -0.579 0.935 0.245 -0.818 -0.838 0.501 -0.296 -0.044 -0.726 -0.644 -0.005 -0.145 -0.628 -0.699 -0.110 -0.773 -0.876 -0.053 -0.898 0.468 0.536 0.411 0.903 -0.669 -0.156 -0.170 -0.855 0.720 -0.919 0.966 0.351 0.969 -0.880 0.787 0.928 0.556 0.160 0.297 -0.036 0.706 0.157 0.095 -0.190 0.256 0.173 0.880
1 785 0.546 -0.340 0.440 -0.533 -0.037 0.052 0.454 -0.855 -0.707 -0.635 0.240 -0.659 0.119 0.763 -0.145 -0.553 0.194 -0.177 -0.126 -0.644 0.365 -0.310 0.970 -0.007 0.364 0.849 0.968 -0.957 0.855 -0.793 0.898 0.578 -0.487 0.431 0.126 -0.095 0.254 -0.087 0.315 0.390 -0.989 0.278 0.410 0.733 0.072 0.083 -0.710 -0.608 0.791 -0.876 0.802 -0.753 -0.232 0.245 -0.940 -0.106 0.597 -0.232 -0.648 -0.881 0.896 -0.791 0.339 0.275 -0.440 0.116 0.372 -0.584 -0.511 0.848 -0.585 -0.023 -0.090 0.556 0.714 0.527 0.253 0.081 -0.817 0.148 -0.134 0.512 -0.248 -0.756 -0.233 0.662 -0.007 0.337 -0.887 -0.557 -0.468 -0.031 -0.762 0.891 -0.338 -0.998 -0.520 0.003 0.232 0.629 -0.827 0.941 0.711 0.029 0.294 -0.386 -0.702 -0.980 0.923 0.781 -0.108 0.204 -0.047 0.377 -0.801 0.508 -0.650 0.182 0.245 0.696 0.229 -0.643 0.631 -0.252 0.127 0.601 0.955 -0.792 -0.091 -0.371 0.694 -0.205 0.821 0.587 -0.162 0.527 0.359 -0.766 -0.406 -0.729 0.665 -0.209 -0.399 0.434 0.973 -0.718 0.383 -0.543 0.582 0.492 0.537 0.166 -0.755 0.704 -0.779 0.160 0.918 -0.463 -0.039 0.352 0.292 -0.353 -0.167 0.792 0.432 -0.652 0.360 0.704 0.203 0.789 -0.470 -0.421 0.732 -0.487 -0.747 -0.704 0.764 0.646 -0.604 0.484 -0.605 0.243 -0.979 0.154 0.501 0.010 0.256 -0.765 -0.085 0.567 -0.254 0.488 0.198 0.616 0.478 -0.390 0.638 0.634 -0.146 0.437 -0.172 0.152 -0.351 -0.076 -0.383 0.789 0.226 0.227 0.046 -0.071 -0.651 0.294 -0.108 -0.312 0.025 -0.739 0.297 0.566 -0.267 -0.677 0.936 0.239 -0.363 -0.820 0.147 -0.562 0.797 0.433 -0.446 -0.186 -0.827 -0.551 0.117 0.765 -0.147 0.925 -0.488 -0.793 0.679 -0.245 -0.440 -0.111 0.224 -0.560 -0.787 0.195 0.315 0.121 -0.680 0.721 -0.140 0.084 0.771 -0.733 -0.008 -0.152 0.277 -0.549 -0.518 -0.546 0.117 -0.399 0.855 0.742 0.454 -0.187 0.649 0.148 0.565 0.910 -0.757 0.523 0.808 -0.190 -0.317 -0.937 0.792 -0.586 -0.983 -0.822 0.031 0.366 0.811 0.328 -0.797 0.860 0.743 0.614 0.800 0.671 0.367 0.534 -0.954 0.980 -0.991 -0.149 0.139 0.021 -0.322 0.016 -0.368 0.323 -0.940 -0.311 0.303 -0.086 -0.960 -0.082 0.856 0.045 0.461 -0.234 0.961 0.050 0.621 0.252 0.627 -0.215 0.857 0.976 0.796 0.815 -0.271 -0.323 0.785 0.651 0.182 0.120 -0.976 0.118 -0.883 0.053 -0.553 0.215 -0.684 -0.345 0.540 0.159 -0.734 0.970 -0.957 -0.175 0.428 0.162 0.305 0.806 -0.808 0.016 -0.497 0.199 -0.071 0.258 0.601 0.004 -0.154 0.113 -0.664 0.826 -0.220 -0.003 0.681 0.667 0.995 0.417 0.063 -0.141 0.556 0.241 -0.979 0.126 0.338 -0.282 0.660 0.483 0.772 -0.416 0.324 0.122 -0.318 -0.405 -0.824 0.672 -0.448 -0.307 -0.491 0.113 -0.011 0.733 -0.841 -0.314 0.671 0.588 -0.872 -0.107 0.986 0.959 -0.364 0.488 -0.338 -0.871 0.794 -0.749 0.984 -0.097 0.705 -0.047 0.801 0.493 -0.655 -0.952 -0.659 0.213 -0.780 -0.853 -0.236 -0.893 -0.386 0.261 -0.546 0.582 -0.479 -0.271 -0.192 0.699 -0.904 0.622 -0.811 0.941 0.111 0.500 0.030 0.341 0.374 -0.708 -0.613 0.818 -0.561 -0.514 -0.896 0.427 0.576 -0.925 0.723 -0.771 -0.008 0.028 -0.495 -0.352 -0.018 0.567 -0.491 -0.535 0.953 -0.470 -0.793 0.863 0.851 -0.571 0.059 0.746 -0.358 -0.318 -0.991 -0.741 0.214 -0.007 0.725 -0.109 -0.457 -0.213 -0.721 -0.040 0.384 -0.631 0.167 0.996 0.393 -0.365 0.290 -0.780 -0.782 0.617 0.415 0.249 0.123 -0.299 0.674 0.030 0.650 0.469 -0.331 0.631 -0.300 0.232 0.686 0.905 0.243 -0.600 -0.678 0.661 -0.384 -0.708 0.157 -0.165 0.479 -0.641 0.023 0.912 -0.656 -0.223 -0.212 -0.740 -0.712 -0.372 0.098 -0.726 0.269 -0.252 -0.399 0.701 0.484 -0.109 -0.480 0.019 0.297 0.521 0.324 -0.998 -0.683 0.992 0.093 0.027 -0.771 0.573 0.653 -0.379 -0.458 -0.854 -0.388 0.025 -0.106 -0.983 -0.804 -0.529 0.662 0.929 0.724 -0.013 -0.275 0.791 0.511 0.293 0.401 0.875 0.052 -0.489 0.468 0.861 -0.547 -0.231 0.525 0.601 -0.896 0.613 -0.514 -0.747 -0.903 -0.077 -0.094 -0.628 0.426 -0.629 0.857 0.997 -0.334 -0.955 -0.860 0.070 -0.291 0.557 -0.182 -0.486 -0.678 0.984 0.528 0.361 -0.558 -0.114 0.512 0.294 -0.444 -0.299 0.622 -0.892 0.294 0.412 0.033 0.106 0.849 -0.351 0.504 0.446 0.478 -0.866 0.386 -0.249 -0.741 0.816 -0.469 -0.069 -0.385 -0.776 -0.418 0.225 0.278 0.495 -0.696 -0.452 0.662 0.049 0.478 -0.077 -0.160 -0.934 0.683 0.810 0.430 -0.568 0.260 0.360 -0.436 -0.247 0.779 -0.474 0.222 -0.906 -0.954 -0.914 -0.390 0.859 0.155 -0.032 -0.705 0.115 -0.741 -0.866 -0.333 -0.485 0.565 0.128 0.281 -0.443 -0.215 -0.772 -0.425 0.986 0.339 -0.327 0.259 0.822 0.623 0.050 -0.688 -0.896 -0.859 0.641 0.562 0.401 0.446 -0.720 0.160 -0.982 -0.936 0.239 -0.985 -0.174 -0.295 0.739 -0.298 -0.589 0.360 -0.691 0.959 0.845 0.983 0.237 -0.638 -0.598 0.430 -0.122 0.410 -0.582 0.138 0.710 -0.426 0.668 -0.712 0.331 -0.917 -0.512 -0.856 -0.606 0.060 0.624 0.627 0.827 -0.506 0.875 -0.148 0.333 0.445 -0.456 -0.438 -0.128 -0.317 0.457 0.732 0.322 -0.902 0.595 0.536 0.968 -0.624 0.866 -0.207 0.110 -0.595 -0.497 -0.156 0.127 -0.489 0.107 -0.148 -0.562 0.294 -0.362 -0.927 -0.517 -0.158 0.234 -0.863 0.778 -0.842 0.893 -0.943 -0.384 -0.329 0.348 -0.821 -0.585 0.647 0.837 -0.888 -0.803 -0.319 -0.277 0.356 0.884 0.269 -0.336 -0.558 -0.873 -0.865 0.726 0.730 -0.261 -0.559 0.726 -0.539 -0.190 0.776 -0.951 -0.293 -0.602 -0.105 0.870 0.917 0.507 0.695 -0.247 0.478 0.460 0.809 -0.271 0.698
2 785 -0.620 0.168 0.896 0.488 0.514 -0.639 -0.255 0.122 0.610 -0.524 0.080 0.490 0.377 -0.488 -0.802 -0.280 -0.613 0.122 0.052 -0.906 0.873 0.829 -0.612 -0.455 0.916 -0.937 -0.680 -0.269 0.687 -0.885 0.057 0.515 0.254 -0.116 0.301 0.423 -0.032 -0.461 0.264 0.611 -0.805 0.286 -0.162 -0.676 -0.344 -0.861 0.646 0.119 -0.129 0.735 0.656 -0.208 -0.934 0.175 -0.534 0.213 -0.801 0.598 0.704 -0.637 0.638 -0.812 -0.713 0.126 -0.523 -0.214 -0.260 0.521 0.551 0.770 -0.523 -0.480 0.663 -0.196 -0.770 0.008 -0.523 0.267 -0.191 -0.677 0.503 0.783 -0.695 -0.575 -0.000 -0.673 0.924 -0.128 -0.853 -0.600 -0.564 -0.498 0.216 0.759 -0.208 0.099 0.914 -0.011 -0.240 0.743 0.356 -0.168 0.630 -0.505 -0.799 -0.532 -0.335 0.711 -0.492 -0.853 -0.782 0.600 0.004 0.902 -0.332 -0.713 -0.636 0.504 0.008 0.687 0.897 -0.026 -0.818 0.700 0.765 0.149 0.063 0.564 -0.284 -0.959 0.913 -0.065 -0.322 0.766 0.812 -0.121 0.484 0.999 0.034 0.014 0.878 -0.733 0.405 -0.592 -0.352 0.565 -0.846 0.832 0.437 0.854 0.693 0.190 -0.196 -0.807 0.825 0.557 -0.361 -0.422 0.931 -0.340 -0.657 -0.540 0.416 0.622 -0.464 0.359 0.198 0.333 -0.674 0.561 -0.794 -0.789 0.204 0.805 0.379 0.709 0.711 0.338 0.848 0.942 0.674 -0.705 -0.424 -0.102 0.093 -0.069 0.782 0.284 0.845 0.978 -0.914 -0.426 0.968 -0.795 -0.239 -0.654 0.331 -0.084 0.735 0.933 0.768 -0.379 0.278 0.988 -0.155 -0.126 0.980 0.142 -0.977 0.118 -0.739 -0.926 0.756 0.510 -0.196 0.870 -0.561 -0.901 -0.886 -0.023 -0.485 0.327 0.939 -0.047 0.667 -0.771 0.445 -0.581 0.713 0.087 -0.280 -0.219 -0.540 0.448 -0.028 -0.717 -0.443 -0.241 -0.441 -0.678 0.101 0.428 -0.992 0.376 -0.603 -0.001 0.618 -0.414 0.681 -0.822 -0.387 -0.996 -0.689 0.387 0.851 0.541 -0.563 0.210 0.267 -0.451 -0.871 0.725 0.861 -0.320 -0.790 0.592 -0.614 -0.900 0.982 -0.598 -0.522 0.314 0.441 0.294 -0.667 0.797 -0.266 -0.589 0.578 -0.544 -0.153 -0.474 -0.051 0.518 -0.749 0.999 0.006 0.699 -0.096 -0.253 0.130 -0.858 -0.601 -0.759 -0.646 -0.469 -0.657 0.839 -0.907 -0.486 -0.868 0.181 0.770 0.102 -0.222 0.564 0.196 0.430 0.450 -0.480 -0.858 -0.399 -0.583 0.485 0.688 -0.871 0.156 0.077 -0.108 -0.522 0.989 0.600 0.538 0.650 0.850 0.778 0.564 0.337 -0.941 -0.356 -0.334 0.555 -0.937 0.457 -0.157 -0.795 -0.248 -0.456 0.342 -0.483 -0.511 0.623 -0.205 0.543 -0.727 -0.250 -0.649 -0.505 0.010 0.740 0.008 0.748 -0.326 -0.872 0.674 -0.419 -0.414 0.360 0.995 0.067 0.027 -0.536 -0.869 -0.287 -0.575 0.083 -0.738 -0.487 -0.451 -0.949 0.594 -0.286 0.415 0.460 0.439 0.042 -0.607 0.218 -0.325 -0.466 0.665 0.767 0.700 0.812 0.218 0.672 0.253 0.794 -0.609 -0.632 -0.814 -0.211 0.967 0.137 -0.431 0.279 -0.359 0.207 0.460 0.431 0.174 -0.182 -0.643 -0.823 -0.799 -0.288 0.692 0.735 -0.609 0.458 -0.262 -0.251 0.801 0.172 0.110 0.835 -0.422 -0.407 -0.774 -0.418 0.424 -0.873 0.005 -0.686 0.017 -0.897 0.315 -0.052 0.728 -0.523 -0.705 0.158 -0.371 0.899 0.292 0.718 0.208 0.391 -0.498 0.036 -0.577 0.329 -0.105 0.842 0.194 0.456 -0.788 0.969 0.542 -0.494 0.369 0.383 -0.319 -0.422 -0.835 -0.743 -0.311 -0.451 -0.595 0.757 -0.592 -0.223 -0.779 -0.174 -0.868 -0.610 0.715 0.179 0.253 0.056 0.201 -0.683 -0.917 0.124 -0.545 -0.968 0.711 0.228 0.515 -0.419 -0.616 0.539 -0.628 -0.418 0.897 0.329 0.571 0.646 -0.784 -0.774 -0.495 0.822 0.795 -0.781 0.059 -0.891 -0.058 0.641 -0.105 -0.477 -0.624 0.558 0.033 -0.944 -0.578 -0.822 -0.094 -0.709 -0.198 -0.709 0.997 0.481 -0.917 0.419 -0.786 0.573 0.140 0.518 -0.102 0.467 -0.248 0.323 -0.459 -0.721 0.375 0.872 0.228 -0.547 -0.578 -0.576 -0.104 -0.232 -0.377 0.198 -0.106 -0.589 -0.829 0.262 -0.704 0.257 -0.777 -0.215 -0.365 0.711 -0.692 0.771 -0.359 -0.575 -0.016 0.770 0.147 -0.641 0.874 -0.604 0.609 0.501 0.898 0.910 0.291 0.346 0.642 0.776 -0.357 0.631 0.140 0.234 -0.261 0.207 -0.131 -0.531 0.224 -0.530 -0.102 0.701 0.418 -0.815 0.916 -0.816 -0.549 -0.934 0.714 -0.394 -0.847 -0.325 0.278 -0.360 -0.955 -0.284 0.276 0.540 0.854 0.870 0.074 -0.509 -0.329 0.776 0.263 0.132 0.584 -0.228 -0.202 0.151 -0.686 0.608 0.527 -0.414 0.339 -0.297 -0.672 -0.950 -0.356 -0.318 0.659 0.151 0.867 0.464 -0.437 -0.138 0.746 -0.525 -0.660 -0.607 0.395 0.950 0.754 0.734 -0.464 0.866 -0.302 -0.330 -0.347 0.826 -0.345 0.611 -0.511 0.490 0.857 -0.055 0.375 0.654 -0.532 0.266 -0.398 -0.862 -0.842 0.094 -0.778 -0.149 0.290 -0.244 0.521 -0.591 0.538 0.386 -0.588 -0.102 -0.985 0.296 -0.597 0.915 -0.903 0.222 -0.181 -0.183 0.631 -0.143 0.388 0.714 0.722 0.499 0.964 0.833 -0.100 -0.742 -0.758 -0.704 0.333 0.055 -0.022 -0.682 -0.200 -0.454 -0.884 -0.029 -0.592 -0.331 -0.131 -0.190 -0.570 0.496 0.910 0.220 0.846 0.787 -0.944 0.428 0.971 -0.458 0.459 0.133 0.950 0.017 0.752 -0.084 -0.888 0.043 -0.222 -0.870 -0.390 -0.619 0.804 0.784 0.077 0.813 -0.199 0.313 0.365 0.944 0.397 -0.438 0.060 0.596 0.571 -0.505 0.899 0.064 0.631 0.900 0.662 -0.670 -0.098 -0.791 -0.567 -0.792 -0.510 -0.803 0.444 0.923 0.439 0.700 0.265 -0.014 -0.112 -0.936 0.504 -0.730 0.779 -0.476 -0.064 0.251 -0.102 -0.126 0.995 0.617 -0.679 0.325 0.478 -0.415 -0.775 0.083 -0.228 -0.137 0.315 -0.822 0.167 0.688 0.598 0.426 -0.651 -0.371 -0.344 0.969 0.705 0.115 -0.541 0.402 0.853 0.930 0.812 -0.505 0.964 0.406 0.600 -0.703 0.868
3 785 0.801 0.360 0.361 0.133 -0.316 0.624 0.449 0.403 0.174 0.626 -0.112 0.542 0.414 0.832 -0.166 0.903 -0.565 0.036 0.010 0.898 0.330 -0.357 -0.666 -0.025 -0.247 -0.333 -0.235 0.243 0.364 -0.789 -0.781 0.475 -0.093 0.634 -0.656 0.736 0.448 0.249 0.864 -0.665 0.170 0.978 -0.715 -0.500 0.479 -0.491 0.486 -0.997 -0.780 0.233 -0.404 0.497 0.325 0.122 -0.914 -0.179 -0.785 -0.128 -0.388 -0.583 -0.447 0.891 -0.500 0.661 -0.783 0.289 -0.173 -0.194 -0.666 0.379 -0.420 -0.196 -0.338 0.032 -0.579 -0.647 0.614 0.258 0.561 0.461 -0.419 0.901 0.106 -0.997 0.232 0.516 -0.913 0.366 -0.243 -0.636 -0.013 0.472 0.637 0.863 -0.089 -0.764 0.428 -0.199 0.252 0.121 -0.046 0.260 0.414 0.886 0.135 -0.249 0.190 0.960 -0.323 -0.973 -0.861 0.644 0.925 -0.089 -0.730 -0.456 -0.020 0.508 0.217 0.674 0.973 -0.359 -0.285 -0.863 0.946 0.853 -0.224 0.882 0.591 0.533 0.487 0.384 0.105 -0.489 -0.170 -0.346 0.247 -0.503 0.716 -0.252 -0.781 -0.063 0.966 0.270 -0.323 -0.863 -0.885 -0.776 0.734 0.190 0.234 -0.949 -0.174 -0.495 0.571 -0.208 -0.522 0.978 -0.923 -0.809 0.358 0.786 -0.349 -0.386 -0.657 -0.080 0.298 -0.129 -0.982 -0.378 0.278 -0.403 0.381 0.924 -0.130 0.970 -0.954 -0.464 -0.862 0.611 -0.278 -0.419 -0.571 0.480 -0.984 0.403 -0.833 0.863 0.237 -0.055 -0.920 -0.975 -0.176 0.462 0.346 0.094 -0.481 0.525 0.250 0.567 0.733 0.800 -0.623 0.382 0.591 0.284 -0.047 0.079 -0.841 0.371 0.605 0.737 -0.300 0.800 -0.156 0.647 0.633 -0.150 0.301 0.124 0.737 -0.975 -0.717 0.996 0.686 0.997 0.322 0.988 0.497 -0.650 0.431 0.853 0.893 0.241 0.826 0.696 -0.938 -0.587 0.881 0.957 -0.317 -0.891 0.554 -0.107 0.976 0.677 -0.777 0.074 0.013 -0.981 0.824 -0.156 -0.192 -0.215 0.532 0.914 -0.600 0.686 0.128 0.059 -0.915 -0.522 0.760 0.668 0.017 0.444 -0.557 0.596 0.539 0.824 -0.024 -0.684 0.439 0.712 0.457 0.415 0.593 0.240 -0.764 -0.981 -0.123 0.670 -0.396 0.087 -0.279 0.193 -0.276 -0.386 0.068 -0.456 0.881 0.879 -0.253 -0.561 0.518 -0.158 0.628 -0.949 0.560 0.247 0.736 -0.908 -0.802 0.702 0.595 -0.526 0.223 0.671 -0.089 0.341 -0.831 -0.784 0.947 0.115 -0.888 -0.620 -0.830 0.401 -0.831 -0.255 -0.249 0.947 -0.392 -0.472 -0.018 0.533 0.955 0.159 -0.872 0.669 -0.842 -0.130 -0.339 0.647 -0.192 -0.099 -0.993 -0.471 0.988 -0.925 -0.887 0.258 0.123 -0.591 -0.692 0.214 -0.597 -0.326 -0.594 0.693 0.598 0.698 -0.125 -0.214 -0.016 -0.620 0.928 -0.543 0.618 0.347 -0.712 0.730 0.308 -0.566 -0.475 -0.055 0.475 0.616 0.817 -0.166 -0.256 0.313 -0.066 -0.240 0.895 0.751 -0.817 -0.423 -0.938 -0.415 -0.898 0.823 -0.117 -0.638 -0.339 0.262 -0.461 -0.870 -0.698 0.028 -0.471 -0.270 -0.128 0.706 -0.553 -0.597 -0.047 0.389 0.341 -0.480 0.643 -0.999 0.351 -0.602 -0.593 -0.765 0.932 -0.201 0.902 0.845 -0.315 0.580 -0.646 0.048 0.892 0.450 0.504 0.519 -0.946 0.673 -0.797 -0.118 0.407 0.345 0.398 0.942 -0.355 -0.890 0.509 -0.149 0.960 0.087 -0.471 0.408 -0.340 0.801 -0.456 0.104 -0.584 0.721 -0.406 -0.663 -0.889 0.898 0.790 -0.205 -0.788 -0.564 0.101 -0.878 -0.666 -0.906 0.167 -0.713 -0.433 0.808 0.108 -0.518 0.489 0.624 0.571 0.881 -0.421 0.214 -0.180 0.620 -0.726 0.935 0.803 -0.459 -0.011 0.122 0.027 -0.122 -0.760 0.852 0.269 0.846 0.560 -0.557 -0.565 -0.662 -0.420 -0.524 0.143 -0.641 -0.070 0.416 0.614 -0.128 0.866 -0.304 0.549 0.589 0.838 0.077 0.633 0.601 -0.437 0.484 0.514 -0.239 -0.150 -0.069 -0.021 0.089 0.966 0.484 0.597 0.153 0.925 -0.519 -0.628 0.759 0.498 -0.907 0.528 0.394 -0.057 -0.347 -0.445 0.931 -0.952 0.629 -0.961 -0.295 -0.965 0.370 0.439 -0.051 0.238 -0.959 0.738 -0.638 0.099 -0.176 0.259 0.875 0.031 -0.623 -0.512 -0.451 -0.119 0.825 0.970 0.354 0.602 0.977 -0.613 -0.660 0.868 0.645 0.785 -0.284 -0.333 0.936 -0.761 0.183 -0.344 -0.938 0.716 0.187 0.328 0.225 -0.795 -0.277 -0.824 -0.519 0.286 0.441 -0.681 0.249 -0.962 0.408 0.522 -0.353 0.720 -0.379 0.150 -0.584 0.265 0.337 -0.511 0.295 -0.417 -0.409 0.561 0.945 0.904 0.969 -0.938 -0.724 -0.733 -0.625 0.257 0.719 -0.007 0.696 -0.044 -0.932 0.003 0.853 -0.333 0.099 0.606 0.589 -0.127 -0.539 0.075 -0.245 -0.332 0.595 -0.793 -0.452 -0.850 0.146 -0.626 0.347 0.788 0.821 0.578 0.961 -0.329 0.966 -0.234 -0.701 0.906 -0.496 -0.837 0.098 -0.963 -0.676 -0.404 -0.842 0.195 0.614 0.309 0.456 -0.219 -0.060 -0.625 0.520 -0.708 0.596 0.089 0.094 0.644 -0.281 -0.622 0.703 -0.970 -0.430 -0.229 -0.085 0.125 -0.162 -0.899 -0.630 0.478 -0.980 -0.337 0.256 -0.498 -0.961 0.274 0.240 0.972 0.354 0.647 -0.287 -0.262 0.324 0.273 -0.071 0.655 0.515 -0.009 -0.845 -0.617 -0.870 -0.264 -0.559 -0.459 0.474 0.713 -0.126 -0.598 0.805 0.670 0.607 0.958 -0.535 0.478 0.019 -0.999 -0.641 0.076 0.825 -0.497 -0.560 0.688 0.516 -0.846 -0.420 0.134 0.722 -0.008 -0.034 -0.239 0.545 0.807 -0.451 0.873 -0.306 -0.715 0.761 -0.925 0.291 0.490 -0.951 -0.777 -0.241 -0.679 0.386 0.835 -0.030 0.145 -0.801 -0.763 0.012 0.727 -0.533 -0.882 0.014 -0.843 0.874 0.470 -0.469 0.745 -0.154 -0.409 0.812 0.336 0.890 0.962 -0.750 0.514 -0.538 0.383 -0.707 -0.521 -0.020 -0.774 0.515 0.469 0.666 -0.627 -0.503 -0.826 -0.737 -0.451 -0.954 0.745 -0.005 0.822 -0.452 -0.570 0.791 -0.524 -0.193 0.269 0.170 -0.148 0.504 0.094 -0.223 -0.928 0.801 -0.532 0.254 0.414 0.592 0.403 0.372 -0.558
4 785 -0.021 0.671 -0.313 0.511 0.156 0.122 0.302 0.383 0.012 -0.987 -0.851 -0.162 -0.833 0.489 -0.223 0.382 0.197 0.461 0.182 0.435 0.289 -0.160 0.470 0.150 0.064 -0.229 0.927 -0.178 0.998 -0.622 -0.957 -0.300 -0.487 0.407 0.425 -0.316 -0.216 -0.750 0.101 0.380 -0.201 0.876 -0.972 0.287 0.778 0.896 0.077 -0.489 0.054 -0.379 -0.917 -0.450 0.848 -0.607 0.425 -0.531 0.122 0.417 0.927 -0.050 0.283 -0.943 -0.285 -0.147 0.539 0.668 0.298 0.107 0.814 0.306 -0.120 0.801 0.035 0.384 -0.854 0.481 0.362 0.561 0.674 -0.592 -0.744 -0.043 -0.561 -0.237 0.315 -0.692 -0.748 0.243 -0.504 -0.008 0.575 -0.797 0.427 -0.572 0.657 0.151 0.131 0.029 0.682 0.337 -0.492 0.488 0.612 0.178 0.512 -0.511 -0.984 -0.188 -0.223 0.623 0.564 0.656 -0.996 0.833 0.031 -0.591 -0.020 -0.946 0.683 0.651 -0.884 0.086 0.049 0.262 -0.266 0.879 0.682 -0.694 0.184 -0.059 -0.340 0.729 0.018 -0.167 -0.263 -0.223 -0.600 -0.173 0.907 0.191 -0.931 -0.175 0.629 -0.803 0.592 -0.795 0.289 -0.835 0.719 -0.124 0.783 0.045 0.887 0.980 0.752 0.930 0.190 0.820 0.566 -0.159 0.079 -0.890 0.070 -0.147 0.137 0.958 -0.226 0.435 -0.128 0.610 0.688 -0.413 0.494 0.876 0.461 -0.367 -0.025 0.003 -0.947 0.038 -0.483 -0.061 -0.954 0.114 0.986 0.888 -0.576 0.826 -0.953 -0.190 0.655 -0.623 0.829 0.491 -0.257 -0.446 -0.923 0.680 -0.259 -0.444 -0.623 -0.712 0.180 0.201 -0.036 -0.227 -0.386 -0.946 0.017 -0.382 -0.082 -0.316 -0.905 -0.369 0.303 -0.194 0.986 0.147 -0.298 0.281 0.640 0.513 -0.901 0.072 0.955 0.675 -0.370 -0.006 0.067 0.524 0.418 0.190 0.984 0.527 0.925 -0.955 -0.291 -0.996 0.828 -0.015 -0.974 -0.206 -0.646 -0.399 -0.713 0.726 0.977 -0.999 -0.655 -0.385 0.300 0.626 -0.191 0.264 0.204 -0.022 0.269 0.931 -0.903 -0.417 -0.876 0.411 0.447 -0.417 -0.569 0.608 -0.090 0.426 -0.739 0.957 0.593 -0.241 0.723 -0.805 -0.736 0.357 0.656 -0.366 -0.821 -0.618 -0.962 0.579 0.299 -0.624 0.470 0.697 -0.176 -0.123 -0.922 0.850 -0.873 0.315 0.900 -0.707 0.853 -0.451 0.771 0.549 0.511 0.603 -0.002 0.826 0.926 0.295 0.059 -0.203 0.299 0.447 -0.834 -0.611 -0.173 0.774 0.019 -0.372 -0.307 -0.910 -0.014 0.573 0.961 0.740 0.642 -0.844 -0.300 -0.390 0.420 0.866 -0.044 0.299 0.736 0.034 0.087 0.046 -0.857 -0.158 -0.822 -0.902 0.376 0.382 0.837 0.257 -0.025 -0.760 0.226 0.815 0.157 0.577 0.502 0.144 -0.031 -0.555 -0.129 0.026 0.809 -0.698 0.904 0.832 -0.697 -0.860 -0.974 0.723 -0.416 0.658 0.234 0.072 0.386 0.039 -0.846 -0.439 -0.106 -0.294 -0.100 -0.130 -0.905 0.383 -0.754 -0.097 0.864 0.838 -0.629 0.989 0.029 -0.628 0.317 -0.682 -0.540 0.446 0.868 0.178 -0.677 -0.205 -0.067 0.882 0.090 -0.071 0.962 0.574 -0.191 0.633 -0.337 0.580 -0.768 -0.222 0.983 0.558 0.102 0.815 0.447 -0.425 -0.512 0.817 -0.213 0.767 -0.037 -0.524 -0.443 -0.922 -0.964 -0.329 0.530 -0.374 -0.080 -0.114 -0.820 -0.319 0.617 0.573 0.055 -0.849 -0.196 -0.074 -0.412 -1.000 0.186 0.561 -0.040 0.986 0.397 -0.561 0.115 -0.714 0.773 0.794 0.688 0.076 -0.358 -0.582 0.424 -0.626 0.274 0.864 0.684 -0.141 -0.103 0.249 -0.508 -0.905 0.333 0.817 -0.634 0.288 -0.378 -0.481 0.033 -0.208 -0.051 -0.751 -0.915 0.144 0.732 -0.540 -0.032 -0.849 -0.357 0.133 -0.103 0.076 0.514 0.613 -0.608 0.833 0.843 0.563 0.543 -0.877 0.815 -0.675 0.059 -0.690 0.779 0.391 0.035 -0.979 0.941 -0.739 -0.720 -0.834 0.823 0.645 -0.574 0.314 -0.912 0.924 0.516 0.742 -0.494 -0.919 0.306 0.654 0.929 -0.821 -0.453 -0.071 0.262 0.050 0.976 -0.231 0.611 0.431 0.872 0.499 -0.006 -0.032 0.454 0.621 -0.280 -0.587 -0.257 -0.626 0.005 0.408 0.495 0.218 -0.607 -0.001 0.528 -0.243 -0.624 -0.777 -0.263 0.823 -0.903 -0.689 0.564 0.187 -0.833 -0.136 0.143 0.440 0.843 0.631 -0.855 -0.366 0.842 0.853 0.492 -0.686 0.122 -0.991 -0.243 -0.725 -0.886 -0.941 -0.298 -0.514 -0.630 0.907 -0.534 -0.017 0.644 -0.584 -0.231 -0.378 -0.948 -0.463 -0.398 0.204 -0.838 0.840 0.156 0.179 -0.159 0.174 -0.126 -0.675 -0.325 -0.567 0.112 0.232 -0.702 0.847 0.162 0.622 0.033 0.740 -0.411 -0.218 -0.040 -0.050 0.451 0.685 0.075 0.706 0.209 -0.979 -0.598 0.509 0.897 0.489 0.614 0.400 0.026 0.341 -0.051 -0.744 0.975 -0.633 -0.855 0.442 -0.984 0.359 -0.644 -0.528 0.721 0.650 0.322 -0.797 -0.969 -0.580 0.967 -0.088 -0.442 0.551 0.279 -0.221 -0.918 -0.170 -0.264 -0.741 -0.368 0.717 0.375 0.376 0.620 0.925 0.231 -0.089 -0.470 -0.252 -0.656 0.247 0.285 0.046 0.253 0.436 -0.107 -0.152 -0.250 0.913 0.613 0.093 -0.992 -0.417 0.926 -0.355 -0.126 -0.576 0.413 0.869 -0.370 -0.960 -0.034 0.856 -0.085 -0.454 0.833 -0.470 0.352 0.661 -0.064 0.751 0.701 0.096 -0.915 0.942 -0.371 -0.338 0.559 -0.520 0.676 0.211 0.853 -0.644 -0.730 0.562 0.608 0.407 -0.166 0.049 0.813 -0.738 -0.991 0.498 0.788 0.072 0.588 0.868 0.846 -0.133 -0.188 -0.951 0.150 0.544 -0.487 -0.672 -0.888 -0.834 0.182 -0.781 -0.991 -0.600 -0.937 0.876 -0.099 0.065 -0.397 0.106 -0.604 -0.250 -0.291 0.991 0.460 -0.092 0.098 -0.457 0.767 0.094 -0.661 -0.468 -0.144 0.266 -0.734 0.401 -0.522 -0.363 -0.099 0.942 -0.103 -0.346 0.492 0.988 0.024 0.158 0.701 0.403 0.306 -0.897 -0.096 -0.920 0.520 -0.770 -0.985 -0.607 -0.072 -0.148 -0.094 0.922 0.168 -0.976 -0.153 -0.363 0.272 -0.587 0.073 -0.143 -0.557 -0.269 0.308 -0.877 0.569 -0.540 -0.458 0.471 -0.841 -0.841 0.888
5 785 -0.828 -0.355 -0.309 -0.787 0.628 0.402 -0.552 -0.835 0.677 -0.944 0.929 0.440 -0.284 0.583 0.566 0.478 0.628 -0.793 0.902 -0.139 0.949 -0.288 -0.286 0.804 0.338 0.239 0.022 -0.611 -0.608 0.026 -0.641 0.263 0.521 -0.018 0.672 0.218 -0.189 -0.779 -0.588 -0.454 -0.374 0.714 -0.990 -0.984 0.646 -0.436 0.041 -0.586 0.105 -0.528 -0.946 0.734 0.180 -0.478 -0.186 -0.447 0.774 0.684 -0.176 -0.111 -0.313 0.519 -0.780 -0.797 -0.606 0.523 0.238 -0.143 -0.170 0.959 -0.974 0.605 -0.091 -0.552 0.795 -0.024 -0.619 0.369 -0.221 -0.747 0.850 0.018 0.757 0.366 -0.671 0.084 0.535 -0.462 -0.755 0.540 0.151 0.009 0.677 -0.771 -0.971 0.987 -0.397 -0.991 0.965 0.883 -0.668 0.346 -0.915 0.580 -0.590 -0.775 0.087 -0.530 0.799 -0.329 -0.533 0.042 0.922 -0.337 -0.718 -0.955 -0.298 0.315 0.814 0.946 0.694 0.042 0.970 0.474 -0.599 -0.280 0.657 -0.208 -0.346 0.526 -0.514 -0.293 -0.587 -0.068 -0.327 0.731 -0.232 0.859 -0.099 -0.399 0.144 -0.815 0.648 0.993 -0.373 -0.084 -0.958 0.975 -0.543 0.483 -0.992 0.035 0.932 0.508 0.324 -0.640 -0.320 0.434 0.850 0.301 -0.738 -0.401 -0.179 -0.271 0.117 -0.581 0.472 -0.568 0.393 0.992 -0.858 -0.120 0.965 -0.345 -0.419 0.838 0.687 -0.155 0.050 0.234 -0.328 -0.751 0.311 0.321 0.006 -0.131 -0.353 -0.301 -0.321 0.239 0.413 -0.967 0.800 -0.636 -0.927 0.197 -0.221 0.367 -0.357 0.059 0.959 -0.105 0.187 -0.708 0.968 -0.498 0.879 0.277 0.117 -0.778 0.576 0.741 0.686 0.485 0.612 -0.727 -0.561 0.726 -0.915 0.159 0.696 -0.961 0.539 -0.431 0.497 0.059 0.520 0.466 -0.770 0.088 0.681 0.864 0.373 -0.695 0.253 -0.870 0.222 -0.124 0.625 -0.102 0.883 0.490 0.992 -0.547 0.713 0.031 -0.280 0.094 -0.871 -0.551 -0.678 -0.516 0.616 0.759 0.230 -0.535 0.679 0.319 -0.315 0.505 0.171 -0.243 0.813 0.099 -0.743 0.735 -0.725 0.948 -0.598 -0.974 -0.115 0.593 -0.273 0.257 0.459 0.273 0.115 0.443 -0.990 0.799 0.679 0.972 -0.686 0.604 -0.591 0.803 -0.853 0.221 -0.824 -0.932 0.068 -0.772 0.353 0.278 0.945 0.907 0.601 0.573 -0.005 0.437 0.559 -0.774 -0.809 -0.873 -0.901 -0.390 -0.423 -0.299 -0.705 -0.353 -0.310 0.175 0.501 0.576 -0.195 -0.068 -0.778 -0.720 -0.491 -0.656 0.686 0.004 -0.721 -0.012 -0.587 0.481 -0.913 -0.991 -0.587 -0.756 -0.716 -0.416 0.852 0.244 -0.017 0.977 0.270 -0.855 0.422 -0.043 0.944 -0.307 0.875 -0.052 0.033 0.547 -0.809 -0.524 0.945 0.061 -0.744 0.242 -0.683 -0.079 0.546 0.066 0.472 -0.322 0.432 0.284 0.420 0.750 -0.322 0.543 -0.132 -0.550 0.607 0.493 0.228 -0.088 0.606 -0.288 -0.419 -0.929 0.064 0.826 0.981 -0.014 -0.724 0.907 -0.847 -0.731 0.678 0.807 -0.395 0.936 -0.268 -0.345 0.402 -0.670 0.027 -0.759 0.460 0.800 -0.550 0.781 -0.308 0.925 -0.231 -0.321 -0.365 0.035 -0.419 -0.509 -0.573 -0.683 0.898 -0.501 0.086 0.402 -0.460 0.893 0.328 -0.654 0.767 0.313 0.328 -0.635 -0.285 -0.129 0.005 -0.874 0.575 -0.703 0.435 0.173 0.404 0.207 0.707 0.945 0.967 0.119 -0.841 -0.106 0.834 0.659 -0.660 -0.021 0.290 0.439 -0.633 0.821 0.323 0.703 -0.070 0.665 -0.474 0.564 0.545 -0.629 0.375 -0.113 0.498 0.929 0.145 0.021 -0.607 0.349 -0.557 -0.620 0.408 -0.015 -0.254 -0.089 0.747 0.927 -0.184 0.042 0.624 0.746 -0.037 -0.228 0.559 0.346 0.316 0.017 -0.468 -0.292 -0.810 -0.029 0.239 0.130 -0.712 0.784 -0.863 -0.451 -0.072 0.034 0.025 -0.795 0.089 0.984 -0.087 0.727 0.948 0.477 -0.387 -0.284 0.755 0.148 -0.371 0.378 -0.082 0.323 -0.643 -0.819 -0.835 -0.430 -0.862 -0.231 -0.391 -0.058 -0.487 -0.020 -0.878 -0.283 -0.214 -0.214 0.499 0.039 -0.407 0.998 -0.368 0.192 0.331 0.200 -0.240 -0.258 -0.920 -0.525 -0.301 0.516 0.880 0.996 -0.455 -0.709 -0.052 -0.113 0.317 0.008 0.703 0.649 0.486 -0.057 0.176 -0.597 0.962 0.712 -0.656 -0.882 0.848 0.228 -0.889 0.804 -0.201 0.021 -0.356 -0.536 0.857 0.350 0.598 0.392 0.014 -0.082 0.075 0.224 -0.481 0.835 -0.983 -0.626 0.184 -0.926 -0.125 -0.575 -0.958 0.904 0.792 0.505 -0.216 0.135 0.514 -0.738 0.713 -0.451 -0.709 0.487 0.649 0.422 -0.503 0.822 0.164 0.153 -0.063 -0.563 -0.883 0.842 -0.401 0.427 -0.693 0.705 -0.605 0.328 -0.587 0.642 0.672 0.712 0.920 -0.444 0.743 0.155 -0.908 -0.276 -0.408 -0.998 0.414 0.033 -0.348 -0.434 0.018 -0.288 0.080 0.429 0.757 0.613 -0.382 -0.576 -0.142 0.133 -0.768 -0.758 -0.839 -0.138 0.124 -0.362 0.328 0.380 0.973 0.069 0.283 -0.874 0.178 0.607 -0.252 0.914 -0.131 -0.447 0.382 0.012 0.470 -0.229 -0.891 -0.014 -0.130 -0.984 0.231 -0.609 0.627 0.015 0.792 0.157 -0.363 0.152 -0.920 0.138 -0.783 -0.745 -0.583 -0.937 0.509 -0.239 0.616 -0.952 0.413 0.584 -0.148 0.489 0.970 -0.243 0.055 0.471 -0.303 0.874 0.408 -0.169 0.229 0.021 -0.661 -0.173 0.491 0.544 0.535 0.040 0.516 -0.899 -0.313 0.934 -0.176 0.994 -0.075 0.225 0.682 0.549 -0.446 0.499 0.514 0.851 -0.256 0.577 -0.343 -0.911 -0.397 -0.334 -0.894 0.335 0.377 0.907 -0.521 -0.718 0.339 0.004 -0.013 -0.247 0.861 -0.204 -0.537 -0.160 -0.431 -0.497 -0.183 0.782 0.372 -0.822 -0.719 -0.164 0.485 -0.797 0.711 0.389 -0.531 -0.357 -0.776 -0.156 -0.453 0.426 0.336 0.815 0.595 0.558 -0.167 -0.175 -0.268 0.068 -0.091 -0.516 0.666 -0.310 0.543 -0.771 -0.888 0.200 -0.843 0.511 -0.939 0.102 -0.453 -0.269 -0.286 -0.794 0.648 -0.232 0.483 0.338 0.894 -0.028 0.398 0.596 -0.093 -0.771 0.113 -0.117 -0.826 0.167 -0.164 0.759 -0.862
6 785 -0.249 0.468 -0.860 0.485 0.608 0.624 0.621 0.276 -0.732 -0.205 0.552 0.371 -0.578 -0.282 0.575 -0.905 0.783 0.351 -0.337 0.291 -0.581 0.888 -0.070 0.164 -0.209 0.166 -0.241 0.857 0.193 0.806 -0.178 -0.101 0.989 -0.387 0.930 0.487 -0.039 -0.576 -0.294 -0.106 -0.385 0.172 0.335 0.568 -0.017 -0.506 0.652 -0.869 0.503 -0.741 0.119 0.011 0.168 -0.970 -0.082 0.795 0.870 -0.505 0.118 -0.906 0.010 0.085 0.453 0.860 -0.552 0.689 -0.928 0.032 -0.090 0.277 0.808 -0.339 0.429 0.016 0.640 0.938 -0.266 -0.297 0.579 0.886 -0.418 0.162 -0.251 0.084 -0.551 0.584 -0.084 0.244 -0.252 0.432 -0.948 -0.375 0.673 0.010 0.862 0.538 -0.240 0.334 0.550 0.934 -0.760 -0.248 0.107 0.843 0.562 -0.492 0.301 0.902 0.382 -0.383 0.520 -0.038 0.351 -0.411 0.405 0.236 0.199 0.098 -0.202 0.151 -0.134 0.653 0.182 0.679 0.439 0.324 0.137 -0.592 -0.977 0.951 0.155 0.349 0.420 -0.013 -0.841 -0.479 -0.427 0.650 -0.233 -0.996 -0.009 -0.892 -0.519 0.058 -0.789 -0.676 0.845 0.143 0.075 -0.293 -0.338 0.275 -0.573 0.881 -0.386 -0.176 -0.650 -0.566 0.503 -0.059 -0.901 -0.304 -0.516 0.588 0.989 0.088 -0.768 0.227 -0.696 -0.625 0.122 0.397 -0.980 0.358 -0.155 0.640 -0.025 0.777 -0.168 -0.301 -0.987 0.961 0.570 -0.103 0.684 0.881 -0.393 0.563 0.313 -0.181 -0.955 0.691 -0.352 0.890 -0.223 0.532 0.773 0.290 -0.583 -0.591 0.985 -0.991 -0.238 0.690 0.106 -0.573 -0.585 0.348 0.896 0.099 -0.695 0.217 0.306 0.134 0.463 0.544 0.461 0.513 -0.830 -0.390 -0.532 0.511 0.066 -0.478 -0.263 -0.461 -0.458 0.302 -0.297 0.055 -0.570 0.784 0.524 0.215 -0.818 -0.566 0.149 -0.077 -0.856 -0.078 -0.693 0.599 0.860 0.432 0.947 -0.599 -0.157 0.913 -0.532 0.962 0.449 0.380 0.221 -0.821 -0.456 0.250 0.248 -0.495 -0.265 0.260 0.112 0.233 0.147 -0.655 -0.803 0.003 -0.323 0.563 0.538 -0.591 0.143 0.520 -0.601 0.710 0.639 0.187 0.984 -0.291 0.103 0.418 -0.552 -0.822 0.715 -0.662 0.296 0.432 0.825 -0.956 -0.910 -0.284 0.247 -0.439 0.538 0.812 -0.833 0.727 -0.408 0.036 0.398 0.209 -0.771 -0.875 -0.490 -0.762 0.390 -0.014 0.841 0.450 -0.191 0.655 -0.462 -0.444 -0.002 0.292 -0.366 0.833 0.060 -0.522 -0.403 0.200 0.584 0.432 -0.007 0.270 0.274 0.233 -0.116 0.930 -0.017 -0.129 0.646 0.359 0.060 0.401 -0.955 0.916 0.022 0.358 -0.882 -0.815 -0.153 0.685 0.583 0.016 0.210 -0.743 -0.938 0.204 -0.651 0.946 0.221 -0.833 -0.548 0.531 0.027 -0.707 -0.377 0.398 -0.171 0.121 0.238 -0.869 -0.163 0.461 -0.830 0.630 0.688 0.837 -0.780 -0.795 -0.137 -0.724 -0.077 0.010 0.430 -0.325 -0.191 0.223 0.159 0.379 -0.764 -0.464 -0.424 -0.092 -0.630 -0.362 -0.030 -0.075 -0.055 -0.929 0.491 0.182 0.664 0.195 -0.215 0.813 -0.148 -0.315 0.590 0.118 -0.937 0.806 -0.685 0.872 0.192 -0.454 -0.596 -0.135 -0.133 -0.633 0.646 0.784 -0.273 0.415 -0.525 0.051 -0.392 -0.387 0.178 0.650 0.772 -0.193 0.300 -0.789 -0.512 -0.995 0.479 0.605 0.417 -0.203 0.110 -0.048 -0.766 -0.405 0.729 -0.921 -0.174 0.484 -0.729 0.559 -0.745 0.720 0.500 -0.389 0.981 0.345 0.416 0.342 0.291 -0.070 -0.334 0.256 0.374 0.797 0.446 0.240 0.485 -0.275 -0.934 0.127 0.989 -0.654 -0.668 -0.467 -0.462 0.108 0.854 0.138 0.988 0.569 0.014 -0.818 0.929 0.703 -0.037 -0.446 0.636 -0.740 0.649 -0.188 -0.580 -0.130 0.024 -0.207 0.529 0.236 0.790 0.387 0.800 0.441 -0.450 0.232 -0.538 -0.493 0.726 -0.016 -0.432 0.481 -0.253 -0.937 -0.385 0.748 -0.829 0.958 -0.346 -0.623 -0.540 0.424 -0.220 0.538 0.707 -0.518 -0.419 0.438 -0.997 0.056 -0.468 -0.277 0.998 0.845 -0.591 0.252 0.650 -0.945 0.675 -0.941 0.960 0.568 -0.217 0.848 -0.676 -0.068 -0.689 0.728 -0.643 0.071 -0.463 0.983 0.665 -0.897 -0.164 0.335 -0.848 0.724 0.772 0.672 -0.876 0.171 0.583 0.600 0.105 -0.696 0.981 -0.511 0.801 0.560 0.462 -0.004 0.801 -0.340 0.131 -0.464 -0.830 -0.050 0.330 -0.473 -0.714 0.547 0.021 -0.484 -0.716 -0.609 0.116 -0.872 0.027 0.345 -0.399 -0.738 -0.568 0.245 0.978 -0.624 -0.713 -0.665 -0.567 0.111 0.829 -0.520 0.125 -0.113 0.330 0.215 0.129 -0.740 0.918 -0.138 -0.043 -0.474 0.157 -0.587 -0.236 -0.198 0.922 0.500 -0.948 -0.481 0.458 0.760 -0.807 -0.610 -0.633 -0.066 0.502 0.671 -0.961 0.304 0.393 0.901 0.134 0.451 -0.055 -0.367 0.851 0.441 0.981 -0.028 -0.608 0.446 -0.408 -0.246 0.156 0.149 -0.905 0.138 -0.855 0.992 -0.405 -0.539 0.198 0.960 -0.513 0.216 0.392 -0.570 -0.067 0.814 -0.716 0.083 0.110 0.344 -0.743 -0.062 -0.276 -0.126 0.111 -0.804 0.971 -0.575 0.289 0.001 -0.921 -0.737 0.667 -0.316 -0.738 -0.867 0.771 0.707 -0.931 -0.781 0.565 0.546 0.761 -0.632 -0.313 0.940 -0.098 0.527 0.348 -0.918 0.670 0.330 -0.647 -0.091 0.068 0.250 -0.818 0.294 -0.559 -0.454 -0.252 0.234 0.279 -0.169 -0.031 0.623 -0.582 0.844 -0.366 -0.702 -0.781 -0.749 0.079 0.003 -0.493 0.577 0.401 0.345 -0.482 0.248 -0.129 -0.289 -0.080 -0.136 0.831 -0.270 0.385 0.674 0.248 0.524 -0.970 0.261 -0.789 0.204 -0.552 0.379 0.123 -0.332 0.141 0.175 -0.227 -0.045 -0.396 -0.661 -0.728 -0.308 -0.513 -0.436 0.318 0.418 -0.488 0.882 0.596 -0.852 0.604 0.972 -0.339 -0.493 0.895 0.868 0.524 0.921 0.677 -0.430 0.512 0.739 0.655 0.795 -0.269 -0.533 -0.576 -0.873 0.132 -0.150 -0.408 0.987 -0.044 0.963 0.860 0.221 0.210 -0.662 -0.955 0.819 0.754 0.658 0.304 0.939 -0.605 0.272 -0.458 0.191 -0.977 0.981 -0.084
7 785 -0.609 0.865 -0.599 0.759 -0.327 0.205 0.027 0.861 0.654 0.721 -0.038 0.771 -0.028 -0.696 -0.303 -0.739 -0.322 0.269 0.885 0.559 -0.569 0.010 0.425 0.548 -0.638 -0.409 0.581 0.155 -0.998 0.005 -0.355 0.655 0.039 0.175 0.827 0.711 0.150 0.884 0.190 -0.643 0.065 0.341 0.896 -0.732 -0.551 0.510 -0.454 0.352 0.094 0.372 -0.996 -0.012 0.114 0.120 0.861 -0.215 0.665 -0.485 -0.921 0.675 -0.016 0.267 0.513 0.959 0.671 -0.286 -0.031 -0.605 0.860 -0.914 0.007 -0.772 0.386 -0.917 -0.583 -0.076 -0.411 0.766 0.137 -0.371 -0.936 0.252 -0.769 0.525 -0.771 -0.029 0.570 -0.398 -0.082 0.575 -0.524 0.875 0.692 0.120 -0.834 -0.620 0.501 0.642 -0.201 -0.669 -0.229 -0.667 -0.743 0.498 0.599 -0.330 -0.917 -0.647 0.196 0.351 0.548 0.382 -0.522 -0.570 -0.422 0.187 -0.854 0.095 -0.963 0.181 -0.709 0.077 -0.666 0.294 0.736 0.662 0.845 -0.494 0.090 0.282 0.534 -0.283 -0.705 -0.556 -0.619 -0.169 0.938 -0.021 0.228 0.750 -0.668 0.225 0.769 0.078 -0.421 -0.315 0.475 0.565 0.430 0.337 0.777 -0.759 -0.145 0.617 0.229 -0.845 0.881 -0.025 -0.373 0.015 0.121 0.247 0.704 -0.851 0.520 -0.635 -0.363 -0.364 -0.833 -0.301 -0.419 -0.921 -0.852 -0.822 0.245 -0.461 -0.229 0.312 0.425 0.500 -0.061 -0.515 -0.021 0.787 -0.041 -0.839 -0.350 -0.805 -0.409 0.659 0.970 0.551 0.686 -0.479 0.982 -0.379 0.708 -0.801 0.636 -0.455 0.738 0.775 0.825 0.388 0.752 -0.063 -0.641 -0.932 -0.927 -0.184 0.726 0.103 -0.888 0.141 -0.653 0.120 0.222 -0.555 0.488 0.992 -0.656 0.986 -0.403 -0.716 0.336 -0.104 -0.803 0.336 0.713 0.530 -0.986 0.893 0.132 -0.203 0.021 0.652 -0.186 0.776 -0.962 -0.714 0.955 0.116 -0.570 -0.678 -0.734 0.706 0.266 -0.383 -0.986 -0.320 0.567 -0.302 0.767 -0.173 -0.063 -0.808 -0.805 -0.520 0.993 0.815 -0.851 -0.399 0.372 0.823 -0.428 -0.990 0.648 0.591 0.461 -0.790 -0.448 0.889 -0.176 0.800 -0.292 0.487 -0.984 0.421 0.152 -0.094 -0.115 0.113 -0.940 -0.734 -0.683 0.682 0.251 -0.924 -0.348 -0.232 -0.224 -0.668 -0.136 -0.498 0.570 -0.406 -0.134 0.432 -0.889 -0.735 0.097 0.214 0.787 0.787 0.129 0.839 0.710 -0.090 -0.742 0.683 0.375 0.053 -0.216 0.789 0.979 0.630 0.046 -0.276 -0.540 -0.580 0.657 -0.555 0.544 0.851 0.120 0.029 0.367 -0.535 -0.292 -0.387 -0.265 0.585 -0.345 0.310 -0.414 0.557 0.748 -0.691 0.821 -0.063 -0.019 -0.911 0.614 -0.288 -0.887 -0.673 0.080 0.573 -0.440 0.442 -0.231 0.078 0.231 -0.020 -0.889 -0.247 -0.371 0.327 -0.910 -0.623 -0.973 -0.612 -0.213 0.259 0.203 0.113 -0.779 0.924 0.291 0.212 -0.358 -0.467 0.176 0.751 -0.234 0.750 -0.873 0.951 0.489 0.670 -0.310 0.256 0.639 -0.004 0.996 0.176 -0.744 -0.891 0.296 -0.672 -0.464 -0.502 0.790 -0.658 -0.350 -0.799 0.872 0.228 -0.678 0.042 -0.926 -0.608 -0.965 -0.245 0.746 -0.197 0.314 0.173 0.656 0.905 -0.685 0.773 0.155 -0.399 -0.475 0.088 -0.699 0.591 0.031 -0.485 0.172 -0.139 0.880 0.160 -0.929 -0.772 0.238 -0.322 -0.097 -0.248 -0.851 0.254 0.881 0.936 -0.662 0.679 -0.550 -0.073 0.935 0.178 -0.055 -0.257 -0.434 0.417 0.797 0.198 -0.402 0.320 0.112 0.208 0.221 0.499 -0.363 0.566 -0.588 -0.933 0.384 -0.983 0.903 0.325 0.927 0.242 -0.793 -0.681 -0.782 0.854 -0.333 -0.502 0.412 0.704 -0.860 0.418 0.746 0.491 -0.193 -0.848 0.606 0.979 -0.360 0.829 -0.619 -0.662 -0.964 -0.257 0.159 0.507 0.423 -0.230 -0.454 0.206 -0.104 0.317 0.218 -0.586 -0.127 0.681 0.548 -0.030 -0.309 -0.089 0.427 0.937 -0.848 -0.614 -0.713 0.629 -0.959 -0.040 0.106 0.867 0.882 0.039 0.528 -0.535 -0.327 0.454 0.247 0.406 -0.513 -0.516 0.276 -0.712 -0.986 -0.859 -0.038 0.788 -0.301 -0.989 0.124 -0.955 -0.397 0.025 0.409 -0.660 0.019 -0.083 -0.286 -0.022 0.105 0.982 -0.741 -0.688 0.523 0.000 0.789 0.895 -0.685 -0.396 0.770 -0.787 0.997 -0.219 -0.850 -0.101 0.615 -0.248 0.303 -0.842 -0.428 -0.659 -0.306 0.413 -0.759 -0.659 0.390 -0.503 0.536 -0.399 0.516 -0.690 0.793 -0.153 0.239 0.085 -0.775 -0.289 -0.090 -0.285 0.101 0.863 -0.418 0.665 0.387 -0.759 0.161 -0.934 -0.906 0.152 -0.906 0.771 0.828 -0.775 -0.104 -0.419 0.238 0.778 -0.737 0.367 -0.197 -0.548 -0.496 -0.353 0.820 0.529 0.953 -0.002 0.272 0.006 -0.813 -0.402 -0.776 0.835 0.527 0.371 0.616 -0.097 0.979 0.776 -0.771 -0.346 0.162 -0.695 -0.781 0.164 -0.861 -0.796 0.711 -0.429 -0.518 0.278 -0.418 0.523 -0.498 0.114 -0.944 -0.365 0.426 0.050 0.742 0.228 -0.705 -0.862 0.692 -0.701 0.758 -0.315 -0.170 -0.072 0.862 -0.482 -0.915 -0.555 0.042 -0.045 -0.919 0.066 0.774 -0.560 -0.807 0.763 -0.522 -0.830 -0.135 -0.597 0.721 -0.918 -0.097 0.711 0.105 0.515 0.374 0.207 -0.948 -0.123 0.983 -0.305 -0.066 -0.886 -0.085 -0.246 0.158 0.682 -0.271 -0.135 0.781 0.100 0.882 -0.889 0.521 -0.174 0.778 0.930 0.984 0.778 -0.281 0.085 0.939 0.035 0.378 -0.653 -0.573 -0.774 0.518 0.615 -0.376 -0.228 -0.665 -0.875 -0.366 -0.691 0.304 0.952 0.872 -0.362 0.523 -0.292 0.403 0.585 -0.863 0.682 0.234 0.663 -0.327 -0.442 -0.258 0.109 -0.200 -0.055 -0.128 -0.348 -0.976 -0.843 0.397 -0.989 -0.975 -0.707 -0.203 -0.083 0.596 0.202 0.940 0.990 0.459 0.233 -0.087 -0.700 -0.250 -0.258 0.848 0.240 0.611 -0.372 -0.715 0.326 0.648 -0.035 -0.079 0.145 -0.109 -0.814 0.826 0.480 0.065 0.515 0.115 0.160 -0.696 0.380 -0.962 0.526 0.843 0.969 0.788 0.137 -0.711 -0.094 0.943 -0.351 -0.316 -0.782 0.994 0.418 0.095 0.479 -0.639
8 785 -0.238 -0.640 0.621 0.427 0.365 0.055 -0.807 -0.010 -0.147 0.756 -0.388 -0.317 -0.001 0.680 0.322 -0.968 -0.403 -0.753 0.980 0.218 0.217 0.016 -0.612 0.803 -0.686 -0.672 0.801 0.535 -0.404 -0.523 0.407 0.326 -0.219 0.394 0.769 -0.956 -0.961 -0.267 0.688 0.910 0.246 -0.365 -0.063 0.797 0.702 0.576 -0.343 -0.767 -0.963 -0.687 0.241 -0.557 0.647 0.585 -0.447 -0.437 0.359 -0.556 0.597 0.422 0.953 -0.501 -0.020 0.555 -0.087 -0.436 -0.850 0.206 -0.729 0.565 -0.582 0.628 0.528 0.313 0.651 -0.647 0.760 -0.572 0.636 0.021 -0.812 -0.370 -0.667 -0.535 -0.946 0.428 -0.243 -0.557 0.352 0.889 0.881 -0.449 -0.904 0.904 -0.664 -0.742 0.946 -0.876 -0.937 0.540 -0.814 0.159 -0.867 -0.367 0.996 -0.178 -0.027 0.712 0.966 0.987 -0.763 0.329 -0.830 -0.675 -0.741 0.531 -0.856 -0.329 -0.697 -0.191 0.739 -0.863 0.633 -0.335 0.716 -0.653 0.975 -0.523 0.007 0.682 0.095 0.518 -0.336 0.612 -0.438 -0.668 0.538 0.160 -0.417 -0.703 -0.525 -0.603 0.084 0.114 0.790 0.780 0.690 -0.743 0.564 0.746 -0.139 -0.507 0.905 -0.760 0.349 0.943 0.841 -0.553 -0.551 -0.589 -0.484 0.118 -0.093 -0.132 0.701 -0.883 -0.189 -0.366 0.260 -0.162 0.880 0.524 -0.139 -0.371 0.666 0.021 -0.442 -0.459 0.111 -0.456 0.462 0.409 -0.716 0.926 -0.683 0.002 0.489 0.313 0.955 -0.303 -0.358 0.383 -0.668 0.137 -0.313 -0.333 -0.778 0.306 -0.668 0.116 -0.839 -0.068 -0.367 0.618 0.022 0.172 0.917 0.819 -0.448 0.450 0.224 0.383 0.182 0.248 -0.719 -0.067 -0.376 -0.640 -0.792 -0.694 0.445 -0.302 -0.274 0.821 0.437 0.406 -0.817 0.513 0.259 0.792 0.540 -0.147 0.164 0.471 -0.737 0.314 -0.121 0.594 -0.591 -0.722 0.210 0.467 -0.658 0.837 -0.246 -0.815 0.532 0.719 -0.053 -0.227 0.277 0.261 -0.778 -0.768 0.946 0.425 0.559 0.186 -0.147 0.991 -0.688 0.314 0.745 -0.260 0.151 -0.021 0.212 -0.268 0.928 0.449 0.515 -0.397 -0.776 -0.975 0.551 0.297 -0.913 -0.993 0.833 -0.620 -0.749 0.270 -0.200 0.628 0.382 -0.962 0.403 -0.396 -0.347 0.037 -0.517 0.229 -0.978 0.558 -0.180 -0.678 0.516 -0.145 0.529 0.820 -0.029 0.056 0.146 -0.529 0.752 -0.348 0.435 0.405 0.665 0.637 0.141 0.387 0.849 -0.828 -0.940 -0.729 -0.527 0.147 0.383 -0.129 -0.629 0.494 -0.628 -0.181 0.063 -0.490 0.059 0.151 -0.698 0.799 -0.028 0.058 0.957 0.265 -0.448 -0.616 -0.926 0.809 -0.432 -0.516 -0.987 0.868 -0.503 -0.072 0.914 0.146 -0.954 0.346 0.451 0.902 0.622 -0.260 -0.352 -0.365 -0.768 -0.610 -0.113 0.344 0.334 -0.427 0.392 0.337 -0.578 0.138 0.638 -0.846 -0.896 0.641 -0.597 0.620 -0.379 -0.154 0.427 0.496 0.368 -0.454 -0.731 -0.279 -0.211 0.721 0.581 -0.630 -0.252 0.580 -0.408 0.815 -0.486 -0.975 0.338 0.888 -0.336 -0.246 0.901 0.948 0.090 -0.843 0.542 0.529 0.416 -0.726 -0.244 0.342 0.201 -0.255 0.765 -0.689 0.063 0.129 0.439 -0.755 0.425 -0.629 0.029 -0.181 -0.255 -0.088 -0.681 -0.676 -0.799 -0.473 -0.670 -0.518 0.236 -0.285 0.910 -0.701 -0.882 -0.218 -0.814 -0.421 -0.572 0.569 0.977 -0.272 -0.780 -0.547 0.705 -0.209 0.633 -0.656 -0.006 0.938 0.125 -0.224 0.140 -0.772 0.636 0.066 0.527 0.056 0.568 -0.058 -0.178 -0.269 0.128 0.203 -0.177 0.752 -0.936 -0.213 0.116 -0.132 0.779 0.494 0.917 0.395 0.322 -0.180 -0.292 -0.138 -0.202 -0.895 0.276 0.575 0.129 0.061 0.011 -0.763 0.838 0.410 0.324 0.950 0.091 0.822 0.448 0.192 0.809 0.063 0.131 -0.343 -0.721 0.422 0.868 0.045 0.396 -0.493 -0.015 0.782 0.013 0.565 -0.065 -0.074 0.055 -0.034 0.538 0.748 0.282 0.279 -0.376 -0.965 0.158 -0.861 -0.911 -0.573 -0.992 -0.488 -0.378 0.329 -0.470 -0.754 0.709 0.024 0.959 -0.561 -0.847 -0.411 -0.932 0.332 -0.869 0.909 0.251 0.884 0.939 -0.397 -0.675 -0.481 -0.859 -0.345 -0.621 -0.320 -0.787 -0.507 0.603 -0.756 0.744 0.518 0.980 0.696 0.410 0.394 -0.445 0.674 -0.950 0.377 -0.053 0.172 0.228 -0.272 -0.879 -0.614 0.622 0.661 -0.422 -0.074 0.858 0.047 -0.481 -0.466 0.392 0.278 -0.259 -0.777 0.160 -0.369 0.928 -0.360 0.106 0.263 0.694 -0.737 0.634 0.824 -0.032 -0.891 0.103 -0.484 0.770 0.503 -0.413 0.113 -0.511 -0.103 -0.662 0.907 -0.029 -0.838 0.275 -0.808 0.765 0.336 0.550 0.136 -0.679 -0.633 -0.274 0.652 -0.892 0.483 -0.465 0.736 0.005 0.061 0.996 -0.345 -0.657 -0.407 -0.906 -0.009 -0.719 0.673 0.064 -0.676 0.963 0.862 -0.960 0.013 0.993 0.450 0.886 -0.865 -0.429 -0.228 -0.456 -0.683 -0.112 -0.167 0.768 -0.683 0.707 -0.589 0.059 0.868 -0.117 -0.526 0.520 -0.135 -0.902 -0.936 0.085 -0.865 -0.613 -0.817 -0.231 -0.106 -0.756 0.355 0.799 0.643 0.422 -0.005 0.586 -0.540 0.996 0.587 -0.661 -0.875 0.804 -0.248 -0.516 0.549 -0.177 0.496 0.961 -0.078 0.736 0.624 0.627 0.145 -0.299 0.932 0.867 -0.841 -0.900 -0.538 0.871 -0.075 -0.261 0.477 -0.838 -0.833 -0.927 -0.293 0.304 -0.425 0.852 0.176 0.790 0.575 -0.283 0.016 0.717 0.660 -0.781 0.345 0.933 0.341 0.309 -0.823 0.011 0.145 0.854 -0.750 0.283 -0.871 -0.057 0.291 0.655 -0.849 0.920 0.413 0.651 0.393 -0.686 0.206 -0.492 -0.840 -0.863 0.089 0.741 -0.410 0.341 -0.059 0.774 -0.188 0.754 -0.640 -0.715 -0.086 0.783 -0.394 0.692 0.445 -0.450 -0.603 0.706 0.866 -0.202 0.549 0.427 -0.112 0.144 -0.849 -0.479 0.536 -0.656 0.172 -0.041 0.954 0.051 0.797 0.816 0.941 -0.323 0.904 0.429 -0.962 0.743 0.198 -0.139 -0.221 0.361 -0.631 -0.454 0.906 0.653 -0.345 0.772 -0.124 0.822 -0.225 0.629 -0.903 0.766 -0.640 -0.392
9 785 -0.138 -0.229 -0.504 -0.424 0.982 0.140 -0.748 0.904 -0.253 -0.249 0.228 0.745 0.796 -0.236 0.281 0.741 -0.602 0.370 -0.130 0.071 0.533 0.477 -0.305 -0.485 -0.090 0.436 -0.807 -0.993 -0.483 -0.378 -0.500 0.239 0.141 0.614 -0.721 0.366 -0.820 -0.029 0.233 -0.228 -0.340 0.866 -0.396 -0.578 -0.601 -0.222 0.199 0.353 -0.570 0.889 -0.688 0.431 -0.218 -0.622 -0.931 -0.899 -0.372 0.035 0.832 -0.509 0.802 -0.325 -0.017 -0.937 0.672 -0.953 0.374 0.903 0.586 0.681 0.971 -0.782 -0.279 -0.303 0.717 -0.447 -0.986 -0.225 -0.039 -0.322 -0.577 -0.580 0.439 0.951 -0.190 -0.349 -0.603 0.200 -0.974 -0.624 0.224 0.295 -0.628 -0.808 -0.792 0.561 -0.192 -0.817 0.100 -0.497 0.540 -0.034 -0.616 -0.452 -0.192 0.168 -0.272 0.868 -0.958 0.979 -0.534 0.823 -0.933 0.330 -0.096 0.619 0.254 0.948 -0.412 0.632 -0.199 0.258 -0.908 -0.922 0.810 0.193 -0.817 -0.517 -0.200 -0.225 0.870 -0.279 -0.373 -0.685 -0.612 0.577 0.816 0.124 -0.877 -0.588 -0.763 -0.799 -0.759 0.266 0.484 0.647 -0.161 -0.680 0.773 0.590 0.262 0.478 0.255 -0.713 0.935 -0.589 0.130 -0.665 -0.482 0.846 0.004 -0.913 -0.596 -0.557 -0.548 0.862 0.594 0.751 -0.419 0.285 0.005 0.232 -0.886 0.489 0.413 0.462 -0.948 -0.158 -0.887 0.584 -0.664 -0.491 -0.344 0.132 -0.242 -0.684 -0.655 0.559 0.156 -0.020 0.542 0.579 0.831 0.086 -0.129 0.107 -0.024 -0.311 0.800 -0.810 -0.287 0.389 -0.870 0.797 -0.011 0.163 0.439 0.228 0.107 0.555 0.262 -0.385 -0.756 0.635 -0.739 0.205 -0.753 -0.269 -0.135 0.650 0.510 0.376 -0.188 0.974 -0.636 0.291 0.145 -0.832 -0.458 -0.200 0.405 0.077 -0.584 -0.525 0.495 0.751 -0.826 0.836 0.219 0.755 0.704 0.226 -0.462 0.838 0.913 0.612 -0.978 -0.990 -0.472 -0.989 -0.049 0.178 0.367 0.215 -0.787 -0.889 0.591 0.811 -0.451 0.350 0.448 -0.850 -0.412 -0.392 0.250 -0.510 0.961 0.226 0.840 -0.551 -0.638 0.231 -0.734 -0.196 -0.859 -0.154 0.122 -0.740 0.845 -0.759 0.469 -0.512 -0.756 -0.607 0.792 -0.377 0.415 -0.631 -0.986 -0.255 -0.780 0.983 0.873 0.014 -0.644 0.955 0.860 0.489 -0.251 0.370 -0.551 0.021 0.777 0.163 -0.858 -0.146 -0.262 -0.822 -0.995 -0.712 -0.928 0.362 -0.022 -0.491 0.702 -0.428 -0.616 0.850 0.486 -0.429 0.984 0.231 0.828 0.717 0.979 -0.794 -0.352 -0.805 0.217 0.421 0.575 0.173 -0.083 -0.416 0.756 -0.319 -0.258 -0.918 0.760 0.099 0.578 -0.462 0.507 -0.237 0.988 0.637 -0.226 0.791 -0.079 -0.267 -0.770 0.589 0.889 0.988 0.484 0.943 -0.549 -0.290 -0.521 0.974 -0.281 -0.099 -0.029 0.525 0.675 0.634 -0.328 -0.130 0.373 0.745 -0.776 -0.517 -0.482 -0.183 -0.733 0.209 -0.059 -0.685 -0.091 -0.247 0.393 -0.806 -0.396 -0.632 0.705 -0.242 -0.921 0.590 0.050 -0.134 -0.293 -0.196 -0.392 0.372 0.838 -0.993 0.899 0.580 0.690 -0.767 -0.817 0.745 -0.429 0.628 -0.930 -0.782 -0.803 0.555 0.064 0.247 0.086 0.491 -0.756 0.511 -0.487 -0.894 0.826 0.867 -0.954 0.865 -0.266 -0.391 -0.380 -0.352 0.399 -0.043 0.489 0.231 0.102 0.454 -0.877 -0.917 0.427 -0.922 0.555 -0.286 0.022 0.954 0.801 0.934 -0.089 -0.153 -0.881 -0.372 0.946 0.697 0.125 -0.682 0.257 0.911 -0.825 0.884 -0.386 -0.703 -0.871 0.234 0.230 0.189 0.407 -0.113 0.883 -0.344 0.252 -0.149 -0.857 -0.053 -0.476 -0.381 0.709 0.307 0.582 -0.897 -0.875 -0.761 -0.222 0.262 -0.658 -0.568 0.032 -0.056 -0.552 -0.534 0.935 -0.958 -0.597 0.753 0.532 0.531 0.648 -0.748 -0.115 0.650 -0.418 0.324 0.352 0.362 -0.340 -0.081 0.746 -0.897 -0.666 0.325 -0.424 0.885 -0.171 0.015 0.152 -0.468 0.140 -0.316 0.517 0.929 0.257 -0.119 -0.623 -0.195 0.334 0.007 0.373 -0.911 -0.426 -0.946 -0.061 -1.000 0.426 0.205 0.651 -0.753 -0.631 0.416 0.593 0.644 -0.427 0.184 0.738 -0.748 0.836 -0.850 0.728 -0.683 -0.275 0.619 -0.636 0.033 -0.640 -0.322 0.759 0.969 0.121 0.799 0.244 -0.326 0.849 -0.884 -0.400 0.258 -0.338 -0.585 0.586 -0.923 0.240 -0.573 -0.952 0.024 0.524 -0.730 0.212 -0.819 -0.289 0.708 -0.574 0.347 -0.594 -0.110 0.327 -0.380 -0.351 -0.947 0.880 -0.220 -0.385 0.131 -0.777 0.237 0.130 0.708 0.783 -0.755 -0.957 0.395 0.658 0.340 0.480 -0.332 0.033 0.991 -0.523 0.036 -0.926 -0.783 0.125 -0.921 0.917 0.099 0.185 0.786 -0.221 -0.109 -0.462 -0.619 -0.795 -0.313 -0.814 -0.952 -0.903 -0.047 0.186 0.408 -0.656 0.869 0.119 0.079 -0.296 0.286 0.104 0.295 0.977 -0.497 0.043 0.202 0.092 -0.025 0.459 -0.413 0.969 0.437 0.513 -0.712 0.757 0.184 0.647 0.620 0.368 0.138 -0.846 0.551 0.265 -0.758 0.230 0.929 -0.366 0.045 0.706 -0.170 0.760 0.696 0.004 -0.433 -0.197 -0.565 0.724 0.547 -0.882 0.315 0.577 -0.969 0.512 -0.667 -0.001 -0.513 0.759 0.684 0.633 -0.245 0.232 0.811 0.925 0.608 -0.367 -0.161 -0.213 0.576 -0.242 -0.235 0.750 -0.409 -0.272 -0.140 0.325 -0.483 0.089 0.759 -0.086 0.799 -0.411 0.603 -0.870 0.277 0.876 -0.984 -0.326 0.043 0.964 -0.532 0.084 0.358 0.291 -0.631 -0.073 -0.695 -0.793 0.955 0.133 0.130 -0.511 0.841 0.317 -0.700 -0.880 0.960 -0.398 0.994 -0.763 0.470 0.685 0.751 0.809 0.488 0.504 0.971 0.610 -0.561 0.860 0.943 -0.020 -0.850 0.599 -0.976 0.249 0.403 0.133 -0.676 0.546 0.231 0.970 0.974 -0.870 -0.885 -0.767 0.298 -0.600 -0.063 -0.132 0.034 0.338 -0.186 -0.551 -0.202 -0.254 -0.557 -0.741 -0.205 0.584 0.577 0.999 0.124 -0.526 -0.490 -0.777 -0.193 -0.130 -0.171 -0.418 0.512 0.481 -0.055 0.631 -0.850 0.075 -0.462 0.849 0.478 -0.669 -0.362 -0.767