10
0 785 -0.073 0.315 0.333 -0.715 -0.978 -0.250 -0.452 0.621 0.381 0.203 0.116 0.323 -0.709 -0.120 -0.675 0.812 -0.882 0.638 -0.851 0.374 -0.326 -0.191 0.685 -0.963 -0.878 0.830 0.018 -0.818 0.974 0.893 -0.775 -0.154 -0.730 -0.375 0.243 -0.673 0.394 -0.897 -0.658 0.631 -0.174 -0.113 0.202 -0.070 -0.217 -0.889 0.476 0.934 0.952 0.327 -0.287 -0.274 0.380 0.348 -0.772 -0.530 -0.273 0.023 0.620 0.000 -0.944 0.645 -0.140 0.004 -0.622 -0.208 -0.240 0.510 -0.854 -0.015 -0.840 0.170 -1.025 -0.445 -0.328 0.189 -0.977 -0.087 -0.583 -0.440 -0.048 0.917 -0.038 0.912 -0.665 0.848 -0.272 -0.622 0.497 0.824 -0.994 -0.528 0.412 -0.437 -0.561 -0.918 -0.892 -0.214 0.229 0.274 -0.213 -0.642 -0.252 -0.101 0.109 -0.039 -0.735 -0.194 -0.207 0.156 -0.530 0.884 0.789 -0.676 -0.417 0.746 -0.443 0.852 -0.004 0.241 0.118 -0.734 -0.388 -0.437 0.297 0.019 -0.861 0.489 0.037 -0.289 -0.303 0.270 -0.264 -0.080 0.251 0.322 0.068 -0.375 0.131 0.799 0.578 0.160 -0.305 -0.263 0.471 0.010 -1.164 -0.010 0.179 0.223 0.451 0.497 -0.257 0.234 0.103 -0.118 0.239 -0.237 0.370 0.069 -0.078 0.223 -0.642 0.094 0.106 -0.541 -0.560 -0.223 -0.353 0.371 -0.716 -0.823 -0.378 0.229 0.104 -0.270 0.412 -0.291 -0.924 0.109 0.035 -0.532 0.446 -0.039 -0.019 -0.319 0.587 -0.451 0.160 -0.011 0.095 0.332 -0.469 0.391 -0.222 0.292 -0.675 -0.071 0.213 0.679 -0.514 -0.308 0.189 0.299 -0.407 0.086 0.297 -0.223 0.118 -0.120 0.215 -0.073 0.338 -0.376 0.350 -0.133 0.272 0.208 0.137 -0.200 -0.399 -0.309 -0.725 -1.001 0.607 -0.418 0.872 0.191 -0.243 0.433 0.316 -0.441 -0.430 -0.013 0.274 0.078 0.346 -0.150 0.264 -0.045 0.081 0.263 0.291 -0.049 0.220 -0.244 -0.087 -0.221 0.573 -0.479 -1.171 0.477 0.704 0.642 -0.283 0.464 -0.429 -0.986 0.383 0.658 -0.389 0.375 -0.638 -0.061 -0.460 -0.077 -0.192 0.207 -0.272 0.100 0.160 -0.071 0.166 0.418 -0.184 0.500 0.086 -0.308 -0.195 0.215 0.596 0.011 0.267 -0.095 0.128 -0.509 -0.510 0.075 0.611 -0.499 0.615 0.034 0.561 -0.020 0.123 0.041 -0.053 0.076 0.218 0.005 0.009 -0.243 -0.160 -0.039 -0.148 -0.829 -1.185 -0.547 -0.774 0.370 0.194 0.763 0.661 -0.021 0.603 -0.558 -0.325 0.022 -0.342 -0.185 -0.026 -0.346 0.056 -0.255 -0.293 -0.452 0.345 -0.031 -0.017 0.080 0.635 -0.028 0.243 0.600 -0.040 0.242 -0.975 -0.543 -0.043 0.363 0.481 0.000 -0.403 0.246 0.286 0.082 0.206 -0.223 0.168 0.379 0.043 -0.370 -0.135 0.228 -0.073 -0.210 0.332 0.098 -0.423 0.287 -0.247 0.287 0.128 -0.701 0.089 0.192 0.154 -0.259 -0.461 -0.655 0.779 0.151 0.006 -0.162 -0.045 0.276 -0.536 -0.137 -0.461 -0.585 0.112 -0.611 -0.174 0.008 -0.246 -0.210 0.235 -0.123 0.634 -0.765 -0.648 0.556 0.926 0.347 -0.657 -0.127 -0.569 0.139 -0.627 0.012 0.292 0.175 0.302 -0.084 0.356 -0.010 0.669 -0.659 -0.302 -0.267 0.294 0.047 -0.185 0.153 0.196 -0.245 0.417 0.374 0.262 -0.350 -0.395 -0.951 0.781 0.559 -0.540 0.243 0.689 -0.489 0.724 -0.127 -0.023 -0.052 0.101 -0.100 -0.492 -0.870 -0.179 -0.085 -0.340 0.191 -0.203 0.132 0.087 0.343 -0.527 -0.300 0.499 0.724 0.854 0.057 -0.266 -0.651 0.350 -0.008 -0.040 0.290 -0.267 0.044 0.690 -0.191 0.510 -0.551 0.010 -0.258 -0.164 -0.006 -0.522 -0.063 -0.045 0.374 -0.365 0.638 -0.051 0.113 0.341 0.634 0.072 0.088 0.694 -0.290 0.255 -1.181 0.442 0.087 -0.002 0.401 -0.420 0.054 -0.050 0.003 -0.797 -0.239 -0.233 0.115 0.312 0.181 -0.225 -0.299 -0.174 -0.562 0.716 -0.590 0.013 -0.779 0.921 0.066 -0.646 0.624 0.185 0.734 -0.618 0.256 0.258 -0.287 0.168 0.257 0.010 0.176 -0.174 -0.511 0.375 -0.217 -0.272 -0.445 0.107 -0.224 -0.184 0.012 -0.343 -0.221 -0.014 -0.007 0.009 0.975 0.820 -0.400 0.454 -0.382 0.516 -0.606 -0.347 0.528 -0.073 0.322 -0.189 -0.487 0.496 -0.761 -0.367 -0.043 0.405 0.113 0.270 0.411 0.023 0.644 -0.335 -0.837 0.777 0.661 0.294 -0.040 -0.566 -0.544 -0.938 -0.693 -0.301 0.206 0.388 -0.105 0.043 0.019 0.363 0.127 0.404 0.037 -0.060 -0.128 -0.640 -0.281 -0.193 -0.492 -0.602 -0.161 -0.515 0.288 -0.402 0.935 0.368 0.033 -0.132 -0.216 -0.608 0.718 0.640 -0.027 0.268 -0.324 0.117 -0.233 -0.037 0.332 -0.253 -0.393 0.155 -0.055 0.491 -0.436 -0.533 0.858 0.005 0.334 0.097 -0.706 0.946 -0.013 0.818 -0.707 -0.450 0.098 -0.520 0.406 -0.484 -0.495 -0.222 -0.105 0.349 -0.053 0.050 0.181 -0.056 0.659 -0.484 -0.243 -0.087 0.565 -0.206 -0.801 0.440 -1.229 0.366 -0.757 -0.407 -0.585 -0.122 0.843 0.680 0.072 -0.836 -0.805 -0.545 0.385 0.891 -0.494 -0.170 0.554 -0.362 -0.095 -0.128 0.497 -0.281 0.307 -0.711 0.265 -0.603 -0.080 0.101 0.347 -0.323 0.897 -0.188 0.899 0.828 0.997 -0.788 -0.474 0.363 0.716 -0.601 0.330 0.007 -0.573 0.127 -0.016 -0.229 0.414 -0.523 -0.026 0.460 -0.452 0.081 0.034 0.179 -0.937 0.501 -0.887 -0.233 0.299 0.489 0.653 -0.375 -0.404 0.455 -0.906 0.747 -0.386 -0.311 -0.564 0.217 -0.719 -0.620 -0.751 -0.981 -0.533 0.170 -1.422 -0.457 -0.617 -0.726 -0.600 -0.886 -0.182 -0.539 -0.941 -0.775 0.830 0.437 0.966 0.628 0.477 -0.546 -0.782 0.968 0.369 0.364 -0.811 0.437 -0.014 -0.841 -0.664 0.555 -0.297 -1.103 -0.955 0.287 -0.481 -0.193 -0.808 -0.666 -0.024 -0.189 -0.672 -0.704 -0.114 -0.773 -0.876 -0.053 -0.898 0.468 0.536 0.411 0.903 -0.669 -0.156 -0.170 -0.855 0.719 -0.934 0.860 0.202 0.924 -0.908 0.677 0.816 0.524 0.151 0.295 -0.040 0.690 0.106 0.083 -0.190 0.256 0.173 0.880
1 785 0.536 -0.340 0.440 -0.533 -0.037 0.052 0.454 -0.855 -0.707 -0.635 0.240 -0.659 0.119 0.763 -0.145 -0.553 0.194 -0.177 -0.126 -0.644 0.365 -0.310 0.970 -0.007 0.364 0.849 0.968 -0.957 0.855 -0.793 0.898 0.578 -0.487 0.431 0.126 -0.095 0.254 -0.087 0.314 0.390 -0.989 0.278 0.409 0.776 0.121 0.069 -0.712 -0.609 0.791 -0.876 0.802 -0.753 -0.232 0.245 -0.940 -0.106 0.597 -0.232 -0.648 -0.881 0.896 -0.791 0.339 0.275 -0.441 0.113 0.369 -0.591 -0.525 0.863 -0.536 0.026 0.030 0.520 0.572 0.393 0.214 0.044 -0.830 0.148 -0.134 0.512 -0.248 -0.756 -0.233 0.662 -0.007 0.337 -0.887 -0.557 -0.479 -0.064 -0.790 0.853 -0.355 -1.035 -0.700 -0.254 -0.045 0.291 -0.948 0.499 -0.005 -0.465 0.123 -0.445 -0.636 -0.963 0.857 0.734 -0.115 0.204 -0.047 0.377 -0.801 0.508 -0.650 0.171 0.231 0.635 0.120 -0.826 0.453 -0.307 -0.155 -0.109 0.471 -0.369 0.117 -0.339 0.376 -0.526 0.280 0.287 -0.329 0.269 0.134 -0.888 -0.464 -0.742 0.652 -0.209 -0.399 0.434 0.981 -0.715 0.483 -0.564 0.344 0.067 0.109 0.019 -0.858 0.295 -0.479 0.126 0.365 -0.371 -0.136 0.227 -0.074 -0.342 0.073 0.575 0.228 -0.663 0.248 0.652 0.184 0.789 -0.470 -0.421 0.756 -0.471 -0.712 -0.733 0.392 0.042 -0.863 0.434 -0.406 0.160 -0.256 -0.155 -0.057 -0.073 -0.097 -0.300 -0.163 0.130 -0.173 0.246 -0.242 0.280 0.324 -0.405 0.635 0.634 -0.146 0.438 -0.172 0.191 -0.336 -0.057 -0.592 0.251 -0.020 -0.082 -0.021 0.364 -0.229 -0.024 -0.048 -0.155 -0.009 -0.061 0.416 0.099 -0.100 -0.646 0.592 -0.166 -0.510 -0.839 0.140 -0.562 0.797 0.433 -0.448 -0.129 -0.748 -0.533 -0.007 0.417 -0.693 0.220 -0.367 -0.275 0.351 -0.289 -0.002 -0.427 0.262 -0.187 -0.651 -0.094 0.273 0.123 -0.876 0.397 -0.321 0.067 0.765 -0.733 -0.021 -0.184 0.221 -0.547 -0.592 -0.689 -0.176 -0.738 0.231 -0.109 0.558 -0.196 0.113 0.145 0.264 0.308 -0.276 0.197 0.271 -0.349 -0.074 -0.783 0.713 -0.662 -1.030 -0.824 0.030 0.365 0.806 0.249 -0.888 0.677 0.426 0.175 0.207 0.158 -0.224 -0.036 -0.792 0.471 -0.510 0.382 -0.147 -0.154 0.051 -0.213 -0.309 0.520 -0.634 -0.231 0.324 -0.097 -0.955 -0.094 0.855 0.022 0.429 -0.286 0.877 -0.050 0.331 -0.194 0.093 -0.724 0.289 0.433 0.434 0.034 0.223 0.048 0.413 0.315 -0.040 0.155 -0.524 0.334 -0.860 0.010 -0.599 0.152 -0.687 -0.377 0.536 0.159 -0.734 0.968 -0.960 -0.182 0.307 -0.018 0.038 0.441 -1.070 -0.091 -0.574 -0.151 0.275 0.457 0.362 -0.290 -0.012 0.370 -0.376 0.725 -0.364 -0.126 0.524 0.508 0.891 0.331 0.049 -0.141 0.556 0.237 -0.979 0.140 0.297 -0.372 0.409 0.129 0.461 -0.492 0.128 -0.001 -0.258 -0.104 -0.111 0.498 0.030 -0.185 -0.400 0.082 -0.123 0.617 -0.933 -0.389 0.633 0.561 -0.874 -0.107 0.986 0.959 -0.364 0.503 -0.353 -0.982 0.443 -1.091 0.467 -0.601 -0.003 -0.101 0.524 0.193 0.021 -0.075 -0.034 0.163 -0.786 -0.843 -0.235 -0.860 -0.383 0.259 -0.555 0.585 -0.479 -0.271 -0.192 0.699 -0.905 0.619 -0.864 0.718 -0.301 0.226 -0.258 -0.297 0.078 -0.108 -0.096 0.468 -0.332 0.307 -0.435 -0.008 0.223 -0.958 0.732 -0.759 -0.038 0.009 -0.502 -0.354 -0.020 0.567 -0.491 -0.534 0.953 -0.479 -0.904 0.580 0.514 -0.747 -0.131 0.251 -0.135 -0.069 -0.143 -0.267 0.136 0.011 0.079 -0.839 -0.698 -0.243 -0.713 -0.086 0.325 -0.627 0.150 0.969 0.393 -0.365 0.290 -0.780 -0.782 0.579 0.316 0.050 0.032 -0.283 0.212 -0.150 0.222 0.140 0.321 0.429 -0.276 0.022 -0.179 0.248 -0.008 -0.658 -0.636 0.632 -0.406 -0.668 0.170 -0.178 0.479 -0.641 0.023 0.911 -0.657 -0.229 -0.296 -0.862 -0.652 -0.129 0.190 -0.415 -0.156 -0.414 -0.183 0.088 0.251 -0.495 -0.646 -0.249 0.083 0.337 0.272 -1.049 -0.747 1.004 0.084 -0.002 -0.771 0.573 0.653 -0.385 -0.467 -0.851 -0.536 0.095 0.203 -0.409 -0.106 -0.024 0.123 0.239 0.261 -0.097 -0.213 0.405 0.175 -0.260 0.020 0.638 -0.151 -0.735 0.157 0.677 -0.608 -0.271 0.525 0.601 -0.896 0.604 -0.514 -0.691 -1.008 -0.099 0.106 -0.062 0.315 -0.217 0.206 -0.052 -0.478 0.052 -0.406 0.071 -0.165 0.229 -0.274 -0.347 -0.567 0.776 0.237 0.225 -0.605 -0.138 0.512 0.294 -0.444 -0.313 0.682 -0.802 0.400 0.535 0.049 -0.164 0.208 0.162 0.041 -0.217 0.521 0.019 0.491 -0.111 -0.357 0.794 -0.125 0.397 -0.113 -0.780 -0.465 0.240 0.300 0.475 -0.696 -0.452 0.662 0.041 0.514 0.071 0.277 -0.609 0.457 0.277 0.076 -0.425 -0.131 -0.005 -0.356 -0.338 0.133 -0.245 0.898 -0.262 -0.219 -0.439 -0.310 0.730 0.051 -0.053 -0.678 0.114 -0.741 -0.866 -0.333 -0.485 0.548 0.124 0.472 -0.082 0.106 -0.326 -0.321 0.295 -0.116 -0.206 0.241 0.058 -0.160 0.133 -0.146 -0.242 -0.464 0.607 0.399 0.269 0.311 -0.710 0.204 -0.978 -0.936 0.239 -0.985 -0.174 -0.315 0.639 -0.330 -0.541 0.408 -0.613 0.432 -0.158 -0.014 -0.128 -0.265 -0.438 -0.050 -0.543 0.359 -0.392 0.133 0.607 -0.474 0.615 -0.745 0.314 -0.900 -0.509 -0.856 -0.606 0.060 0.624 0.617 0.744 -0.592 0.779 -0.373 -0.020 -0.153 -0.973 -0.727 -0.233 -0.384 -0.032 0.029 -0.044 -1.106 0.449 0.394 0.872 -0.673 0.861 -0.208 0.110 -0.595 -0.497 -0.156 0.127 -0.489 0.107 -0.148 -0.562 0.278 -0.398 -0.942 -0.553 -0.269 0.157 -0.974 0.550 -0.975 0.641 -1.105 -0.463 -0.408 0.254 -0.835 -0.593 0.642 0.835 -0.888 -0.803 -0.319 -0.277 0.356 0.884 0.269 -0.336 -0.558 -0.873 -0.865 0.725 0.729 -0.262 -0.597 0.689 -0.579 -0.234 0.736 -0.958 -0.297 -0.604 -0.130 0.822 0.915 0.506 0.694 -0.247 0.478 0.460 0.809 -0.271 0.698
2 785 -0.644 0.168 0.896 0.488 0.514 -0.639 -0.255 0.122 0.610 -0.524 0.080 0.490 0.377 -0.488 -0.802 -0.280 -0.613 0.122 0.052 -0.906 0.873 0.829 -0.612 -0.455 0.916 -0.937 -0.680 -0.269 0.687 -0.885 0.057 0.515 0.254 -0.116 0.307 0.452 -0.019 -0.446 0.227 0.506 -0.880 0.209 -0.167 -0.624 -0.263 -0.771 0.616 0.112 -0.130 0.734 0.653 -0.208 -0.934 0.175 -0.534 0.213 -0.801 0.598 0.704 -0.637 0.638 -0.812 -0.705 0.150 -0.525 -0.230 -0.334 0.213 -0.026 0.354 -0.483 -0.498 0.420 -0.076 -0.631 0.038 -0.458 0.266 -0.200 -0.681 0.505 0.798 -0.685 -0.575 -0.000 -0.673 0.924 -0.128 -0.853 -0.600 -0.569 -0.539 0.097 0.682 -0.053 -0.047 0.271 -0.281 0.006 0.169 -0.104 -0.217 0.320 -0.131 -0.167 -0.189 -0.369 0.518 -0.608 -0.874 -0.779 0.600 0.004 0.902 -0.332 -0.713 -0.636 0.461 -0.093 0.439 0.502 -0.134 -0.528 0.354 -0.057 0.077 0.001 -0.100 0.069 -0.095 0.037 -0.144 0.083 0.154 -0.034 -0.669 0.057 0.710 -0.049 0.008 0.872 -0.733 0.405 -0.592 -0.374 0.447 -1.073 0.373 -0.244 0.202 0.183 -0.198 0.081 -0.136 0.300 -0.037 0.019 0.057 0.080 0.056 -0.227 -0.350 0.156 0.170 -0.884 0.010 0.113 0.312 -0.683 0.561 -0.794 -0.802 0.097 0.522 -0.046 -0.062 -0.053 -0.224 0.093 -0.104 0.236 -0.119 -0.028 0.013 -0.017 -0.075 0.063 -0.099 0.175 0.474 -0.291 -0.236 0.542 -0.975 -0.284 -0.654 0.331 -0.084 0.717 0.869 0.538 -0.579 -0.035 0.433 -0.137 -0.049 0.171 0.026 -0.165 0.200 0.002 -0.063 0.165 -0.008 -0.100 0.172 -0.204 -0.324 -0.222 0.393 -0.775 0.101 0.871 -0.048 0.667 -0.771 0.419 -0.659 0.479 -0.014 -0.187 -0.021 0.072 0.243 -0.323 -0.022 0.175 -0.190 -0.002 0.128 -0.282 0.159 -0.071 -0.054 -0.127 0.131 0.469 -0.306 0.415 -1.056 -0.493 -0.996 -0.689 0.387 0.800 0.471 -0.635 -0.011 0.178 -0.351 -0.349 0.066 0.071 0.215 -0.253 0.217 0.037 -0.146 0.306 -0.177 0.034 0.111 0.168 0.101 -0.682 0.521 -0.357 -0.801 0.455 -0.545 -0.153 -0.474 -0.088 0.464 -0.727 0.494 -0.321 0.724 0.105 -0.251 0.098 -0.125 0.050 -0.306 -0.023 0.064 -0.373 0.087 -0.149 0.006 -0.383 0.151 0.379 -0.136 -0.237 0.337 0.074 0.427 0.448 -0.480 -0.861 -0.415 -0.611 0.095 0.477 -0.718 0.271 0.056 0.002 -0.241 0.349 -0.185 -0.033 -0.101 0.113 0.211 0.033 0.170 0.155 -0.220 -0.496 0.284 -0.737 0.590 0.043 -0.759 -0.248 -0.456 0.342 -0.487 -0.491 0.392 -0.583 0.125 -0.728 -0.293 -0.463 -0.339 -0.443 -0.131 -0.266 -0.066 -0.381 -0.376 -0.133 -0.256 0.117 -0.016 0.421 -0.365 0.007 -0.021 -0.473 -0.169 -0.565 0.083 -0.738 -0.487 -0.366 -1.148 -0.060 -0.746 -0.058 0.126 0.222 0.241 -0.127 0.121 0.020 -0.252 0.330 0.111 -0.084 0.266 -0.305 0.069 -0.091 0.147 -0.381 0.149 -0.102 0.025 1.023 0.137 -0.431 0.279 -0.318 0.188 -0.044 0.034 -0.252 -0.164 -0.290 -0.156 -0.023 -0.083 0.055 0.030 -0.355 0.005 -0.053 -0.157 0.177 -0.101 -0.143 -0.014 -0.313 0.144 -0.087 -0.208 0.429 -0.873 0.005 -0.698 0.141 -0.550 0.512 0.075 0.352 0.019 0.103 0.183 -0.048 0.242 -0.206 0.103 0.111 0.061 -0.150 0.049 -0.226 0.152 -0.264 0.193 -0.011 0.495 -0.187 1.170 0.563 -0.494 0.369 0.360 -0.058 0.047 -0.225 0.127 -0.342 -0.031 -0.144 0.089 -0.090 0.105 0.004 0.028 -0.185 -0.020 0.293 -0.123 0.185 -0.199 0.359 -0.189 -0.420 0.009 0.094 -0.575 0.761 0.228 0.515 -0.382 -0.287 0.760 -0.174 -0.040 0.383 0.034 0.115 0.072 -0.108 0.121 0.019 -0.030 0.418 -0.203 0.005 -0.077 -0.063 -0.013 -0.200 0.192 0.122 0.636 0.444 -0.685 -0.555 -0.822 -0.076 -0.641 0.077 -0.468 0.658 0.219 -0.259 0.181 -0.212 0.032 0.003 0.247 -0.095 0.147 -0.213 0.147 -0.061 0.037 -0.040 0.245 -0.023 -0.081 -0.057 -0.375 0.061 -0.143 -0.363 0.198 -0.075 -0.566 -0.617 0.329 -0.554 0.135 -0.065 0.139 0.037 0.259 -0.189 0.090 -0.044 0.146 0.064 -0.004 0.202 -0.030 0.062 -0.377 0.247 0.120 0.336 0.608 0.257 0.378 0.643 0.776 -0.366 0.585 0.137 0.354 0.038 0.092 0.240 0.088 0.018 0.045 0.082 0.007 0.104 -0.283 0.215 -0.286 0.041 -0.159 0.421 0.162 -0.060 -0.172 -0.059 -0.175 -0.800 -0.253 0.276 0.540 0.845 0.829 0.103 -0.226 -0.126 0.040 -0.070 -0.117 0.159 -0.108 0.028 0.038 -0.122 0.055 0.048 -0.137 0.297 -0.085 -0.172 -0.054 0.294 -0.143 0.497 0.217 0.931 0.471 -0.437 -0.138 0.746 -0.521 -0.443 -0.208 0.230 0.251 -0.124 0.202 -0.187 0.189 -0.090 0.078 -0.021 0.090 -0.302 0.316 -0.467 0.287 0.172 -0.026 0.179 0.256 -0.719 0.238 -0.395 -0.863 -0.842 0.094 -0.778 -0.151 0.339 -0.049 0.537 -0.584 0.065 0.044 -0.119 0.145 -0.233 0.337 -0.491 0.378 -0.388 0.259 -0.120 -0.127 0.186 -0.317 0.181 0.290 0.341 0.398 0.983 0.831 -0.100 -0.742 -0.758 -0.705 0.306 -0.004 -0.044 -0.454 0.128 0.100 -0.326 0.098 -0.234 -0.025 0.122 0.073 -0.327 -0.085 0.268 -0.143 0.157 0.278 -0.951 0.158 0.665 -0.497 0.487 0.133 0.950 0.017 0.752 -0.084 -0.894 0.013 -0.262 -0.867 -0.454 -0.872 0.077 -0.131 -0.580 0.229 -0.581 0.009 -0.050 0.221 -0.119 -0.665 -0.267 0.289 0.354 -0.690 0.668 -0.013 0.631 0.900 0.662 -0.670 -0.098 -0.791 -0.567 -0.792 -0.510 -0.808 0.360 0.623 -0.075 0.169 -0.051 -0.158 -0.178 -0.998 0.357 -0.932 0.613 -0.552 -0.126 0.180 -0.134 -0.131 0.995 0.617 -0.679 0.325 0.478 -0.415 -0.775 0.083 -0.228 -0.137 0.315 -0.824 0.104 0.562 0.419 0.295 -0.703 -0.373 -0.345 0.924 0.651 0.069 -0.558 0.393 0.817 0.881 0.780 -0.510 0.964 0.406 0.600 -0.703 0.868
3 785 0.769 0.360 0.361 0.133 -0.316 0.624 0.449 0.403 0.174 0.626 -0.112 0.542 0.414 0.827 -0.178 0.903 -0.565 0.036 0.010 0.898 0.330 -0.357 -0.666 -0.025 -0.247 -0.333 -0.235 0.243 0.364 -0.789 -0.781 0.475 -0.093 0.634 -0.656 0.735 0.448 0.249 0.864 -0.666 0.170 0.969 -0.724 -0.500 0.478 -0.491 0.485 -0.998 -0.780 0.233 -0.404 0.497 0.325 0.122 -0.914 -0.179 -0.785 -0.128 -0.388 -0.583 -0.447 0.891 -0.500 0.660 -0.794 0.244 -0.221 -0.212 -0.654 0.361 -0.440 -0.189 -0.349 0.018 -0.599 -0.721 0.493 0.162 0.477 0.392 -0.445 0.895 0.106 -0.997 0.232 0.516 -0.913 0.366 -0.243 -0.636 0.018 0.303 0.317 0.538 -0.247 -0.736 0.413 -0.104 0.216 0.020 -0.196 0.009 -0.090 0.401 -0.025 -0.171 -0.015 0.773 -0.382 -0.985 -0.861 0.644 0.925 -0.089 -0.730 -0.456 -0.013 0.570 0.276 0.437 0.559 -0.267 0.234 -0.356 0.389 0.243 -0.391 0.244 0.030 -0.084 0.010 0.089 -0.021 -0.324 -0.069 -0.252 0.215 -0.483 0.716 -0.252 -0.781 -0.063 0.966 0.276 -0.287 -0.653 -0.458 -0.715 0.355 -0.031 0.321 -0.275 -0.003 -0.237 0.303 -0.154 -0.111 0.224 -0.213 -0.148 -0.083 0.201 0.000 -0.005 -0.527 -0.116 0.254 -0.129 -0.982 -0.378 0.278 -0.436 0.291 0.813 -0.076 0.848 -0.613 0.137 -0.172 0.385 0.022 0.046 -0.254 0.355 -0.214 0.190 -0.224 0.448 -0.087 -0.060 -0.223 -0.374 -0.168 0.355 0.265 0.093 -0.481 0.525 0.233 0.311 0.250 0.588 -0.490 -0.010 0.058 0.060 0.012 -0.186 -0.144 0.350 -0.031 -0.035 0.011 0.302 -0.205 -0.040 -0.097 -0.154 0.374 0.118 0.345 -1.067 -0.744 0.994 0.686 0.997 0.236 0.554 0.066 -0.612 0.168 0.136 0.170 -0.139 0.009 0.287 -0.174 -0.126 0.067 0.072 0.031 -0.363 0.253 -0.082 0.228 0.144 -0.489 -0.055 -0.582 -1.138 0.791 -0.160 -0.194 -0.215 0.440 0.661 -0.733 0.515 -0.126 -0.037 -0.302 0.012 -0.117 -0.144 -0.100 0.253 -0.375 0.079 -0.014 0.334 -0.005 -0.108 -0.121 0.212 0.598 0.018 -0.179 -0.109 -0.830 -0.983 -0.123 0.670 -0.408 0.019 -0.237 0.149 -0.099 0.102 0.522 -0.193 0.035 -0.069 -0.138 -0.497 0.438 -0.002 0.115 -0.285 0.172 0.063 0.404 -0.467 -0.242 0.484 0.129 -0.797 0.140 0.670 -0.090 0.341 -0.832 -0.804 0.901 0.053 -0.469 0.065 -0.490 0.149 -0.507 0.104 -0.121 0.218 -0.187 -0.059 0.129 0.183 0.013 0.115 -0.481 0.847 -0.390 -0.163 -0.568 0.448 -0.249 -0.099 -0.993 -0.471 0.975 -0.967 -1.006 0.055 0.156 -0.234 -0.404 0.119 -0.210 -0.003 -0.197 0.086 0.042 0.207 0.074 -0.045 -0.008 -0.055 0.518 -0.575 0.474 0.139 -0.862 0.564 0.292 -0.566 -0.476 -0.055 0.447 0.547 0.696 -0.382 -0.382 0.252 -0.017 -0.065 0.100 0.155 -0.092 0.251 -0.189 0.160 -0.221 0.174 0.021 0.001 -0.325 -0.139 -0.730 -1.080 -0.805 -0.132 -0.488 -0.270 -0.129 0.702 -0.569 -0.666 -0.189 0.116 0.221 -0.564 0.532 -0.448 0.086 -0.283 0.157 -0.195 0.442 -0.492 0.232 0.041 -0.142 0.096 -0.177 0.104 0.475 0.050 0.282 0.382 -0.959 0.673 -0.797 -0.120 0.406 0.326 0.290 0.844 -0.258 -0.810 0.177 -0.264 0.233 -0.089 -0.144 0.224 -0.275 0.347 -0.082 -0.015 -0.031 -0.120 -0.174 0.202 -0.503 0.501 0.418 -0.230 -0.793 -0.565 0.101 -0.878 -0.666 -0.847 0.387 -0.296 -0.128 0.589 -0.082 -0.421 0.111 -0.074 -0.167 0.295 -0.218 -0.065 -0.117 -0.049 -0.285 0.247 0.156 -0.097 0.469 -0.082 -0.280 -0.056 -0.793 0.851 0.269 0.846 0.560 -0.517 -0.224 -0.182 -0.228 -0.421 0.336 -0.377 -0.300 -0.035 -0.019 -0.393 0.304 -0.252 0.088 -0.351 0.480 -0.172 0.250 0.289 -0.069 0.200 0.204 -0.416 -0.249 -0.075 -0.021 0.089 0.956 0.470 0.653 -0.120 0.557 -0.009 -0.154 0.491 0.140 -0.816 -0.110 -0.201 -0.390 -0.253 -0.206 0.627 -0.466 0.180 -0.396 -0.087 -0.106 0.075 0.142 -0.351 0.117 -0.971 0.738 -0.638 0.078 -0.192 0.399 0.470 -0.072 0.018 -0.104 -0.490 -0.004 0.217 0.138 -0.162 -0.010 0.176 -0.264 -0.163 0.450 0.115 0.463 -0.121 0.119 0.442 -0.711 0.044 -0.422 -0.942 0.716 0.187 0.326 0.285 -0.335 -0.050 -0.289 0.033 0.102 0.124 -0.112 0.251 -0.393 0.017 0.022 -0.249 0.271 -0.353 -0.224 -0.112 -0.139 0.396 -0.259 0.082 -0.252 -0.475 0.532 0.937 0.904 0.969 -0.936 -0.642 -0.458 -0.285 0.137 0.232 -0.130 0.310 -0.129 -0.232 0.213 0.007 -0.084 0.211 -0.097 0.188 0.086 -0.093 -0.022 -0.206 -0.224 0.504 -0.730 -0.492 -0.857 0.143 -0.626 0.347 0.788 0.818 0.511 0.860 -0.309 0.410 -0.105 -0.352 0.219 -0.025 -0.098 0.099 -0.234 -0.019 0.083 -0.123 0.139 0.195 0.092 0.180 -0.267 -0.138 -0.671 0.489 -0.711 0.596 0.089 0.094 0.644 -0.265 -0.579 0.854 -0.395 -0.000 0.086 0.098 0.030 0.030 -0.048 -0.093 0.409 -0.385 -0.046 0.028 -0.276 -0.209 0.202 -0.199 0.569 0.118 0.499 -0.290 -0.262 0.325 0.273 -0.071 0.655 0.521 0.097 -0.542 -0.070 -0.062 0.363 -0.043 -0.144 0.090 0.072 -0.047 -0.190 0.328 -0.078 -0.023 0.475 -0.513 0.309 -0.160 -0.931 -0.598 0.060 0.810 -0.497 -0.560 0.688 0.516 -0.846 -0.420 0.126 0.709 0.051 0.013 -0.389 0.239 0.455 -0.652 0.489 -0.118 -0.298 0.435 -0.908 0.087 0.109 -0.729 -0.503 -0.152 -0.631 0.420 0.834 -0.030 0.145 -0.801 -0.763 0.012 0.727 -0.533 -0.882 0.014 -0.841 0.807 0.366 -0.568 0.586 -0.228 -0.570 0.394 -0.330 0.045 0.434 -1.000 0.336 -0.523 0.436 -0.647 -0.491 -0.015 -0.774 0.515 0.469 0.666 -0.627 -0.503 -0.826 -0.737 -0.451 -0.955 0.745 -0.005 0.822 -0.442 -0.553 0.777 -0.542 -0.215 0.175 0.075 -0.181 0.459 0.074 -0.226 -0.929 0.801 -0.532 0.254 0.414 0.592 0.403 0.372 -0.558
4 785 -0.041 0.671 -0.313 0.511 0.156 0.122 0.302 0.383 0.012 -0.987 -0.851 -0.162 -0.833 0.485 -0.230 0.382 0.197 0.461 0.182 0.435 0.289 -0.160 0.470 0.150 0.064 -0.229 0.927 -0.178 0.998 -0.622 -0.957 -0.300 -0.487 0.407 0.425 -0.339 -0.249 -0.832 -0.025 0.248 -0.413 0.557 -1.079 0.154 0.508 0.663 0.023 -0.507 -0.023 -0.433 -0.922 -0.453 0.844 -0.607 0.425 -0.531 0.122 0.417 0.927 -0.050 0.278 -0.944 -0.285 -0.160 0.444 0.468 -0.091 -0.349 0.262 -0.301 -0.617 0.351 -0.311 0.100 -0.982 0.146 -0.094 0.294 0.553 -0.581 -0.747 -0.043 -0.561 -0.237 0.315 -0.692 -0.748 0.243 -0.520 -0.013 0.574 -0.811 0.317 -0.847 0.122 -0.388 -0.429 -0.757 -0.370 -0.260 -0.874 0.029 0.085 -0.445 0.098 -0.541 -0.741 -0.010 -0.218 0.609 0.564 0.656 -0.996 0.833 0.031 -0.591 -0.020 -0.934 0.691 0.651 -0.882 -0.053 -0.306 -0.107 -0.537 0.141 0.101 -0.654 0.255 -0.043 -0.497 0.212 0.098 0.246 0.238 0.199 -0.293 -0.024 0.872 0.161 -0.934 -0.175 0.629 -0.803 0.591 -0.770 0.363 -0.744 0.560 -0.333 0.373 -0.338 0.182 -0.176 -0.217 0.282 -0.323 0.012 0.178 -0.311 0.306 -0.337 0.218 0.023 0.081 0.451 -0.536 0.372 -0.130 0.610 0.688 -0.413 0.410 0.819 0.488 -0.318 -0.055 0.183 -0.350 0.296 -0.375 0.026 -0.299 -0.059 -0.191 -0.050 -0.398 0.318 -0.474 -0.003 0.415 -0.494 0.345 -0.135 -0.290 -0.407 -0.924 0.680 -0.259 -0.445 -0.740 -0.841 0.113 0.201 -0.347 -0.194 -0.043 -0.259 0.189 -0.119 0.065 -0.166 -0.120 -0.208 0.248 -0.400 0.435 -0.184 -0.446 0.275 0.415 0.317 -0.725 0.098 0.944 0.675 -0.383 -0.012 -0.104 0.070 0.292 0.143 0.636 -0.045 0.268 -0.367 0.042 -0.403 0.124 -0.230 -0.081 -0.065 -0.326 0.161 -0.495 0.237 0.605 -0.512 -0.286 -0.104 0.320 0.508 -0.235 0.264 0.202 -0.044 -0.067 0.418 -0.718 -0.183 -0.276 -0.194 0.026 0.178 -0.222 0.214 -0.422 0.108 -0.245 0.151 0.021 -0.177 0.458 -0.446 -0.470 0.261 0.467 -0.415 -0.787 -0.649 -0.963 0.579 0.296 -0.733 0.098 0.438 0.020 0.251 -0.103 0.148 -0.334 0.079 -0.052 -0.122 0.295 -0.580 0.201 -0.357 0.126 0.085 -0.268 0.220 0.369 -0.135 -0.279 -0.286 0.144 0.358 -0.834 -0.611 -0.184 0.590 -0.171 -0.433 -0.046 -0.506 0.017 -0.035 0.237 -0.147 0.165 -0.117 -0.262 -0.257 -0.032 0.288 -0.140 -0.147 0.236 -0.136 -0.109 0.047 -0.611 -0.190 -0.913 -0.925 0.372 0.382 0.833 0.135 -0.142 -0.726 0.248 0.423 0.048 -0.030 0.093 0.154 0.132 0.105 0.155 -0.220 0.180 -0.135 0.208 0.163 -0.111 -0.165 -0.576 0.618 -0.335 0.699 0.196 -0.013 0.360 0.039 -0.848 -0.500 -0.230 -0.218 0.005 -0.302 -0.074 0.224 -0.045 0.014 0.334 0.429 -0.571 0.238 0.146 -0.150 0.091 -0.224 -0.148 0.414 0.383 0.072 -0.324 -0.242 -0.197 0.782 0.039 -0.071 0.961 0.494 -0.347 0.548 -0.175 0.544 0.155 -0.005 0.361 0.121 -0.141 0.080 -0.031 -0.096 -0.067 0.403 -0.154 0.409 0.217 -0.207 -0.197 -0.168 -0.309 -0.263 0.280 -0.477 -0.085 -0.114 -0.820 -0.348 0.367 0.191 0.163 -0.032 0.144 -0.083 0.026 -0.094 0.188 0.247 -0.328 0.261 -0.031 -0.159 0.240 -0.364 0.018 0.185 0.245 0.436 0.076 -0.556 0.111 -0.636 0.284 0.864 0.684 -0.127 -0.437 -0.387 -0.363 -0.028 0.037 0.316 -0.160 0.335 -0.184 -0.071 0.085 0.096 0.145 0.104 0.032 0.296 0.122 -0.389 0.109 -0.238 -0.215 -0.104 -0.568 -0.014 0.507 0.613 -0.608 0.810 0.358 0.192 0.499 -0.377 0.450 -0.329 0.231 -0.282 0.297 -0.112 0.142 -0.196 0.288 -0.051 0.183 -0.454 0.168 0.317 -0.128 0.794 -0.877 0.288 -0.070 0.609 -0.513 -0.919 0.281 0.540 0.611 -0.834 -0.284 -0.058 0.188 -0.119 0.542 -0.578 -0.057 -0.004 0.353 0.106 -0.120 -0.028 0.109 0.391 -0.355 -0.363 0.032 -0.372 0.092 0.173 0.183 0.161 -0.610 -0.001 0.478 -0.333 -0.687 -0.671 -0.076 0.680 -0.614 -0.344 0.207 0.099 -0.121 -0.081 -0.080 0.044 0.291 -0.010 -0.485 -0.122 0.370 0.286 0.272 -0.551 0.340 -0.860 -0.339 -0.737 -0.886 -0.941 -0.305 -0.527 -0.638 0.849 -0.396 -0.013 0.565 -0.446 -0.309 -0.416 -0.065 -0.104 -0.413 0.230 -0.353 0.226 0.090 -0.087 -0.609 -0.345 -0.257 -0.520 -0.146 -0.465 0.014 0.231 -0.702 0.847 0.162 0.621 0.018 0.588 -0.577 -0.556 -0.300 -0.016 0.130 0.362 -0.257 0.086 0.235 -0.361 -0.048 -0.090 0.357 0.118 0.358 0.469 0.042 0.219 0.036 -0.726 0.883 -0.633 -0.855 0.442 -0.984 0.358 -0.652 -0.624 0.376 0.176 0.071 -0.539 -0.464 -0.200 0.377 -0.310 -0.248 0.199 0.203 -0.098 -0.562 0.021 -0.042 -0.307 -0.233 0.428 0.346 0.363 0.548 0.936 0.231 -0.089 -0.470 -0.253 -0.660 0.149 -0.004 -0.354 -0.190 0.374 0.330 -0.060 -0.434 0.294 -0.065 -0.171 -0.209 0.012 0.465 -0.079 0.245 -0.173 0.178 0.406 -0.440 -0.910 -0.054 0.867 -0.085 -0.454 0.833 -0.470 0.332 0.557 -0.291 0.270 0.263 0.161 -0.495 0.326 -0.111 -0.152 0.203 -0.143 0.173 -0.225 0.115 -0.245 -0.155 0.112 0.032 0.072 -0.276 0.028 0.791 -0.738 -0.991 0.498 0.788 0.072 0.581 0.807 0.621 -0.381 -0.253 -0.746 0.101 0.062 -0.201 -0.136 -0.238 -0.239 -0.033 -0.325 -0.452 0.090 -0.820 0.285 -0.752 -0.239 -0.474 0.101 -0.621 -0.250 -0.291 0.991 0.460 -0.092 0.098 -0.508 0.651 -0.004 -0.741 -0.572 -0.487 -0.129 -0.916 0.069 -0.692 -0.387 -0.604 0.184 -0.468 -0.489 0.122 0.453 -0.431 -0.070 0.627 0.403 0.306 -0.897 -0.096 -0.920 0.520 -0.770 -0.985 -0.607 -0.072 -0.157 -0.144 0.866 0.147 -0.984 -0.162 -0.399 0.261 -0.619 0.005 -0.270 -0.587 -0.287 0.300 -0.880 0.537 -0.560 -0.458 0.471 -0.841 -0.841 0.888
5 785 -0.831 -0.355 -0.309 -0.787 0.628 0.402 -0.552 -0.835 0.677 -0.944 0.929 0.440 -0.284 0.583 0.566 0.478 0.628 -0.793 0.902 -0.139 0.949 -0.288 -0.286 0.804 0.338 0.239 0.022 -0.611 -0.608 0.026 -0.641 0.263 0.521 -0.018 0.672 0.218 -0.190 -0.780 -0.588 -0.454 -0.374 0.713 -0.991 -0.992 0.641 -0.436 0.040 -0.587 0.103 -0.529 -0.946 0.734 0.180 -0.478 -0.186 -0.447 0.774 0.684 -0.176 -0.111 -0.313 0.519 -0.780 -0.797 -0.607 0.521 0.231 -0.162 -0.185 0.927 -1.092 0.284 -0.207 -0.604 0.622 -0.160 -0.621 0.371 -0.229 -0.766 0.804 -0.007 0.757 0.366 -0.671 0.084 0.535 -0.462 -0.755 0.540 0.108 -0.052 0.586 -0.839 -1.049 0.889 -0.442 -1.067 0.404 0.283 -0.708 0.384 -0.825 0.589 -0.308 -0.353 0.278 -0.639 0.503 -0.477 -0.540 0.040 0.922 -0.337 -0.718 -0.955 -0.303 0.266 0.610 0.571 0.232 -0.509 0.439 0.211 -0.361 -0.157 0.140 -0.211 0.005 0.300 -0.338 0.127 -0.069 0.174 -0.173 0.522 -0.381 0.755 -0.121 -0.399 0.143 -0.815 0.648 0.984 -0.405 -0.157 -1.169 0.476 -0.952 0.292 -0.519 0.038 0.318 -0.076 -0.022 -0.051 -0.004 -0.066 0.101 0.167 -0.183 0.083 -0.013 0.066 0.194 -0.283 0.580 -0.470 0.391 0.992 -0.858 -0.111 0.882 -0.471 -0.524 0.522 0.193 -0.100 0.060 -0.195 -0.105 -0.156 0.139 0.002 -0.130 0.029 -0.161 0.042 0.092 -0.051 0.294 -0.527 0.462 -0.042 -0.585 0.403 -0.233 0.367 -0.358 0.053 0.843 -0.419 -0.142 -1.009 0.402 -0.220 0.312 0.081 0.252 -0.226 0.045 0.075 -0.017 -0.066 0.136 0.030 -0.263 0.308 -0.189 0.168 0.460 -0.059 0.944 -0.326 0.486 0.059 0.516 0.445 -0.930 -0.413 0.217 0.222 -0.120 -0.161 -0.018 -0.385 0.341 -0.156 0.159 -0.304 0.221 -0.201 0.302 -0.273 0.390 -0.021 0.042 -0.034 -0.344 0.239 -0.077 -0.262 0.610 0.758 0.224 -0.555 0.458 -0.067 -0.475 0.147 0.081 0.132 0.183 0.113 -0.146 0.279 -0.413 0.228 -0.339 -0.278 -0.137 0.158 -0.502 0.023 0.261 0.205 0.269 0.874 -0.279 0.997 0.677 0.972 -0.694 0.531 -0.808 0.556 -0.792 0.216 -0.076 -0.025 0.164 0.014 0.116 0.030 0.349 -0.134 0.200 0.059 -0.285 -0.061 0.221 -0.368 -0.017 0.089 -0.192 0.448 0.540 -0.062 -0.688 -0.353 -0.371 -0.007 0.193 0.286 -0.334 0.121 -0.086 -0.215 0.040 0.126 0.091 0.010 -0.085 0.052 -0.279 0.215 -0.229 -0.153 -0.244 -0.396 -0.458 -0.458 0.361 0.060 0.382 1.077 0.273 -0.855 0.341 -0.238 0.672 -0.562 0.510 0.046 0.227 0.380 -0.066 -0.138 0.042 0.055 0.148 0.102 -0.084 0.025 0.083 -0.137 0.228 -0.294 0.110 -0.508 -0.897 -0.121 -0.363 0.582 -0.132 -0.550 0.563 0.363 0.054 -0.293 0.282 -0.061 0.143 -0.287 0.211 0.127 0.136 0.215 -0.423 0.289 -0.181 -0.294 -0.002 -0.060 -0.362 0.493 -0.405 -0.759 -0.606 -1.268 -0.085 -0.752 0.460 0.805 -0.569 0.721 -0.411 0.620 -0.451 -0.151 -0.120 0.068 -0.114 -0.042 0.053 -0.088 0.355 -0.440 0.238 0.121 -0.391 0.153 0.172 -0.517 0.282 0.139 -0.150 -0.844 -0.364 -0.135 0.003 -0.872 0.575 -0.688 0.281 -0.182 0.106 -0.038 0.058 0.021 0.240 0.146 -0.102 -0.004 -0.046 0.091 -0.305 -0.004 0.028 0.156 -0.453 0.272 -0.043 0.374 -0.233 0.529 -0.572 0.530 0.529 -0.629 0.375 -0.087 0.351 0.506 -0.011 -0.149 -0.505 0.070 -0.318 -0.169 0.119 0.114 -0.100 -0.242 0.081 0.011 -0.253 -0.186 0.323 0.242 -0.306 -0.256 0.472 0.204 0.080 -0.094 -0.494 -0.292 -0.810 -0.003 0.198 0.003 -0.408 0.839 -0.233 -0.130 0.192 -0.027 -0.302 -0.248 -0.084 0.190 -0.187 -0.187 0.286 0.184 -0.310 -0.325 0.452 0.214 -0.173 0.455 -0.292 0.263 -0.648 -0.819 -0.835 -0.401 -0.792 -0.009 -0.086 0.132 -0.145 0.042 -0.434 -0.060 -0.186 0.186 -0.068 -0.295 0.039 0.386 -0.379 -0.151 0.310 0.020 -0.369 -0.019 -0.312 -0.303 -0.448 0.466 0.844 0.996 -0.455 -0.652 0.072 0.116 0.329 -0.189 0.340 0.161 0.138 0.104 0.056 -0.265 0.336 0.089 -0.041 -0.349 0.399 0.069 -0.445 0.439 -0.179 0.222 0.203 -0.450 0.585 0.236 0.574 0.392 0.014 -0.042 0.090 0.398 -0.255 0.258 -0.455 -0.207 0.228 -0.352 0.264 0.038 -0.269 0.034 0.090 0.060 -0.327 0.072 0.354 -0.626 0.472 0.047 -0.218 0.458 0.458 0.345 -0.503 0.822 0.164 0.126 -0.150 -0.429 -0.599 0.234 -0.045 0.485 -0.294 0.475 -0.332 0.354 -0.116 0.115 -0.155 0.023 0.311 -0.411 0.159 0.033 -0.520 0.321 0.010 -0.954 0.326 0.005 -0.348 -0.434 0.018 -0.378 -0.099 0.374 0.666 -0.027 0.007 -0.138 0.009 -0.002 -0.070 0.102 -0.058 -0.073 0.158 -0.199 0.227 0.019 0.319 0.190 0.720 -0.296 0.395 0.594 -0.294 0.907 -0.131 -0.447 0.382 -0.043 0.330 -0.200 -0.635 -0.074 0.085 -0.284 0.345 -0.317 0.309 -0.230 0.212 0.040 -0.163 0.256 -0.496 0.050 -0.428 -0.102 -0.032 -0.700 0.477 -0.296 0.567 -0.952 0.413 0.584 -0.148 0.461 0.887 -0.313 0.019 0.343 -0.353 0.428 0.102 -0.140 0.076 0.109 -0.093 -0.100 0.161 0.054 0.233 -0.064 0.596 -0.555 -0.177 0.909 -0.254 0.955 -0.100 0.225 0.682 0.549 -0.446 0.497 0.501 0.786 -0.341 0.475 -0.261 -0.670 -0.010 0.189 -0.365 0.301 0.025 0.408 -0.425 -0.619 0.189 -0.262 -0.106 -0.225 0.832 -0.210 -0.496 -0.129 -0.431 -0.497 -0.183 0.782 0.372 -0.822 -0.719 -0.164 0.483 -0.810 0.665 0.360 -0.480 -0.242 -0.638 -0.111 -0.599 0.063 -0.018 0.441 0.116 0.130 -0.338 -0.192 -0.310 0.035 -0.093 -0.516 0.666 -0.310 0.543 -0.771 -0.888 0.200 -0.843 0.511 -0.939 0.102 -0.453 -0.269 -0.287 -0.795 0.649 -0.227 0.454 0.217 0.732 -0.139 0.288 0.528 -0.115 -0.773 0.095 -0.128 -0.826 0.167 -0.164 0.759 -0.862
6 785 -0.278 0.468 -0.860 0.485 0.608 0.624 0.621 0.276 -0.732 -0.205 0.552 0.371 -0.578 -0.282 0.575 -0.905 0.783 0.351 -0.337 0.291 -0.581 0.888 -0.070 0.164 -0.209 0.166 -0.241 0.857 0.193 0.806 -0.178 -0.101 0.989 -0.387 0.922 0.438 -0.072 -0.617 -0.271 -0.094 -0.370 0.221 0.341 0.553 -0.006 -0.523 0.635 -0.858 0.511 -0.733 0.122 0.011 0.168 -0.970 -0.082 0.795 0.870 -0.505 0.118 -0.906 0.010 0.085 0.444 0.840 -0.570 0.714 -0.728 0.159 0.038 0.253 0.585 -0.490 0.283 -0.213 0.340 0.756 -0.161 -0.141 0.588 0.862 -0.379 0.191 -0.250 0.084 -0.551 0.584 -0.084 0.236 -0.241 0.435 -0.883 -0.292 0.570 -0.212 0.295 0.003 -0.302 -0.067 -0.184 0.251 -0.224 0.044 -0.223 0.012 0.085 -0.319 0.261 0.645 0.381 -0.278 0.504 -0.023 0.351 -0.411 0.405 0.206 0.206 0.074 -0.223 -0.063 -0.459 0.370 -0.279 0.160 -0.037 -0.236 -0.131 -0.098 -0.167 0.356 -0.181 0.073 0.212 0.202 -0.310 -0.419 -0.484 0.546 -0.166 -0.990 0.004 -0.892 -0.519 0.054 -0.790 -0.691 0.613 -0.178 -0.226 -0.339 -0.386 0.226 -0.317 0.268 -0.540 0.295 -0.181 -0.510 0.120 -0.022 -0.512 0.219 0.042 0.304 0.448 -0.264 -0.711 0.240 -0.677 -0.625 0.122 0.397 -0.993 0.354 -0.329 0.258 -0.176 0.695 -0.024 -0.101 -0.545 0.126 -0.007 -0.276 0.010 0.168 -0.323 0.137 0.041 0.035 -0.343 0.448 -0.730 0.372 -0.302 0.502 0.805 0.290 -0.583 -0.591 0.916 -1.037 -0.276 0.157 -0.178 -0.451 -0.074 0.313 0.214 -0.337 -0.180 0.136 0.005 -0.241 -0.069 -0.071 -0.284 0.261 -0.319 -0.294 -0.599 0.107 -0.168 -0.487 -0.268 -0.461 -0.459 0.298 -0.341 0.010 -0.595 0.133 0.130 0.162 -0.392 -0.276 0.100 0.166 -0.200 -0.211 -0.409 0.212 -0.083 -0.379 -0.010 -0.842 -0.376 0.324 -0.877 0.305 0.047 0.219 0.167 -0.821 -0.456 0.243 0.178 -0.509 -0.391 -0.024 0.213 0.245 0.101 -0.082 -0.271 -0.105 -0.023 0.019 0.050 -0.348 -0.428 -0.035 -0.472 0.590 0.283 -0.408 0.495 -0.757 -0.263 0.213 -0.566 -0.822 0.714 -0.665 0.154 0.305 0.552 -0.831 -0.494 0.024 0.096 -0.056 -0.003 0.071 -0.214 0.063 -0.512 0.144 -0.002 -0.211 -0.218 -0.319 -0.222 -0.734 0.108 -0.428 0.403 0.268 -0.209 0.655 -0.465 -0.447 -0.123 0.075 -0.594 0.678 0.152 -0.264 0.002 0.039 -0.139 -0.025 -0.063 0.154 0.081 -0.158 -0.425 0.406 -0.009 -0.110 0.373 0.023 0.066 0.396 -1.182 0.814 0.022 0.358 -0.883 -0.817 -0.234 0.433 0.161 -0.109 0.152 -0.124 -0.289 0.084 -0.062 0.288 0.032 -0.359 -0.188 0.237 0.081 -0.219 -0.139 0.027 -0.246 0.080 0.379 -0.216 -0.204 0.234 -0.844 0.630 0.688 0.837 -0.788 -0.973 -0.243 -0.263 0.262 0.145 0.341 -0.107 -0.063 -0.024 -0.052 0.238 -0.083 0.018 -0.240 0.087 -0.052 -0.090 0.144 -0.025 0.476 -0.168 0.195 -0.188 0.594 0.195 -0.215 0.813 -0.152 -0.469 0.173 0.339 -0.532 0.514 -0.420 0.347 0.254 -0.001 -0.309 -0.004 0.133 -0.171 0.267 0.063 -0.074 0.173 -0.247 0.431 -0.271 -0.282 -0.050 0.275 0.764 -0.193 0.300 -0.789 -0.537 -1.211 -0.154 0.154 0.315 -0.320 0.537 -0.007 -0.191 -0.029 0.460 -0.286 0.101 0.242 -0.544 0.283 -0.488 0.229 0.228 -0.134 0.289 -0.283 0.078 0.008 0.288 -0.070 -0.334 0.256 0.321 0.537 -0.141 0.033 0.015 -0.003 -0.253 -0.104 0.513 -0.395 -0.069 0.089 -0.030 -0.099 0.003 -0.123 0.411 -0.121 -0.104 -0.205 0.411 0.041 -0.230 -0.631 0.622 -0.740 0.649 -0.188 -0.634 -0.589 -0.322 0.013 0.190 0.015 0.348 0.049 0.234 0.209 -0.144 0.051 -0.130 -0.123 0.095 0.111 -0.434 0.379 0.108 -0.348 -0.251 0.418 -0.792 0.861 -0.357 -0.623 -0.540 0.424 -0.297 0.040 0.203 0.018 -0.263 0.122 -0.085 0.051 -0.306 -0.023 0.286 0.118 -0.007 0.122 0.009 0.004 0.402 -0.617 0.480 0.029 -0.380 0.465 -0.691 -0.149 -0.694 0.728 -0.644 0.069 -0.558 0.616 0.270 -0.515 0.234 0.127 -0.057 0.503 0.209 0.550 -0.361 0.012 0.088 0.054 0.124 -0.209 0.363 -0.442 0.280 0.093 0.310 -0.473 0.409 -0.457 0.131 -0.464 -0.830 -0.053 0.274 -0.704 -1.026 0.235 0.184 -0.153 -0.014 -0.085 -0.052 -0.112 0.176 0.236 0.049 0.087 0.039 -0.172 0.311 -0.065 -0.143 -0.283 -0.483 -0.252 0.614 -0.556 0.125 -0.113 0.329 0.213 0.100 -0.877 0.416 -0.597 -0.206 0.017 0.177 -0.084 0.292 0.021 0.337 0.028 0.009 0.029 0.180 0.280 -0.324 0.184 -0.180 -0.043 0.266 0.365 -1.012 0.301 0.393 0.901 0.134 0.449 -0.085 -0.429 0.581 -0.194 0.415 0.115 -0.147 0.333 -0.177 0.089 -0.146 0.104 -0.025 0.448 -0.720 0.583 -0.044 0.008 0.095 0.570 -0.726 0.062 0.344 -0.570 -0.067 0.814 -0.716 0.082 0.106 0.334 -0.780 -0.203 -0.544 -0.332 0.112 -0.813 0.591 -0.524 0.096 0.084 -0.114 -0.228 0.447 -0.232 -0.277 -0.674 0.494 0.382 -1.015 -0.821 0.539 0.546 0.761 -0.632 -0.313 0.940 -0.099 0.524 0.343 -0.944 0.586 0.226 -0.758 -0.236 -0.208 -0.004 -1.018 0.085 -0.602 -0.413 -0.452 -0.131 0.137 -0.273 -0.255 0.431 -0.619 0.844 -0.366 -0.702 -0.781 -0.749 0.079 0.003 -0.493 0.576 0.400 0.340 -0.487 0.233 -0.154 -0.323 -0.160 -0.272 0.686 -0.376 0.184 0.429 -0.011 0.319 -1.014 0.236 -0.866 0.141 -0.572 0.379 0.123 -0.332 0.141 0.175 -0.227 -0.045 -0.396 -0.661 -0.728 -0.308 -0.513 -0.437 0.314 0.409 -0.509 0.802 0.538 -0.860 0.499 0.815 -0.416 -0.507 0.888 0.859 0.463 0.866 0.656 -0.430 0.512 0.739 0.655 0.795 -0.269 -0.533 -0.576 -0.873 0.132 -0.150 -0.408 0.986 -0.044 0.962 0.858 0.218 0.209 -0.663 -0.972 0.787 0.744 0.654 0.303 0.936 -0.644 0.247 -0.458 0.191 -0.977 0.981 -0.084
7 785 -0.619 0.865 -0.599 0.759 -0.327 0.205 0.027 0.861 0.654 0.721 -0.038 0.771 -0.028 -0.696 -0.303 -0.739 -0.322 0.269 0.885 0.559 -0.569 0.010 0.425 0.548 -0.638 -0.409 0.581 0.155 -0.998 0.005 -0.355 0.655 0.039 0.175 0.825 0.683 0.114 0.878 0.190 -0.646 0.002 0.289 0.883 -0.733 -0.551 0.510 -0.454 0.352 0.094 0.372 -0.996 -0.012 0.114 0.120 0.861 -0.215 0.665 -0.485 -0.921 0.675 -0.016 0.267 0.508 0.912 0.602 -0.318 -0.042 -0.653 0.741 -0.993 -0.037 -0.783 0.376 -0.925 -0.599 -0.091 -0.427 0.753 0.135 -0.371 -0.937 0.252 -0.769 0.525 -0.771 -0.029 0.570 -0.398 -0.082 0.575 -0.549 0.781 0.581 0.076 -0.855 -0.718 0.142 0.279 -0.473 -0.730 -0.276 -0.728 -0.821 0.428 0.564 -0.346 -0.920 -0.655 0.186 0.343 0.548 0.382 -0.522 -0.570 -0.422 0.187 -0.835 0.129 -0.957 0.061 -0.843 0.023 -0.734 -0.010 0.206 -0.129 0.235 -0.680 -0.190 -0.045 0.203 -0.389 -0.752 -0.590 -0.601 -0.210 0.877 -0.055 0.228 0.749 -0.668 0.225 0.769 0.078 -0.393 -0.268 0.498 0.490 0.242 0.084 0.611 -0.651 -0.205 0.155 -0.015 -0.639 0.553 -0.192 -0.481 -0.182 -0.203 -0.385 0.119 -1.188 0.308 -0.678 -0.364 -0.364 -0.833 -0.301 -0.419 -0.890 -0.749 -0.721 0.267 -0.333 -0.311 0.230 0.017 0.227 0.184 -0.016 -0.157 0.227 -0.057 -0.213 0.328 -0.227 0.053 0.116 0.037 -0.214 0.227 -0.821 0.766 -0.414 0.687 -0.800 0.628 -0.437 0.725 0.490 0.469 -0.075 0.403 -0.201 -0.029 0.066 0.081 0.033 0.095 -0.019 -0.251 0.243 -0.003 0.214 0.137 -0.229 -0.053 0.485 -0.465 0.766 -0.591 -0.743 0.329 -0.104 -0.712 0.447 0.744 0.307 -0.997 0.210 0.139 0.124 0.035 0.174 -0.211 0.561 -0.167 -0.156 0.275 0.030 -0.014 -0.025 -0.157 0.269 0.105 0.047 -0.100 -0.247 0.451 -0.323 0.767 -0.149 0.071 -0.373 -0.212 -0.376 0.668 0.461 -0.215 0.043 0.010 0.049 -0.014 -0.084 0.278 0.104 0.056 -0.105 0.212 0.377 -0.079 0.229 -0.304 0.372 -0.346 0.199 -0.185 -0.201 -0.136 0.152 -0.822 -0.161 -0.062 0.574 -0.227 -0.580 0.161 -0.030 -0.007 -0.052 0.205 -0.190 0.466 -0.215 0.102 0.405 -0.200 -0.112 0.078 0.036 0.153 0.144 -0.029 0.232 0.204 -0.365 -0.803 0.690 0.408 0.368 0.180 0.538 0.135 0.330 0.167 0.089 0.082 -0.127 0.305 -0.447 0.197 0.344 0.074 -0.122 0.334 0.096 0.157 -0.053 -0.153 0.510 -0.336 0.127 -0.499 0.488 0.728 -0.691 0.818 0.102 0.245 -0.733 0.292 -0.286 -0.311 -0.280 0.030 -0.116 -0.118 0.223 -0.638 -0.204 0.299 0.125 -0.266 0.190 -0.195 0.167 -0.297 0.048 -0.666 -0.564 -0.141 0.292 0.214 0.113 -0.734 1.031 0.304 0.203 -0.200 0.047 0.278 0.425 -0.289 0.310 -0.473 0.213 -0.357 -0.015 -0.197 -0.131 0.416 -0.246 -0.013 0.113 0.127 -0.188 0.561 -0.445 -0.366 -0.498 0.773 -0.658 -0.311 -0.698 0.919 0.150 -0.260 0.350 -0.567 -0.201 -0.065 -0.180 0.194 -0.558 0.109 -0.248 0.089 0.284 -0.417 0.199 0.151 -0.071 0.095 0.412 -0.588 0.432 -0.050 -0.489 0.172 -0.139 0.880 0.186 -0.727 -0.579 0.334 -0.078 -0.065 0.282 -0.206 0.025 -0.236 0.089 -0.322 0.181 -0.062 -0.334 0.425 0.040 0.079 -0.083 -0.001 0.304 0.300 -0.231 -0.551 0.336 0.107 0.208 0.221 0.481 -0.154 0.987 -0.267 -0.408 0.416 -0.619 0.296 -0.234 -0.089 -0.030 -0.193 -0.181 -0.049 0.355 -0.150 -0.136 -0.063 0.469 -0.409 0.114 0.048 0.154 -0.265 -0.848 0.606 0.979 -0.360 0.804 -0.558 -0.511 -0.546 -0.037 -0.025 0.162 -0.020 -0.323 -0.094 0.227 -0.176 0.213 -0.068 -0.260 0.147 0.486 0.099 -0.121 -0.093 -0.216 0.021 0.749 -0.784 -0.608 -0.713 0.629 -0.959 -0.044 0.076 0.692 0.650 -0.326 0.343 -0.285 -0.183 0.064 -0.068 0.002 -0.014 -0.173 -0.011 0.028 -0.348 -0.370 0.071 0.556 -0.263 -0.831 0.014 -0.983 -0.368 0.042 0.409 -0.660 0.039 -0.046 -0.325 -0.142 -0.388 0.406 -0.974 -0.253 0.399 -0.418 0.082 0.148 -0.130 0.061 0.195 -0.196 0.572 -0.205 -0.392 -0.129 0.339 -0.344 0.130 -0.849 -0.406 -0.660 -0.306 0.413 -0.759 -0.660 0.311 -0.614 0.076 -0.963 0.221 -0.508 0.306 -0.265 -0.045 0.179 -0.186 -0.386 -0.229 -0.187 -0.748 0.177 -0.329 0.316 -0.102 -1.055 0.005 -0.920 -0.867 0.151 -0.906 0.771 0.828 -0.791 -0.200 -0.431 0.069 0.442 -0.625 0.402 -0.309 -0.287 0.090 -0.145 0.431 -0.017 0.154 -0.174 0.081 -0.055 -0.565 -0.456 -1.094 0.395 0.282 0.382 0.658 -0.097 0.979 0.776 -0.771 -0.385 0.034 -0.699 -0.540 0.333 -0.424 -0.414 0.620 -0.043 -0.408 0.175 -0.077 -0.110 -0.242 0.353 -0.295 -0.086 0.401 -0.103 0.326 -0.257 -0.907 -0.858 0.698 -0.705 0.758 -0.315 -0.170 -0.107 0.785 -0.199 -0.387 0.025 0.282 -0.224 -0.509 0.155 0.141 -0.420 -0.315 0.321 -0.120 -0.248 0.240 -0.722 0.118 -1.058 -0.385 0.292 -0.222 0.501 0.366 0.202 -0.948 -0.123 0.983 -0.321 -0.068 -0.476 0.532 0.328 0.044 0.287 -0.046 -0.352 -0.004 0.039 0.235 -0.383 0.269 -0.361 0.378 0.107 -0.078 0.478 -0.417 -0.166 0.640 -0.042 0.342 -0.653 -0.573 -0.774 0.518 0.613 -0.355 0.054 -0.190 -0.235 0.003 -0.374 0.185 -0.113 0.158 -0.202 -0.003 -0.007 -0.054 0.208 -0.502 0.294 -0.495 0.258 -0.238 -0.323 -0.298 0.107 -0.200 -0.055 -0.128 -0.348 -0.976 -0.843 0.397 -0.949 -0.779 -0.274 0.152 0.010 0.304 -0.299 -0.011 0.048 -0.146 0.048 0.071 -0.185 0.312 -0.191 0.428 -0.010 0.680 -0.191 -0.706 0.326 0.648 -0.035 -0.079 0.145 -0.109 -0.814 0.826 0.480 0.066 0.508 0.070 0.123 -0.683 0.468 -0.910 0.372 0.676 0.748 0.708 0.228 -0.545 -0.021 0.917 -0.380 -0.265 -0.697 1.006 0.418 0.095 0.479 -0.639
8 785 -0.268 -0.640 0.621 0.427 0.365 0.055 -0.807 -0.010 -0.147 0.756 -0.388 -0.317 -0.001 0.680 0.322 -0.968 -0.403 -0.753 0.980 0.218 0.217 0.016 -0.612 0.803 -0.686 -0.672 0.801 0.535 -0.404 -0.523 0.407 0.326 -0.219 0.394 0.769 -0.956 -0.962 -0.267 0.687 0.900 0.243 -0.366 -0.070 0.782 0.687 0.566 -0.347 -0.771 -0.963 -0.687 0.241 -0.557 0.647 0.585 -0.447 -0.437 0.359 -0.556 0.597 0.422 0.953 -0.501 -0.020 0.555 -0.087 -0.437 -0.865 0.189 -0.737 0.545 -0.611 0.493 0.330 0.148 0.552 -0.692 0.681 -0.608 0.622 0.015 -0.812 -0.370 -0.667 -0.535 -0.946 0.428 -0.243 -0.557 0.352 0.889 0.881 -0.453 -0.910 0.894 -0.687 -0.766 0.892 -0.894 -0.964 0.397 -0.966 -0.008 -0.967 -0.525 0.708 -0.359 -0.131 0.622 0.908 0.958 -0.766 0.329 -0.830 -0.675 -0.741 0.531 -0.856 -0.334 -0.711 -0.243 0.643 -0.972 0.447 -0.530 0.458 -0.749 0.704 -0.518 -0.139 0.296 -0.253 0.192 -0.544 0.297 -0.421 -0.664 0.398 0.129 -0.400 -0.692 -0.523 -0.603 0.084 0.114 0.782 0.741 0.586 -0.886 0.373 0.563 -0.199 -0.488 0.641 -0.637 0.127 -0.006 0.236 -0.267 0.050 -0.158 -0.198 0.047 -0.192 -0.275 0.478 -0.874 -0.136 -0.352 0.260 -0.162 0.880 0.521 -0.166 -0.443 0.500 -0.179 -0.506 -0.308 0.060 -0.572 0.176 0.446 -0.569 0.410 -0.352 0.075 0.295 -0.124 0.395 -0.144 0.023 0.412 -0.598 0.188 -0.234 -0.327 -0.768 0.306 -0.668 0.093 -0.894 -0.213 -0.600 0.364 -0.018 0.066 0.427 0.342 -0.436 0.117 -0.067 0.088 0.105 0.045 -0.203 -0.117 -0.309 0.090 -0.124 -0.470 0.558 -0.241 -0.385 0.734 0.438 0.406 -0.831 0.419 0.032 0.453 0.183 -0.430 0.093 0.210 -0.733 0.188 -0.144 0.144 -0.176 -0.177 -0.042 0.094 -0.278 0.438 0.176 -0.011 0.246 0.346 0.095 -0.070 0.105 0.145 -0.779 -0.768 0.911 0.256 0.250 -0.085 -0.357 0.775 -0.460 0.199 0.445 -0.179 0.243 -0.181 0.191 -0.130 -0.065 -0.140 0.227 -0.593 -0.119 -0.243 0.158 0.246 -0.383 -0.649 0.676 -0.669 -0.749 0.270 -0.224 0.518 0.178 -0.965 0.571 0.010 0.180 0.017 -0.401 0.304 -0.222 0.307 -0.070 -0.361 -0.148 -0.265 0.011 0.269 0.352 0.037 0.008 -0.315 0.754 -0.468 0.183 0.321 0.657 0.637 0.129 0.326 0.750 -0.766 -0.501 -0.082 -0.165 0.194 0.519 0.012 -0.203 0.036 -0.133 0.272 0.066 -0.126 -0.054 0.131 -0.326 0.350 -0.092 0.182 0.727 0.158 -0.561 -0.665 -0.930 0.809 -0.433 -0.543 -1.035 0.847 -0.195 0.261 0.606 -0.055 -0.547 0.329 0.151 0.110 0.322 -0.155 -0.111 0.152 -0.188 -0.246 0.127 -0.026 0.392 -0.066 0.366 0.233 -0.624 0.118 0.629 -0.846 -0.896 0.633 -0.644 0.512 -0.333 -0.074 0.051 -0.049 0.268 -0.220 -0.336 0.171 -0.153 0.016 0.156 0.091 -0.006 0.428 -0.224 0.470 -0.266 -0.516 0.335 0.754 -0.344 -0.247 0.890 0.948 0.090 -0.844 0.480 0.415 0.296 -0.714 -0.273 -0.114 -0.072 -0.346 0.462 -0.064 0.287 -0.070 0.093 -0.180 0.115 -0.409 0.057 -0.548 -0.172 0.139 -0.725 -0.770 -0.819 -0.478 -0.673 -0.518 0.236 -0.287 0.866 -0.799 -1.039 -0.309 -0.680 -0.365 -0.217 0.194 0.155 0.021 -0.122 -0.274 0.291 -0.225 0.133 -0.286 0.024 0.322 0.001 -0.086 0.097 -0.839 0.581 0.057 0.526 0.056 0.568 -0.061 -0.190 -0.352 -0.085 -0.058 -0.313 0.538 -0.467 -0.035 -0.096 -0.077 0.460 -0.162 0.067 0.010 -0.099 -0.033 -0.270 -0.533 -0.266 -0.774 0.256 0.422 -0.017 0.025 0.005 -0.763 0.838 0.409 0.309 0.863 -0.149 0.504 0.423 0.140 0.656 0.057 0.294 0.097 -0.259 0.220 -0.007 -0.152 -0.053 -0.160 0.177 0.556 0.031 0.560 -0.117 -0.262 -0.096 -0.064 0.529 0.748 0.282 0.273 -0.402 -1.028 0.149 -0.665 -0.287 -0.067 -0.552 0.084 -0.127 0.252 -0.121 -0.582 0.086 -0.196 0.374 -0.291 -0.153 -0.313 -0.680 0.393 -0.856 0.758 0.155 0.866 0.932 -0.397 -0.675 -0.488 -0.913 -0.407 -0.351 0.132 -0.209 -0.083 0.717 -0.041 0.287 -0.017 0.131 0.116 -0.050 0.088 -0.677 0.672 -0.440 0.174 -0.012 0.294 0.272 -0.353 -0.928 -0.618 0.622 0.661 -0.422 -0.080 0.750 -0.113 -0.227 -0.046 0.520 0.215 -0.252 -0.189 -0.100 -0.394 0.160 -0.310 0.033 -0.210 0.398 -0.450 0.491 0.255 -0.036 -0.664 0.070 -0.605 0.712 0.496 -0.413 0.113 -0.511 -0.106 -0.770 0.640 -0.038 -0.549 0.419 -0.709 0.101 -0.029 0.112 0.241 -0.118 0.059 -0.137 0.419 -0.498 0.434 -0.705 0.367 -0.034 0.062 0.787 -0.519 -0.709 -0.410 -0.906 -0.009 -0.719 0.672 0.021 -0.803 0.734 0.813 -0.557 0.188 0.256 -0.232 0.246 -0.321 0.250 0.184 -0.208 -0.205 0.007 -0.515 0.497 -0.520 0.688 -0.675 -0.092 0.753 -0.164 -0.526 0.520 -0.135 -0.902 -0.936 0.074 -0.892 -0.749 -0.934 -0.149 0.314 -0.237 0.087 -0.101 0.164 0.265 -0.199 0.459 -0.073 0.638 0.324 -0.295 -0.489 0.747 -0.333 -0.564 0.500 -0.205 0.496 0.961 -0.078 0.736 0.624 0.605 0.070 -0.521 0.464 0.397 -0.494 -0.042 -0.113 0.362 -0.253 -0.196 0.323 -0.366 0.130 -0.496 -0.152 0.412 -0.419 0.663 0.055 0.739 0.553 -0.293 0.016 0.717 0.660 -0.781 0.345 0.926 0.291 0.188 -0.982 -0.266 -0.254 0.469 -0.897 0.176 -0.683 0.014 -0.065 0.340 -0.972 0.499 -0.092 0.276 0.241 -0.790 0.164 -0.500 -0.841 -0.863 0.089 0.741 -0.410 0.341 -0.059 0.774 -0.218 0.713 -0.674 -0.753 -0.208 0.554 -0.630 0.450 0.294 -0.520 -0.747 0.363 0.486 -0.567 0.217 0.190 -0.199 0.097 -0.855 -0.479 0.536 -0.656 0.172 -0.041 0.954 0.051 0.797 0.816 0.937 -0.332 0.890 0.418 -0.976 0.694 0.135 -0.168 -0.233 0.354 -0.638 -0.517 0.777 0.523 -0.430 0.718 -0.135 0.815 -0.229 0.629 -0.903 0.766 -0.640 -0.392
9 785 -0.162 -0.229 -0.504 -0.424 0.982 0.140 -0.748 0.904 -0.253 -0.249 0.228 0.745 0.796 -0.244 0.263 0.741 -0.602 0.370 -0.130 0.071 0.533 0.477 -0.305 -0.485 -0.090 0.436 -0.807 -0.993 -0.483 -0.378 -0.500 0.239 0.141 0.614 -0.721 0.366 -0.820 -0.030 0.233 -0.232 -0.367 0.783 -0.422 -0.578 -0.601 -0.222 0.199 0.352 -0.570 0.889 -0.688 0.428 -0.223 -0.622 -0.931 -0.899 -0.372 0.035 0.832 -0.510 0.802 -0.325 -0.017 -0.937 0.672 -0.953 0.373 0.855 0.471 0.537 0.905 -0.802 -0.294 -0.323 0.678 -0.453 -0.986 -0.225 -0.039 -0.326 -0.581 -0.580 0.439 0.951 -0.190 -0.349 -0.603 0.198 -0.974 -0.624 0.224 0.284 -0.636 -0.808 -0.796 0.490 -0.355 -0.968 0.026 -0.548 0.459 -0.107 -0.664 -0.489 -0.207 0.165 -0.274 0.856 -0.969 0.970 -0.534 0.823 -0.933 0.330 -0.096 0.619 0.250 0.942 -0.424 0.607 -0.238 0.236 -0.939 -1.047 0.529 0.030 -0.823 -0.492 -0.263 -0.444 0.486 -0.543 -0.467 -0.694 -0.637 0.520 0.748 0.079 -0.879 -0.589 -0.763 -0.799 -0.759 0.266 0.480 0.619 -0.232 -0.809 0.607 0.409 0.019 -0.041 0.156 -0.496 0.673 -0.545 0.230 -0.308 -0.384 0.068 -0.177 -0.649 -0.560 -0.738 -0.815 0.634 0.492 0.717 -0.419 0.285 0.005 0.232 -0.898 0.401 0.205 0.172 -1.124 -0.182 -0.717 0.386 -0.152 0.119 -0.042 0.224 0.092 0.079 0.090 0.170 0.047 0.111 0.102 -0.203 0.055 -0.445 -0.336 0.062 -0.030 -0.311 0.800 -0.812 -0.326 0.216 -1.183 0.375 -0.127 0.251 0.105 -0.242 -0.028 0.194 0.112 0.152 -0.131 0.443 -0.106 0.115 -0.389 -0.005 0.010 0.161 -0.039 0.025 -0.314 0.926 -0.644 0.289 0.137 -0.842 -0.582 -0.412 0.123 -0.184 -0.539 -0.223 -0.018 0.260 -0.393 0.226 -0.186 0.220 0.153 0.021 -0.081 0.095 0.173 0.325 -0.052 -0.395 -0.304 -0.932 -0.119 0.146 0.359 0.215 -0.789 -0.905 0.379 0.539 -0.618 0.306 0.667 -0.195 0.028 -0.078 0.080 -0.383 0.406 -0.141 0.254 -0.205 0.020 -0.011 -0.303 -0.088 -0.427 0.224 0.467 -0.693 0.771 -0.774 0.465 -0.512 -0.760 -0.658 0.506 -0.572 0.306 -0.404 -0.151 0.179 -0.342 0.286 0.170 -0.041 -0.426 0.161 -0.215 0.280 -0.078 0.131 0.032 -0.084 0.197 0.053 -0.606 -0.226 -0.330 -0.839 -1.003 -0.712 -0.945 0.266 -0.293 -0.599 0.472 -0.052 -0.246 0.244 0.233 -0.456 0.210 -0.069 0.246 -0.192 0.030 -0.382 0.032 -0.405 0.203 0.269 0.181 0.020 -0.062 -0.548 0.664 -0.362 -0.260 -0.918 0.744 -0.012 0.286 -0.674 0.331 0.195 0.483 -0.045 0.118 0.367 -0.188 0.199 -0.302 0.172 0.092 0.353 0.087 0.608 -0.316 -0.021 -0.133 0.856 -0.367 -0.303 -0.128 0.446 0.669 0.634 -0.334 -0.250 0.068 0.486 -0.737 0.127 -0.071 -0.119 -0.090 -0.077 0.040 0.054 0.214 -0.212 0.132 -0.232 0.034 -0.225 0.583 0.060 -0.307 0.624 -0.265 -0.486 -0.379 -0.231 -0.392 0.366 0.838 -1.055 0.674 0.361 0.416 -0.211 -0.257 0.385 -0.098 0.357 -0.299 0.286 -0.274 0.180 0.083 0.087 -0.042 0.065 -0.521 0.444 -0.048 -0.763 0.375 0.401 -0.990 0.863 -0.266 -0.393 -0.380 -0.394 0.298 -0.042 0.270 0.166 0.097 0.015 -0.149 -0.191 0.457 -0.429 0.320 -0.275 0.055 0.119 0.105 0.242 -0.038 -0.163 -0.495 -0.202 0.610 0.379 0.087 -0.688 0.257 0.911 -0.825 0.870 -0.379 -0.478 -0.698 0.184 0.123 -0.250 0.220 -0.121 0.285 -0.209 0.087 -0.085 -0.175 -0.044 -0.311 -0.297 0.221 0.016 0.462 -0.650 -0.906 -0.859 -0.242 0.242 -0.659 -0.568 0.032 -0.056 -0.557 -0.454 0.744 -0.811 -0.367 0.408 -0.005 0.025 0.168 -0.269 -0.118 0.229 0.101 0.215 0.188 0.360 -0.520 -0.313 0.549 -0.632 -0.610 0.248 -0.464 0.849 -0.184 0.018 0.151 -0.483 0.079 -0.378 0.167 0.694 0.180 -0.084 -0.216 -0.043 0.258 0.263 -0.097 -0.555 -0.077 -0.441 -0.125 -0.438 0.241 0.079 0.459 -0.610 -0.663 0.275 0.483 0.614 -0.441 0.184 0.728 -0.772 0.792 -0.918 0.547 -0.792 -0.396 0.477 -0.375 0.110 -0.318 -0.222 0.091 0.436 0.034 0.536 -0.129 0.012 0.603 -0.755 -0.377 0.227 -0.349 -0.686 0.499 -0.929 0.240 -0.573 -0.970 -0.007 0.477 -0.766 0.131 -0.878 -0.454 0.489 -0.413 0.384 -0.363 -0.001 -0.211 -0.573 -0.257 -0.808 0.279 -0.124 -0.369 0.454 -0.562 0.249 0.183 0.688 0.764 -0.757 -0.957 0.395 0.651 0.271 0.374 -0.357 -0.005 0.774 -0.597 -0.014 -0.606 -0.328 0.195 -0.451 0.218 0.003 0.036 0.440 -0.611 -0.293 -0.460 -0.121 -0.522 -0.216 -0.680 -0.854 -0.895 -0.047 0.186 0.408 -0.656 0.781 -0.033 0.012 -0.381 -0.032 -0.211 -0.028 0.514 -0.242 0.138 0.231 -0.203 0.131 -0.068 -0.516 0.539 0.130 0.278 -0.308 0.861 0.233 0.740 0.677 0.380 0.138 -0.846 0.551 0.265 -0.814 0.119 0.787 -0.477 -0.162 0.310 -0.500 0.005 0.239 -0.278 -0.192 -0.014 -0.161 0.005 0.278 -0.668 -0.171 0.211 -0.767 0.574 -0.530 0.144 -0.494 0.746 0.678 0.633 -0.245 0.232 0.787 0.866 0.531 -0.314 -0.067 -0.155 0.548 -0.125 -0.449 0.176 -0.147 -0.041 -0.148 -0.073 -0.087 0.302 0.042 -0.348 0.737 -0.240 0.740 -0.717 0.268 0.872 -0.984 -0.326 0.043 0.964 -0.533 0.058 0.281 0.316 -0.502 0.038 -0.171 -0.288 0.388 -0.304 0.269 -0.195 0.172 -0.176 -0.028 -0.143 0.779 -0.335 1.084 -0.510 0.576 0.750 0.724 0.809 0.488 0.504 0.971 0.610 -0.561 0.860 0.957 0.038 -0.713 0.720 -0.638 0.298 -0.034 0.083 -0.252 0.326 -0.179 0.065 0.440 -0.388 -0.196 -0.393 0.379 -0.527 -0.043 -0.121 0.035 0.338 -0.186 -0.551 -0.202 -0.254 -0.557 -0.741 -0.205 0.582 0.552 0.948 0.105 -0.518 -0.488 -0.767 -0.170 -0.174 -0.225 -0.553 0.285 0.330 -0.103 0.599 -0.836 0.089 -0.467 0.849 0.478 -0.669 -0.362 -0.767