10
0 785 -0.053 0.315 0.333 -0.715 -0.978 -0.250 -0.452 0.621 0.381 0.203 0.116 0.323 -0.709 -0.120 -0.675 0.812 -0.882 0.638 -0.851 0.374 -0.326 -0.191 0.685 -0.963 -0.878 0.830 0.018 -0.818 0.974 0.893 -0.775 -0.154 -0.730 -0.375 0.243 -0.673 0.394 -0.897 -0.658 0.631 -0.200 -0.163 0.190 -0.051 -0.232 -0.939 0.452 0.933 0.950 0.325 -0.289 -0.274 0.380 0.348 -0.772 -0.530 -0.273 0.023 0.620 0.000 -0.944 0.645 -0.140 0.037 -0.557 -0.148 -0.228 0.537 -0.806 0.075 -0.689 0.341 -0.956 -0.463 -0.326 0.246 -0.935 -0.111 -0.596 -0.442 -0.049 0.917 -0.038 0.912 -0.665 0.848 -0.272 -0.622 0.497 0.824 -0.987 -0.466 0.536 -0.324 -0.529 -1.005 -0.974 0.127 0.818 0.848 -0.099 -1.021 -0.449 0.417 0.493 0.149 -0.621 0.007 -0.067 0.247 -0.477 0.893 0.789 -0.676 -0.417 0.746 -0.443 0.886 0.024 0.375 0.378 -0.616 -0.488 -0.574 0.242 0.256 -0.825 0.740 -0.149 -0.549 -0.275 0.724 -0.105 0.077 0.713 0.839 0.472 -0.180 0.174 0.801 0.578 0.160 -0.305 -0.263 0.471 0.120 -0.993 0.362 0.720 0.488 0.669 0.679 -0.065 0.512 -0.185 -0.656 -0.153 -0.344 0.792 0.281 0.027 0.208 -0.782 0.023 0.359 -0.235 -0.514 -0.189 -0.353 0.371 -0.716 -0.819 -0.376 0.372 0.466 0.224 0.754 -0.382 -1.054 -0.147 -0.185 -0.633 0.406 -0.208 -0.419 -0.281 0.941 -0.866 -0.101 -0.247 -0.436 -0.063 -0.559 0.813 -0.009 0.393 -0.676 -0.071 0.213 0.685 -0.503 -0.113 0.635 0.557 -0.632 -0.010 0.409 -0.318 0.285 0.314 0.955 0.144 0.434 -0.153 0.665 -0.150 0.211 0.008 -0.099 -0.535 -0.496 0.068 -0.511 -0.911 0.607 -0.429 0.872 0.192 -0.235 0.698 0.700 -0.452 -0.805 0.190 0.556 0.122 0.575 -0.101 0.303 -0.391 -0.032 0.029 0.055 -0.067 0.664 -0.433 -0.256 -0.229 1.036 0.032 -0.915 0.662 0.747 0.642 -0.283 0.461 -0.413 -0.781 0.639 0.598 -0.619 0.654 -1.061 -0.400 -0.857 -0.525 -0.591 0.486 -0.259 -0.379 -0.422 -0.375 0.581 0.297 -0.459 0.706 0.252 -0.084 0.035 0.296 0.601 0.011 0.270 -0.080 0.230 -0.289 -0.249 -0.008 0.388 -0.571 0.719 0.007 0.798 0.394 0.862 0.345 -0.103 -0.156 0.186 0.274 0.358 -0.766 -0.574 -0.385 -0.558 -0.833 -0.994 -0.504 -0.774 0.370 0.230 0.911 0.874 0.420 0.841 -0.937 -0.578 0.701 -0.121 -0.472 0.589 -0.155 0.066 -0.369 -0.557 -0.933 0.020 0.522 0.550 0.391 1.067 0.094 -0.107 0.914 0.187 0.335 -0.975 -0.543 -0.036 0.448 0.617 0.454 -0.334 -0.183 0.675 0.863 0.037 -0.408 0.367 0.126 -0.256 -0.586 -0.367 -0.003 -1.017 -0.325 0.508 0.338 -0.348 0.157 -0.508 0.565 0.258 -0.656 0.096 0.192 0.154 -0.250 -0.403 -0.338 1.029 -0.246 -0.008 -0.088 -0.460 0.044 -0.471 -0.339 -0.350 -0.485 0.600 -0.729 -0.690 -0.083 -0.504 -0.054 0.404 -0.596 0.578 -0.706 -0.505 0.618 0.978 0.347 -0.657 -0.125 -0.451 0.642 -0.470 -0.480 0.317 0.352 0.399 0.179 0.978 -0.152 0.681 -0.476 -0.370 -0.619 0.058 0.162 -0.674 0.059 0.533 0.156 0.485 0.307 0.422 -0.290 -0.387 -0.951 0.781 0.579 -0.239 0.897 0.880 -0.569 0.745 -0.050 -0.158 -0.270 -0.142 -1.024 -1.158 -1.096 -0.735 -1.029 -1.057 0.454 -0.236 0.076 0.277 0.933 -0.613 -0.489 0.712 0.817 0.864 0.057 -0.266 -0.625 0.792 0.497 0.187 0.706 -0.394 0.135 0.945 -0.660 0.120 -0.945 0.222 0.167 -0.190 -0.505 -1.177 -0.058 -0.166 -0.057 -0.763 0.869 0.082 0.151 0.674 0.790 0.099 0.088 0.694 -0.258 0.760 -0.979 0.675 0.192 0.324 0.993 -0.517 -0.224 0.317 0.031 -0.513 -0.019 -0.119 0.396 0.185 -0.198 -0.292 -0.734 -0.698 -0.895 0.948 -0.711 0.197 -0.733 0.933 0.066 -0.646 0.650 0.671 0.919 -0.488 -0.053 0.411 -0.408 0.146 0.310 0.238 0.242 0.049 -0.816 0.212 -0.321 -0.704 -0.928 0.240 -0.304 -0.806 -0.044 -0.198 -0.353 0.127 0.077 0.059 0.975 0.809 -0.405 0.702 -0.408 0.895 -0.785 -0.286 0.881 0.347 0.392 -0.695 -0.969 0.656 -1.065 -0.818 -0.278 0.522 0.239 0.853 0.470 -0.170 0.761 -0.407 -0.908 0.913 0.760 0.320 -0.040 -0.592 -0.562 -0.889 -0.838 -0.037 0.830 0.899 0.045 0.382 -0.025 0.524 0.296 0.800 0.523 0.183 0.036 -0.776 -0.182 -0.205 -0.756 -0.661 -0.245 -0.685 0.237 -0.348 0.975 0.368 0.033 -0.132 -0.217 -0.607 0.907 0.833 0.345 0.360 -0.656 0.127 -0.564 -0.232 0.264 -0.586 -0.521 0.422 -0.061 0.739 -0.701 -0.842 0.822 0.133 0.321 0.080 -0.710 0.954 -0.009 0.818 -0.707 -0.450 0.098 -0.509 0.707 -0.460 -0.755 -0.523 -0.301 1.003 0.877 0.566 0.162 -0.621 0.835 -0.634 -0.540 -0.111 0.703 -0.667 -0.941 0.736 -1.037 0.444 -0.723 -0.402 -0.585 -0.122 0.843 0.680 0.072 -0.826 -0.653 -0.398 0.630 0.950 -0.746 -0.103 1.158 -0.396 -0.519 -0.251 0.856 -0.447 0.425 -0.807 0.250 -0.716 0.133 0.438 0.726 -0.140 0.969 -0.188 0.899 0.828 0.997 -0.788 -0.453 0.392 0.771 -0.484 0.549 -0.004 -0.901 -0.696 -0.845 -0.472 0.821 0.212 0.546 0.692 -0.321 0.303 0.239 0.344 -0.836 0.758 -0.700 -0.115 0.374 0.489 0.653 -0.375 -0.404 0.455 -0.906 0.747 -0.369 -0.216 -0.377 0.421 -0.655 -0.727 -0.871 -0.781 0.135 0.833 -1.107 -0.168 -0.360 -0.437 -0.352 -0.800 -0.161 -0.474 -0.886 -0.733 0.856 0.436 0.966 0.628 0.477 -0.546 -0.782 0.968 0.369 0.446 -0.713 0.582 0.070 -0.825 -0.585 0.895 0.173 -0.885 -0.881 0.463 -0.328 -0.071 -0.739 -0.647 -0.007 -0.147 -0.630 -0.699 -0.110 -0.773 -0.876 -0.053 -0.898 0.468 0.536 0.411 0.903 -0.669 -0.156 -0.170 -0.855 0.719 -0.921 0.957 0.334 0.958 -0.887 0.777 0.913 0.543 0.155 0.296 -0.037 0.706 0.155 0.095 -0.190 0.256 0.173 0.880
1 785 0.545 -0.340 0.440 -0.533 -0.037 0.052 0.454 -0.855 -0.707 -0.635 0.240 -0.659 0.119 0.763 -0.145 -0.553 0.194 -0.177 -0.126 -0.644 0.365 -0.310 0.970 -0.007 0.364 0.849 0.968 -0.957 0.855 -0.793 0.898 0.578 -0.487 0.431 0.126 -0.096 0.254 -0.087 0.314 0.390 -0.989 0.278 0.409 0.733 0.072 0.083 -0.710 -0.608 0.791 -0.876 0.802 -0.753 -0.232 0.245 -0.940 -0.106 0.597 -0.232 -0.648 -0.881 0.896 -0.791 0.339 0.275 -0.441 0.114 0.370 -0.587 -0.515 0.842 -0.592 -0.031 -0.098 0.541 0.683 0.500 0.242 0.078 -0.817 0.148 -0.134 0.512 -0.248 -0.756 -0.233 0.662 -0.007 0.337 -0.887 -0.557 -0.469 -0.033 -0.766 0.883 -0.351 -1.021 -0.559 -0.041 0.186 0.588 -0.867 0.866 0.604 -0.056 0.247 -0.405 -0.707 -0.980 0.921 0.779 -0.108 0.204 -0.047 0.377 -0.801 0.508 -0.650 0.182 0.244 0.690 0.211 -0.680 0.573 -0.315 0.076 0.574 0.971 -0.745 -0.110 -0.449 0.611 -0.257 0.807 0.626 -0.111 0.547 0.359 -0.771 -0.410 -0.729 0.664 -0.209 -0.399 0.434 0.973 -0.718 0.381 -0.555 0.540 0.403 0.409 0.047 -0.820 0.731 -0.662 0.182 0.787 -0.610 -0.148 0.312 0.307 -0.282 -0.109 0.785 0.399 -0.687 0.340 0.698 0.203 0.789 -0.470 -0.421 0.733 -0.487 -0.752 -0.725 0.691 0.504 -0.786 0.312 -0.680 0.305 -0.834 0.117 0.268 -0.225 0.108 -0.770 -0.051 0.568 -0.270 0.425 0.111 0.537 0.437 -0.398 0.637 0.634 -0.146 0.438 -0.172 0.152 -0.357 -0.105 -0.478 0.600 -0.012 -0.020 -0.097 -0.037 -0.564 0.230 -0.316 -0.555 -0.132 -0.746 0.285 0.492 -0.355 -0.783 0.825 0.149 -0.410 -0.829 0.145 -0.562 0.797 0.433 -0.448 -0.188 -0.839 -0.598 -0.005 0.543 -0.455 0.572 -0.714 -0.838 0.678 -0.274 -0.580 -0.368 0.075 -0.607 -0.873 0.060 0.183 0.003 -0.779 0.646 -0.176 0.076 0.769 -0.733 -0.008 -0.155 0.273 -0.558 -0.544 -0.616 -0.034 -0.662 0.477 0.318 0.145 -0.340 0.644 0.217 0.481 0.690 -0.873 0.422 0.671 -0.319 -0.421 -1.016 0.733 -0.621 -0.996 -0.824 0.030 0.366 0.811 0.324 -0.806 0.839 0.693 0.509 0.604 0.366 -0.040 0.100 -1.303 0.779 -0.892 0.085 0.170 -0.101 -0.408 -0.079 -0.471 0.222 -1.012 -0.360 0.266 -0.104 -0.965 -0.083 0.855 0.044 0.460 -0.238 0.952 0.028 0.568 0.146 0.434 -0.513 0.462 0.558 0.412 0.610 -0.097 0.013 0.910 0.567 0.109 0.052 -1.062 0.024 -0.947 0.009 -0.581 0.203 -0.688 -0.346 0.540 0.159 -0.734 0.968 -0.959 -0.189 0.389 0.078 0.131 0.525 -1.157 -0.358 -0.880 -0.018 0.154 0.652 0.800 -0.018 -0.190 0.028 -0.778 0.725 -0.287 -0.050 0.654 0.653 0.990 0.415 0.063 -0.141 0.556 0.241 -0.980 0.118 0.310 -0.356 0.487 0.213 0.422 -0.805 -0.104 -0.117 -0.061 0.010 -0.548 0.721 -0.516 -0.460 -0.621 0.017 -0.079 0.687 -0.869 -0.330 0.666 0.586 -0.872 -0.107 0.986 0.959 -0.364 0.483 -0.364 -0.946 0.626 -1.009 0.632 -0.524 0.263 -0.225 1.055 0.817 -0.373 -0.890 -0.809 -0.006 -0.933 -0.945 -0.301 -0.935 -0.414 0.244 -0.551 0.581 -0.479 -0.271 -0.192 0.699 -0.904 0.618 -0.838 0.856 -0.037 0.286 -0.275 -0.044 0.068 -0.707 -0.306 1.090 -0.398 -0.588 -1.154 0.144 0.382 -1.029 0.651 -0.820 -0.041 0.009 -0.502 -0.355 -0.019 0.567 -0.491 -0.534 0.953 -0.474 -0.820 0.783 0.727 -0.735 -0.184 0.469 -0.514 -0.276 -0.698 -0.489 0.252 -0.222 0.327 -0.475 -0.695 -0.345 -0.804 -0.102 0.343 -0.654 0.155 0.992 0.393 -0.365 0.290 -0.780 -0.782 0.612 0.388 0.184 0.031 -0.411 0.521 -0.088 0.550 0.455 -0.160 0.751 -0.295 -0.016 0.246 0.482 -0.048 -0.768 -0.785 0.582 -0.437 -0.744 0.138 -0.170 0.479 -0.641 0.023 0.912 -0.656 -0.228 -0.242 -0.798 -0.777 -0.410 0.096 -0.714 0.195 -0.360 -0.395 0.764 0.503 -0.322 -0.874 -0.406 -0.034 0.303 0.178 -1.102 -0.758 0.941 0.070 0.022 -0.771 0.573 0.653 -0.380 -0.458 -0.859 -0.420 -0.037 -0.151 -0.944 -0.697 -0.466 0.513 0.635 0.611 0.094 -0.221 0.615 0.154 -0.101 0.088 0.667 -0.086 -0.589 0.391 0.809 -0.567 -0.236 0.525 0.601 -0.896 0.613 -0.515 -0.749 -0.929 -0.131 -0.111 -0.563 0.513 -0.621 0.574 0.585 -0.450 -0.798 -0.784 -0.045 -0.538 0.263 -0.400 -0.619 -0.768 0.909 0.476 0.325 -0.570 -0.116 0.512 0.294 -0.444 -0.300 0.623 -0.890 0.297 0.418 0.049 0.144 0.858 -0.452 0.145 0.044 0.369 -0.761 0.393 -0.324 -0.861 0.660 -0.560 -0.122 -0.425 -0.809 -0.442 0.209 0.271 0.494 -0.696 -0.452 0.662 0.049 0.478 -0.069 -0.117 -0.864 0.749 0.848 0.390 -0.758 -0.095 0.043 -0.553 -0.281 0.711 -0.484 0.235 -0.905 -0.955 -0.922 -0.408 0.840 0.141 -0.039 -0.707 0.115 -0.741 -0.866 -0.333 -0.485 0.564 0.137 0.328 -0.343 -0.096 -0.692 -0.494 0.714 -0.004 -0.574 0.100 0.692 0.556 0.095 -0.607 -0.860 -0.858 0.630 0.546 0.389 0.437 -0.722 0.161 -0.981 -0.936 0.239 -0.985 -0.174 -0.295 0.740 -0.282 -0.555 0.393 -0.697 0.819 0.576 0.708 0.043 -0.753 -0.712 0.317 -0.172 0.405 -0.590 0.124 0.691 -0.439 0.661 -0.715 0.331 -0.916 -0.512 -0.856 -0.606 0.060 0.624 0.627 0.827 -0.506 0.872 -0.160 0.295 0.355 -0.565 -0.516 -0.180 -0.368 0.372 0.632 0.267 -0.922 0.582 0.525 0.956 -0.633 0.861 -0.208 0.110 -0.595 -0.497 -0.156 0.127 -0.489 0.107 -0.148 -0.562 0.294 -0.363 -0.933 -0.532 -0.186 0.209 -0.878 0.765 -0.861 0.856 -0.978 -0.403 -0.337 0.342 -0.826 -0.589 0.644 0.835 -0.888 -0.803 -0.319 -0.277 0.356 0.884 0.269 -0.336 -0.558 -0.873 -0.865 0.725 0.729 -0.262 -0.560 0.724 -0.541 -0.192 0.771 -0.957 -0.297 -0.604 -0.107 0.868 0.915 0.506 0.694 -0.247 0.478 0.460 0.809 -0.271 0.698
2 785 -0.623 0.168 0.896 0.488 0.514 -0.639 -0.255 0.122 0.610 -0.524 0.080 0.490 0.377 -0.488 -0.801 -0.279 -0.613 0.122 0.052 -0.906 0.873 0.829 -0.612 -0.455 0.916 -0.937 -0.680 -0.269 0.687 -0.885 0.057 0.515 0.254 -0.116 0.302 0.424 -0.032 -0.463 0.258 0.599 -0.826 0.267 -0.169 -0.682 -0.350 -0.864 0.644 0.118 -0.130 0.735 0.655 -0.208 -0.934 0.175 -0.534 0.213 -0.801 0.598 0.704 -0.637 0.638 -0.812 -0.713 0.125 -0.529 -0.225 -0.282 0.470 0.467 0.687 -0.573 -0.525 0.613 -0.220 -0.774 0.000 -0.532 0.263 -0.194 -0.679 0.502 0.783 -0.694 -0.575 -0.000 -0.673 0.924 -0.128 -0.853 -0.600 -0.564 -0.501 0.206 0.741 -0.238 0.015 0.782 -0.104 -0.283 0.690 0.332 -0.142 0.669 -0.461 -0.761 -0.519 -0.348 0.693 -0.503 -0.857 -0.783 0.600 0.004 0.902 -0.332 -0.713 -0.636 0.501 -0.002 0.666 0.857 -0.081 -0.929 0.500 0.576 0.070 0.070 0.631 -0.091 -0.730 0.963 -0.039 -0.322 0.678 0.680 -0.226 0.425 0.978 0.031 0.014 0.878 -0.733 0.405 -0.592 -0.354 0.547 -0.892 0.739 0.300 0.655 0.409 -0.092 -0.315 -0.728 0.970 0.756 -0.080 -0.209 0.964 -0.305 -0.653 -0.597 0.310 0.506 -0.551 0.324 0.189 0.332 -0.674 0.561 -0.794 -0.790 0.192 0.756 0.274 0.544 0.495 0.047 0.484 0.692 0.728 -0.428 -0.090 0.215 0.290 -0.043 0.685 0.185 0.770 0.954 -0.925 -0.490 0.881 -0.827 -0.246 -0.654 0.331 -0.084 0.735 0.931 0.747 -0.440 0.171 0.860 -0.302 -0.341 0.734 0.162 -0.610 0.580 -0.278 -0.552 0.846 0.416 -0.306 0.716 -0.618 -0.860 -0.821 -0.026 -0.553 0.295 0.931 -0.048 0.667 -0.771 0.445 -0.584 0.695 0.044 -0.320 -0.247 -0.581 0.308 -0.129 -0.477 0.027 0.209 -0.021 -0.357 0.139 0.367 -0.968 0.337 -0.563 0.077 0.656 -0.421 0.618 -0.860 -0.397 -0.997 -0.689 0.387 0.851 0.539 -0.570 0.182 0.245 -0.464 -0.931 0.523 0.755 -0.086 -0.431 0.858 -0.377 -0.775 0.857 -0.699 -0.487 0.365 0.552 0.374 -0.686 0.732 -0.331 -0.626 0.568 -0.544 -0.153 -0.474 -0.051 0.517 -0.753 0.957 -0.058 0.613 -0.276 -0.511 0.013 -0.741 -0.499 -0.782 -0.725 -0.674 -0.985 0.579 -0.918 -0.377 -0.678 0.242 0.667 -0.025 -0.283 0.536 0.184 0.429 0.449 -0.480 -0.858 -0.400 -0.589 0.437 0.578 -1.046 -0.141 -0.253 -0.283 -0.590 0.770 0.238 0.135 0.128 0.326 0.448 0.430 0.401 -0.761 -0.372 -0.536 0.378 -1.005 0.439 -0.159 -0.796 -0.248 -0.456 0.342 -0.483 -0.518 0.572 -0.352 0.296 -1.094 -0.610 -0.867 -0.682 -0.332 0.287 -0.489 0.141 -0.845 -1.228 0.389 -0.475 -0.422 0.155 0.671 -0.165 -0.063 -0.544 -0.861 -0.284 -0.575 0.083 -0.738 -0.487 -0.456 -0.998 0.431 -0.553 0.030 0.128 0.276 -0.053 -0.766 -0.034 -0.686 -0.946 0.196 0.344 0.370 0.617 -0.008 0.330 -0.135 0.511 -0.712 -0.634 -0.798 -0.206 0.969 0.137 -0.431 0.279 -0.362 0.171 0.318 0.207 -0.116 -0.348 -0.606 -0.682 -0.673 -0.336 0.432 0.354 -0.948 0.196 -0.424 -0.413 0.515 -0.198 -0.274 0.542 -0.532 -0.411 -0.750 -0.410 0.424 -0.873 0.005 -0.686 0.020 -0.896 0.276 -0.128 0.641 -0.470 -0.513 0.389 -0.164 0.972 0.228 0.525 0.103 0.425 -0.453 -0.038 -0.785 0.016 -0.415 0.623 0.125 0.478 -0.745 0.985 0.544 -0.494 0.369 0.385 -0.301 -0.364 -0.730 -0.614 -0.225 -0.341 -0.461 0.884 -0.398 0.021 -0.590 -0.112 -0.699 -0.353 0.850 0.185 0.103 -0.196 0.010 -0.725 -0.849 0.215 -0.467 -0.948 0.713 0.228 0.515 -0.416 -0.572 0.659 -0.415 -0.184 1.046 0.409 0.572 0.641 -0.620 -0.490 -0.307 0.898 0.973 -0.521 0.259 -0.782 -0.182 0.387 -0.213 -0.380 -0.437 0.717 0.120 -0.923 -0.577 -0.822 -0.094 -0.707 -0.135 -0.554 1.213 0.732 -0.630 0.615 -0.690 0.599 0.218 0.626 -0.017 0.534 -0.154 0.451 -0.258 -0.582 0.255 0.668 0.199 -0.374 -0.339 -0.399 -0.033 -0.219 -0.375 0.198 -0.105 -0.589 -0.765 0.399 -0.510 0.495 -0.427 0.117 -0.115 0.820 -0.637 0.736 -0.349 -0.526 -0.041 0.757 0.263 -0.521 0.811 -0.625 0.713 0.693 1.084 1.033 0.342 0.355 0.643 0.776 -0.357 0.627 0.186 0.331 -0.150 0.318 0.069 -0.269 0.430 -0.394 -0.102 0.591 0.329 -0.915 0.744 -0.859 -0.452 -0.799 0.817 -0.199 -0.583 -0.106 0.421 -0.262 -0.919 -0.280 0.276 0.540 0.854 0.864 0.098 -0.461 -0.337 0.675 0.155 0.077 0.569 -0.226 -0.236 0.060 -0.811 0.364 0.292 -0.498 0.365 -0.194 -0.509 -0.730 -0.148 -0.184 0.740 0.200 0.885 0.466 -0.437 -0.138 0.746 -0.528 -0.651 -0.595 0.324 0.747 0.463 0.461 -0.653 0.707 -0.411 -0.444 -0.524 0.558 -0.570 0.470 -0.576 0.457 0.832 -0.041 0.409 0.679 -0.516 0.277 -0.393 -0.862 -0.842 0.094 -0.778 -0.150 0.289 -0.253 0.465 -0.736 0.294 0.134 -0.757 -0.209 -1.061 0.161 -0.817 0.631 -1.123 0.046 -0.336 -0.333 0.482 -0.242 0.342 0.690 0.707 0.499 0.965 0.833 -0.100 -0.742 -0.758 -0.704 0.331 0.048 -0.039 -0.706 -0.223 -0.466 -0.885 -0.043 -0.621 -0.388 -0.221 -0.318 -0.713 0.329 0.747 0.067 0.713 0.699 -0.983 0.399 0.955 -0.457 0.461 0.133 0.950 0.017 0.752 -0.084 -0.889 0.040 -0.229 -0.878 -0.399 -0.630 0.787 0.763 0.049 0.773 -0.246 0.258 0.299 0.871 0.341 -0.481 0.020 0.569 0.553 -0.518 0.892 0.062 0.631 0.901 0.662 -0.670 -0.098 -0.791 -0.567 -0.792 -0.510 -0.803 0.444 0.922 0.437 0.695 0.260 -0.019 -0.116 -0.939 0.498 -0.738 0.772 -0.481 -0.068 0.248 -0.103 -0.127 0.995 0.617 -0.679 0.325 0.478 -0.415 -0.775 0.083 -0.228 -0.137 0.315 -0.822 0.167 0.688 0.598 0.426 -0.651 -0.372 -0.344 0.968 0.705 0.115 -0.541 0.402 0.853 0.930 0.812 -0.505 0.964 0.406 0.600 -0.703 0.868
3 785 0.798 0.360 0.361 0.133 -0.316 0.624 0.449 0.403 0.174 0.626 -0.112 0.542 0.414 0.832 -0.166 0.903 -0.565 0.036 0.010 0.898 0.330 -0.357 -0.666 -0.025 -0.247 -0.333 -0.235 0.243 0.364 -0.789 -0.781 0.475 -0.093 0.634 -0.656 0.735 0.448 0.249 0.864 -0.666 0.170 0.977 -0.716 -0.500 0.478 -0.491 0.485 -0.998 -0.780 0.233 -0.404 0.497 0.325 0.122 -0.914 -0.179 -0.785 -0.128 -0.388 -0.583 -0.447 0.891 -0.500 0.660 -0.785 0.286 -0.175 -0.197 -0.672 0.365 -0.437 -0.218 -0.368 -0.004 -0.611 -0.674 0.594 0.248 0.556 0.459 -0.420 0.901 0.106 -0.997 0.232 0.516 -0.913 0.366 -0.243 -0.636 -0.015 0.462 0.621 0.844 -0.107 -0.783 0.387 -0.268 0.151 -0.010 -0.208 0.078 0.238 0.762 0.071 -0.271 0.177 0.955 -0.324 -0.974 -0.861 0.644 0.925 -0.089 -0.730 -0.456 -0.020 0.513 0.223 0.679 0.987 -0.313 -0.203 -0.765 0.982 0.828 -0.320 0.674 0.310 0.232 0.246 0.218 -0.017 -0.563 -0.197 -0.351 0.242 -0.504 0.716 -0.252 -0.781 -0.063 0.966 0.270 -0.321 -0.847 -0.840 -0.712 0.828 0.354 0.467 -0.678 0.086 -0.239 0.760 -0.103 -0.466 0.951 -0.903 -0.838 0.246 0.701 -0.351 -0.380 -0.664 -0.085 0.296 -0.129 -0.982 -0.378 0.278 -0.406 0.381 0.940 -0.084 1.040 -0.825 -0.247 -0.592 0.852 0.039 -0.052 -0.276 0.687 -0.709 0.643 -0.664 0.801 0.078 -0.121 -0.859 -0.949 -0.197 0.440 0.338 0.093 -0.481 0.525 0.248 0.555 0.707 0.777 -0.654 0.320 0.526 0.253 -0.102 0.029 -0.735 0.457 0.515 0.581 -0.250 0.929 -0.113 0.441 0.324 -0.274 0.334 0.128 0.690 -1.009 -0.728 0.993 0.686 0.997 0.318 0.960 0.451 -0.713 0.306 0.660 0.689 0.008 0.447 0.342 -1.111 -0.797 0.472 0.529 -0.466 -0.876 0.485 -0.322 0.637 0.538 -0.739 0.061 -0.058 -1.020 0.808 -0.158 -0.193 -0.215 0.525 0.893 -0.635 0.623 0.025 -0.057 -1.016 -0.751 0.246 0.143 -0.348 0.091 -0.967 0.233 0.385 0.766 -0.124 -0.842 0.222 0.668 0.507 0.384 0.520 0.207 -0.772 -0.983 -0.123 0.670 -0.399 0.075 -0.289 0.168 -0.299 -0.389 0.038 -0.671 0.402 0.374 -0.613 -0.855 0.288 -0.229 0.640 -0.924 0.422 0.101 0.650 -0.868 -0.764 0.652 0.531 -0.549 0.218 0.671 -0.090 0.341 -0.831 -0.790 0.945 0.111 -0.877 -0.602 -0.872 0.181 -1.154 -0.521 -0.450 0.785 -0.396 -0.328 0.164 0.575 0.814 0.090 -0.878 0.655 -0.880 -0.202 -0.401 0.621 -0.195 -0.099 -0.993 -0.471 0.987 -0.930 -0.891 0.247 0.112 -0.611 -0.775 0.032 -0.773 -0.398 -0.542 0.793 0.790 0.934 0.097 -0.157 -0.027 -0.530 0.913 -0.626 0.523 0.264 -0.774 0.699 0.306 -0.566 -0.476 -0.055 0.473 0.612 0.810 -0.183 -0.285 0.262 -0.169 -0.381 0.742 0.785 -0.501 0.032 -0.546 -0.168 -0.815 0.713 -0.099 -0.498 -0.290 0.223 -0.538 -0.959 -0.762 -0.004 -0.473 -0.270 -0.128 0.706 -0.554 -0.599 -0.054 0.373 0.305 -0.551 0.518 -1.138 0.196 -0.537 -0.260 -0.397 1.055 -0.265 0.657 0.564 -0.421 0.581 -0.509 0.169 0.898 0.370 0.424 0.485 -0.950 0.673 -0.797 -0.118 0.407 0.346 0.399 0.941 -0.379 -0.961 0.365 -0.344 0.685 -0.086 -0.531 0.284 -0.584 0.479 -0.741 -0.158 -0.758 0.560 -0.329 -0.407 -0.750 0.855 0.706 -0.238 -0.792 -0.565 0.101 -0.878 -0.666 -0.900 0.187 -0.680 -0.437 0.737 -0.010 -0.727 0.118 0.139 0.035 0.316 -0.944 -0.241 -0.505 0.331 -0.911 0.698 0.754 -0.217 0.193 0.123 -0.047 -0.155 -0.767 0.851 0.269 0.846 0.560 -0.550 -0.526 -0.606 -0.407 -0.546 0.085 -0.819 -0.458 -0.172 -0.105 -0.835 0.241 -0.784 0.194 0.328 0.659 -0.155 0.571 0.799 -0.214 0.514 0.443 -0.288 -0.168 -0.072 -0.021 0.089 0.966 0.492 0.645 0.222 0.971 -0.449 -0.611 0.586 0.113 -1.477 -0.176 -0.291 -0.655 -0.801 -0.714 0.773 -1.055 0.445 -0.955 -0.104 -0.758 0.380 0.355 -0.111 0.215 -0.962 0.738 -0.638 0.099 -0.164 0.320 0.953 0.135 -0.491 -0.454 -0.559 -0.376 0.372 0.384 -0.257 0.043 0.575 -0.827 -0.780 0.730 0.515 0.780 -0.150 -0.209 0.899 -0.835 0.132 -0.361 -0.940 0.716 0.187 0.329 0.240 -0.719 -0.173 -0.701 -0.413 0.307 0.371 -0.741 0.090 -1.231 -0.035 0.110 -0.602 0.515 -0.531 0.033 -0.583 0.286 0.398 -0.476 0.241 -0.472 -0.440 0.552 0.943 0.904 0.969 -0.938 -0.711 -0.667 -0.517 0.356 0.773 -0.017 0.630 -0.029 -0.808 0.043 0.715 -0.409 0.096 0.548 0.541 -0.076 -0.452 0.110 -0.252 -0.367 0.538 -0.832 -0.468 -0.853 0.146 -0.626 0.347 0.788 0.829 0.618 1.049 -0.205 1.061 -0.169 -0.689 0.957 -0.235 -0.492 0.400 -0.621 -0.360 -0.190 -0.705 0.273 0.643 0.275 0.382 -0.285 -0.109 -0.650 0.512 -0.710 0.596 0.089 0.094 0.644 -0.277 -0.592 0.784 -0.823 -0.234 -0.022 0.086 0.273 0.086 -0.526 -0.233 0.832 -0.696 -0.245 0.196 -0.567 -0.990 0.213 0.160 0.914 0.321 0.628 -0.291 -0.262 0.325 0.273 -0.071 0.655 0.516 0.006 -0.801 -0.531 -0.726 -0.086 -0.383 -0.342 0.517 0.744 -0.075 -0.576 0.693 0.420 0.335 0.769 -0.622 0.420 -0.018 -1.016 -0.649 0.072 0.824 -0.497 -0.560 0.688 0.516 -0.846 -0.420 0.134 0.725 0.000 -0.021 -0.233 0.531 0.755 -0.536 0.779 -0.380 -0.821 0.577 -1.138 0.093 0.357 -0.999 -0.792 -0.250 -0.687 0.383 0.833 -0.030 0.145 -0.801 -0.763 0.012 0.727 -0.533 -0.882 0.014 -0.844 0.871 0.461 -0.487 0.709 -0.195 -0.457 0.754 0.253 0.765 0.845 -0.843 0.455 -0.562 0.377 -0.708 -0.522 -0.020 -0.774 0.515 0.469 0.666 -0.627 -0.503 -0.826 -0.737 -0.451 -0.955 0.745 -0.005 0.822 -0.452 -0.569 0.790 -0.525 -0.195 0.263 0.159 -0.160 0.492 0.086 -0.225 -0.929 0.801 -0.532 0.254 0.414 0.592 0.403 0.372 -0.558
4 785 -0.023 0.671 -0.313 0.511 0.156 0.122 0.302 0.383 0.012 -0.987 -0.851 -0.162 -0.833 0.488 -0.224 0.382 0.197 0.461 0.182 0.435 0.289 -0.160 0.470 0.150 0.064 -0.229 0.927 -0.178 0.998 -0.622 -0.957 -0.300 -0.487 0.407 0.425 -0.317 -0.218 -0.753 0.097 0.373 -0.215 0.857 -0.985 0.276 0.770 0.894 0.074 -0.495 0.051 -0.381 -0.918 -0.450 0.848 -0.607 0.425 -0.531 0.122 0.417 0.927 -0.050 0.283 -0.943 -0.285 -0.148 0.532 0.656 0.280 0.076 0.756 0.218 -0.212 0.721 -0.016 0.349 -0.884 0.452 0.345 0.556 0.672 -0.592 -0.744 -0.043 -0.561 -0.237 0.315 -0.692 -0.748 0.243 -0.504 -0.008 0.574 -0.800 0.416 -0.599 0.609 0.069 -0.000 -0.156 0.487 0.184 -0.601 0.396 0.523 0.110 0.480 -0.509 -0.973 -0.180 -0.219 0.624 0.564 0.656 -0.996 0.833 0.031 -0.591 -0.020 -0.945 0.684 0.646 -0.907 0.025 -0.061 0.081 -0.535 0.521 0.323 -0.987 -0.067 -0.281 -0.512 0.625 0.006 -0.117 -0.210 -0.186 -0.578 -0.169 0.904 0.189 -0.931 -0.175 0.629 -0.803 0.592 -0.794 0.291 -0.841 0.681 -0.210 0.627 -0.188 0.549 0.546 0.312 0.472 -0.293 0.365 0.243 -0.291 0.121 -0.778 0.144 -0.097 0.158 0.949 -0.236 0.432 -0.128 0.610 0.688 -0.413 0.492 0.876 0.463 -0.374 -0.060 -0.072 -1.047 -0.090 -0.633 -0.231 -1.164 -0.236 0.510 0.418 -0.891 0.672 -0.918 -0.108 0.715 -0.575 0.844 0.476 -0.266 -0.447 -0.924 0.680 -0.259 -0.445 -0.627 -0.720 0.170 0.181 -0.071 -0.302 -0.456 -0.930 0.067 -0.368 -0.185 -0.512 -1.108 -0.587 0.143 -0.269 0.927 0.103 -0.292 0.321 0.669 0.517 -0.906 0.068 0.955 0.675 -0.371 -0.014 0.050 0.497 0.399 0.180 0.946 0.408 0.820 -0.897 -0.233 -1.055 0.647 -0.170 -1.064 -0.323 -0.707 -0.402 -0.778 0.616 0.934 -0.949 -0.616 -0.377 0.286 0.619 -0.193 0.263 0.203 -0.034 0.236 0.886 -0.919 -0.402 -0.883 0.267 0.332 -0.432 -0.705 0.372 -0.303 0.220 -0.964 0.691 0.410 -0.354 0.546 -0.952 -0.800 0.344 0.633 -0.401 -0.851 -0.625 -0.963 0.578 0.296 -0.637 0.431 0.646 -0.186 -0.089 -0.918 0.689 -1.010 0.139 0.632 -0.863 0.696 -0.712 0.403 0.165 0.263 0.353 -0.258 0.647 0.829 0.225 0.003 -0.248 0.269 0.437 -0.834 -0.611 -0.175 0.760 -0.013 -0.406 -0.298 -0.848 0.002 0.428 0.740 0.532 0.544 -0.799 -0.397 -0.676 0.058 0.604 -0.209 0.060 0.563 -0.033 0.048 0.008 -0.877 -0.174 -0.831 -0.906 0.376 0.382 0.834 0.250 -0.042 -0.777 0.256 0.911 0.248 0.535 0.389 0.105 0.045 -0.481 -0.266 -0.312 0.483 -0.795 0.794 0.700 -0.691 -0.802 -0.971 0.709 -0.412 0.664 0.235 0.070 0.385 0.039 -0.848 -0.443 -0.113 -0.291 -0.030 0.065 -0.649 0.511 -0.675 -0.028 0.853 0.704 -0.918 0.616 -0.163 -0.641 0.303 -0.651 -0.427 0.507 0.865 0.206 -0.638 -0.187 -0.066 0.880 0.090 -0.071 0.962 0.572 -0.194 0.642 -0.222 0.883 -0.366 0.062 1.170 0.671 0.038 0.594 0.139 -0.665 -0.587 0.856 -0.086 0.891 0.048 -0.513 -0.430 -0.832 -0.874 -0.290 0.535 -0.375 -0.080 -0.114 -0.820 -0.319 0.613 0.582 0.204 -0.485 0.237 0.291 -0.063 -0.685 0.322 0.551 -0.117 0.910 0.451 -0.271 0.494 -0.444 0.756 0.699 0.686 0.183 -0.263 -0.545 0.431 -0.627 0.273 0.864 0.684 -0.143 -0.113 0.251 -0.372 -0.600 0.641 1.093 -0.335 0.571 -0.177 -0.323 0.167 -0.052 0.201 -0.288 -0.361 0.428 0.625 -0.687 -0.049 -0.787 -0.306 0.150 -0.105 0.073 0.513 0.613 -0.608 0.832 0.827 0.559 0.614 -0.712 0.960 -0.571 0.103 -0.717 0.685 0.335 0.092 -0.846 1.102 -0.373 -0.331 -0.755 0.566 0.407 -0.658 0.312 -0.906 0.914 0.502 0.738 -0.495 -0.920 0.306 0.653 0.912 -0.837 -0.451 -0.067 0.236 -0.054 0.747 -0.551 0.274 0.192 0.711 0.392 -0.034 0.043 0.464 0.400 -0.656 -0.878 -0.411 -0.668 -0.010 0.389 0.482 0.216 -0.607 -0.001 0.528 -0.244 -0.636 -0.801 -0.309 0.724 -1.047 -0.915 0.210 -0.181 -1.110 -0.392 -0.130 0.209 0.696 0.472 -1.070 -0.712 0.436 0.538 0.326 -0.741 0.104 -1.003 -0.249 -0.726 -0.886 -0.941 -0.298 -0.515 -0.642 0.872 -0.611 -0.161 0.437 -0.863 -0.595 -0.703 -1.143 -0.726 -0.703 0.012 -0.954 0.595 -0.173 -0.177 -0.493 -0.076 -0.260 -0.724 -0.342 -0.575 0.108 0.231 -0.702 0.847 0.162 0.619 0.020 0.701 -0.500 -0.389 -0.267 -0.311 0.148 0.396 -0.200 0.368 -0.054 -1.069 -0.692 0.249 0.585 0.256 0.420 0.258 -0.061 0.298 -0.068 -0.749 0.973 -0.633 -0.855 0.442 -0.984 0.356 -0.653 -0.562 0.622 0.474 0.109 -0.993 -1.140 -0.797 0.594 -0.507 -0.703 0.445 0.208 -0.372 -1.042 -0.211 -0.271 -0.758 -0.405 0.679 0.358 0.374 0.619 0.925 0.231 -0.089 -0.470 -0.253 -0.662 0.221 0.211 -0.087 0.092 0.308 -0.205 -0.333 -0.587 0.524 0.352 0.001 -1.004 -0.485 0.878 -0.287 -0.037 -0.540 0.399 0.842 -0.378 -0.961 -0.034 0.856 -0.085 -0.454 0.833 -0.470 0.349 0.649 -0.102 0.689 0.630 0.050 -0.971 0.781 -0.562 -0.482 0.495 -0.489 0.666 0.135 0.812 -0.571 -0.650 0.570 0.586 0.391 -0.171 0.048 0.813 -0.738 -0.991 0.498 0.788 0.072 0.587 0.865 0.838 -0.143 -0.193 -0.955 0.090 0.405 -0.598 -0.699 -0.865 -0.804 0.136 -0.858 -1.042 -0.596 -0.936 0.852 -0.129 0.050 -0.402 0.105 -0.604 -0.250 -0.291 0.991 0.460 -0.092 0.098 -0.459 0.763 0.090 -0.665 -0.482 -0.193 0.186 -0.791 0.364 -0.545 -0.396 -0.173 0.840 -0.177 -0.376 0.470 0.963 0.005 0.150 0.700 0.403 0.306 -0.897 -0.096 -0.920 0.520 -0.770 -0.985 -0.607 -0.072 -0.148 -0.095 0.919 0.162 -0.984 -0.158 -0.370 0.268 -0.600 0.054 -0.163 -0.569 -0.276 0.304 -0.878 0.568 -0.541 -0.459 0.471 -0.841 -0.841 0.888
5 785 -0.830 -0.355 -0.309 -0.787 0.628 0.402 -0.552 -0.835 0.677 -0.944 0.929 0.440 -0.284 0.583 0.566 0.478 0.628 -0.793 0.902 -0.139 0.949 -0.288 -0.286 0.804 0.338 0.239 0.022 -0.611 -0.608 0.026 -0.641 0.263 0.521 -0.018 0.672 0.218 -0.190 -0.780 -0.588 -0.454 -0.374 0.713 -0.991 -0.985 0.644 -0.436 0.040 -0.587 0.104 -0.528 -0.946 0.734 0.180 -0.478 -0.186 -0.447 0.774 0.684 -0.176 -0.111 -0.313 0.519 -0.780 -0.798 -0.607 0.522 0.236 -0.145 -0.174 0.947 -1.000 0.556 -0.128 -0.581 0.747 -0.074 -0.645 0.357 -0.226 -0.748 0.849 0.018 0.757 0.366 -0.671 0.084 0.535 -0.462 -0.755 0.540 0.148 0.003 0.670 -0.780 -0.984 0.969 -0.420 -1.027 0.884 0.792 -0.727 0.297 -0.974 0.530 -0.598 -0.759 0.104 -0.522 0.796 -0.331 -0.534 0.041 0.922 -0.337 -0.718 -0.955 -0.298 0.310 0.797 0.912 0.630 -0.056 0.849 0.343 -0.739 -0.455 0.429 -0.338 -0.392 0.494 -0.490 -0.188 -0.426 0.086 -0.203 0.808 -0.181 0.884 -0.091 -0.396 0.144 -0.815 0.648 0.992 -0.377 -0.098 -1.000 0.878 -0.684 0.324 -1.152 -0.165 0.703 0.284 0.109 -0.749 -0.402 0.340 0.834 0.432 -0.471 -0.111 0.100 -0.026 0.305 -0.461 0.516 -0.558 0.392 0.992 -0.858 -0.121 0.955 -0.378 -0.500 0.673 0.471 -0.347 -0.116 0.104 -0.335 -0.705 0.211 0.087 -0.242 -0.278 -0.321 -0.090 -0.059 0.479 0.694 -0.641 1.096 -0.393 -0.812 0.227 -0.220 0.367 -0.358 0.053 0.931 -0.192 0.032 -0.926 0.748 -0.614 0.794 0.310 0.302 -0.650 0.311 0.222 0.148 0.100 0.453 -0.601 -0.397 0.873 -0.662 0.465 1.051 -0.614 0.729 -0.385 0.499 0.059 0.517 0.452 -0.822 -0.054 0.466 0.615 0.197 -0.687 0.292 -0.689 0.463 -0.147 0.191 -0.687 0.354 0.110 0.741 -0.603 0.706 0.109 -0.073 0.373 -0.507 -0.169 -0.436 -0.456 0.619 0.758 0.225 -0.552 0.614 0.180 -0.502 0.323 0.148 -0.066 1.028 0.418 -0.512 0.551 -1.145 0.419 -0.926 -1.169 -0.339 0.399 -0.350 0.323 0.622 0.450 0.335 0.713 -0.795 0.840 0.681 0.972 -0.690 0.586 -0.642 0.708 -0.962 0.166 -0.648 -0.557 0.522 -0.329 0.435 0.059 0.587 0.526 0.389 0.392 -0.240 0.186 0.408 -0.750 -0.753 -0.885 -0.913 -0.308 -0.322 -0.275 -0.703 -0.353 -0.314 0.159 0.460 0.510 -0.262 -0.028 -0.500 -0.243 0.075 -0.300 0.627 -0.084 -0.727 -0.074 -0.606 0.407 -1.091 -1.254 -0.808 -0.857 -0.845 -0.640 0.646 0.192 0.016 0.987 0.270 -0.855 0.417 -0.057 0.912 -0.360 0.818 0.018 0.327 1.000 -0.345 -0.384 0.815 0.179 -0.484 0.356 -0.546 -0.083 0.280 -0.270 0.238 -0.458 0.216 -0.018 0.140 0.645 -0.321 0.545 -0.132 -0.550 0.604 0.483 0.207 -0.137 0.548 -0.245 -0.210 -0.617 0.306 0.850 0.975 0.218 -0.536 0.951 -0.709 -0.718 0.359 0.410 -0.595 0.781 -0.514 -0.643 0.143 -0.755 0.025 -0.759 0.460 0.800 -0.551 0.777 -0.322 0.866 -0.314 -0.382 -0.394 0.040 -0.343 -0.355 -0.299 -0.418 0.874 -0.637 0.039 0.285 -0.760 0.521 0.106 -0.843 0.489 0.025 0.117 -0.686 -0.287 -0.129 0.005 -0.874 0.575 -0.704 0.420 0.105 0.271 0.017 0.456 0.674 0.821 0.209 -0.613 0.001 0.618 0.298 -0.934 -0.315 -0.015 0.198 -0.807 0.528 0.008 0.454 -0.211 0.632 -0.479 0.562 0.545 -0.629 0.375 -0.112 0.486 0.861 -0.005 -0.193 -0.850 0.081 -0.720 -0.633 0.423 -0.026 -0.489 -0.493 0.312 0.466 -0.514 -0.133 0.454 0.432 -0.341 -0.396 0.493 0.336 0.310 0.013 -0.469 -0.292 -0.810 -0.028 0.234 0.075 -0.820 0.666 -0.976 -0.578 -0.167 -0.047 -0.060 -0.853 -0.145 0.598 -0.429 0.321 0.597 0.287 -0.528 -0.536 0.527 0.069 -0.357 0.394 -0.085 0.321 -0.643 -0.819 -0.835 -0.429 -0.860 -0.254 -0.456 -0.071 -0.467 -0.021 -0.872 -0.309 -0.272 -0.277 0.264 -0.264 -0.602 0.728 -0.672 -0.042 0.193 0.010 -0.364 -0.239 -0.850 -0.494 -0.301 0.515 0.880 0.996 -0.455 -0.707 -0.046 -0.116 0.280 0.033 0.812 0.756 0.589 0.059 0.265 -0.554 0.820 0.456 -0.836 -1.109 0.491 0.004 -0.996 0.677 -0.232 0.099 -0.272 -0.509 0.856 0.349 0.597 0.392 0.014 -0.080 0.079 0.221 -0.514 0.850 -0.776 -0.365 0.448 -0.624 0.180 -0.323 -0.923 0.609 0.417 0.116 -0.539 -0.030 0.410 -0.774 0.767 -0.331 -0.636 0.503 0.649 0.422 -0.503 0.822 0.164 0.151 -0.066 -0.571 -0.915 0.824 -0.214 0.704 -0.398 1.010 -0.222 0.659 -0.501 0.346 0.263 0.379 0.712 -0.535 0.669 0.199 -0.773 -0.164 -0.360 -0.992 0.416 0.033 -0.348 -0.434 0.018 -0.293 0.071 0.413 0.718 0.556 -0.281 -0.344 0.102 0.408 -0.382 -0.363 -0.643 -0.246 -0.045 -0.442 0.277 0.354 0.996 0.178 0.395 -0.809 0.199 0.608 -0.250 0.914 -0.131 -0.447 0.382 0.009 0.463 -0.238 -0.910 -0.055 -0.129 -0.881 0.341 -0.502 0.719 0.088 0.762 0.057 -0.438 0.106 -0.955 0.115 -0.737 -0.670 -0.532 -0.912 0.514 -0.238 0.616 -0.952 0.413 0.584 -0.148 0.487 0.966 -0.250 0.042 0.447 -0.337 0.838 0.396 -0.165 0.214 0.013 -0.688 -0.261 0.357 0.402 0.420 -0.026 0.504 -0.886 -0.301 0.940 -0.175 0.995 -0.075 0.225 0.682 0.549 -0.446 0.499 0.514 0.848 -0.259 0.571 -0.345 -0.898 -0.365 -0.277 -0.838 0.320 0.272 0.740 -0.671 -0.847 0.224 -0.067 -0.040 -0.251 0.862 -0.202 -0.536 -0.159 -0.431 -0.497 -0.183 0.782 0.372 -0.822 -0.719 -0.164 0.485 -0.799 0.706 0.385 -0.532 -0.355 -0.779 -0.183 -0.515 0.324 0.241 0.723 0.511 0.503 -0.185 -0.177 -0.268 0.068 -0.091 -0.516 0.666 -0.310 0.543 -0.771 -0.888 0.200 -0.843 0.511 -0.939 0.102 -0.453 -0.269 -0.287 -0.795 0.648 -0.234 0.478 0.324 0.874 -0.048 0.377 0.584 -0.095 -0.771 0.113 -0.117 -0.826 0.167 -0.164 0.759 -0.862
6 785 -0.251 0.468 -0.860 0.485 0.608 0.624 0.621 0.276 -0.732 -0.205 0.552 0.371 -0.578 -0.282 0.574 -0.905 0.783 0.351 -0.337 0.291 -0.581 0.888 -0.070 0.164 -0.209 0.166 -0.241 0.857 0.193 0.806 -0.178 -0.101 0.989 -0.387 0.930 0.486 -0.040 -0.576 -0.291 -0.098 -0.372 0.181 0.336 0.568 -0.013 -0.502 0.653 -0.868 0.504 -0.740 0.121 0.011 0.168 -0.970 -0.082 0.795 0.870 -0.505 0.118 -0.906 0.010 0.086 0.452 0.858 -0.551 0.697 -0.906 0.065 -0.054 0.311 0.830 -0.297 0.511 0.112 0.695 0.965 -0.238 -0.262 0.607 0.902 -0.413 0.164 -0.249 0.084 -0.551 0.584 -0.084 0.244 -0.252 0.433 -0.948 -0.380 0.659 -0.018 0.818 0.499 -0.274 0.275 0.510 0.997 -0.546 -0.017 0.238 0.911 0.664 -0.339 0.429 0.976 0.414 -0.368 0.524 -0.037 0.351 -0.411 0.405 0.235 0.199 0.098 -0.210 0.116 -0.202 0.549 0.069 0.570 0.302 0.153 0.038 -0.492 -0.761 1.084 0.228 0.449 0.592 0.205 -0.665 -0.386 -0.387 0.665 -0.228 -0.996 -0.009 -0.892 -0.519 0.058 -0.789 -0.678 0.815 0.064 -0.043 -0.418 -0.435 0.197 -0.699 0.691 -0.496 -0.115 -0.571 -0.591 0.423 -0.057 -0.794 -0.155 -0.413 0.617 0.989 0.090 -0.765 0.227 -0.696 -0.625 0.122 0.397 -0.982 0.352 -0.196 0.539 -0.158 0.672 -0.203 -0.328 -1.091 0.775 0.448 -0.180 0.498 0.611 -0.669 0.313 0.170 -0.227 -0.984 0.633 -0.404 0.857 -0.229 0.530 0.773 0.290 -0.583 -0.591 0.980 -1.003 -0.283 0.572 -0.017 -0.619 -0.558 0.356 0.798 0.010 -0.681 0.120 0.026 -0.268 -0.051 0.021 0.062 0.279 -0.988 -0.534 -0.643 0.453 0.046 -0.482 -0.263 -0.461 -0.459 0.299 -0.306 0.037 -0.628 0.656 0.419 0.216 -0.716 -0.480 0.185 -0.010 -0.773 -0.171 -0.960 0.158 0.218 -0.250 0.444 -0.912 -0.405 0.682 -0.699 0.879 0.422 0.373 0.220 -0.821 -0.456 0.247 0.236 -0.519 -0.331 0.156 0.072 0.315 0.316 -0.477 -0.710 0.042 -0.334 0.390 0.239 -0.993 -0.482 -0.115 -0.988 0.462 0.397 -0.048 0.824 -0.349 0.085 0.413 -0.552 -0.822 0.714 -0.665 0.281 0.399 0.750 -1.037 -0.889 -0.125 0.471 -0.280 0.505 0.730 -0.923 0.505 -0.657 -0.319 -0.091 -0.227 -0.962 -0.969 -0.621 -0.906 0.289 -0.046 0.830 0.447 -0.192 0.655 -0.464 -0.447 -0.015 0.258 -0.441 0.773 0.128 -0.300 -0.145 0.259 0.480 0.329 -0.135 0.083 0.079 0.000 -0.392 0.736 -0.030 -0.115 0.616 0.310 0.043 0.413 -0.955 0.913 0.022 0.358 -0.883 -0.816 -0.161 0.653 0.513 -0.017 0.322 -0.487 -0.731 0.208 -0.700 0.875 0.141 -0.908 -0.554 0.541 0.020 -0.656 -0.239 0.522 -0.096 0.177 0.300 -0.800 -0.153 0.459 -0.830 0.630 0.688 0.836 -0.784 -0.821 -0.200 -0.748 0.030 0.198 0.552 -0.302 -0.184 0.229 0.179 0.471 -0.515 -0.219 -0.287 -0.007 -0.460 -0.201 0.118 0.070 0.074 -0.832 0.504 0.179 0.662 0.195 -0.215 0.813 -0.152 -0.347 0.496 0.043 -0.889 0.906 -0.549 0.939 0.271 -0.334 -0.444 0.138 0.218 -0.382 0.641 0.679 -0.262 0.468 -0.378 0.257 -0.255 -0.321 0.184 0.644 0.771 -0.193 0.300 -0.789 -0.517 -1.045 0.332 0.455 0.375 -0.128 0.267 0.043 -0.669 -0.285 0.918 -0.593 0.096 0.503 -0.933 0.288 -0.918 0.650 0.600 -0.205 1.064 0.347 0.404 0.332 0.291 -0.070 -0.334 0.255 0.367 0.716 0.247 0.032 0.385 -0.229 -0.806 0.117 0.911 -0.659 -0.546 -0.272 -0.399 -0.089 0.464 -0.208 0.778 0.508 0.116 -0.658 0.942 0.660 -0.060 -0.454 0.635 -0.740 0.649 -0.189 -0.592 -0.250 -0.197 -0.402 0.445 0.283 0.882 0.349 0.657 0.347 -0.485 0.160 -0.693 -0.778 0.379 -0.211 -0.478 0.514 -0.151 -0.859 -0.416 0.679 -0.858 0.950 -0.347 -0.623 -0.540 0.423 -0.237 0.396 0.461 -0.675 -0.447 0.557 -0.774 0.165 -0.471 -0.334 0.835 0.610 -0.800 0.041 0.512 -0.913 0.702 -0.929 0.924 0.480 -0.334 0.744 -0.722 -0.079 -0.689 0.728 -0.644 0.069 -0.480 0.844 0.425 -1.081 -0.218 0.468 -0.553 0.958 0.904 0.754 -0.901 0.036 0.501 0.639 0.224 -0.600 0.948 -0.574 0.685 0.419 0.323 -0.104 0.752 -0.352 0.131 -0.464 -0.830 -0.053 0.315 -0.582 -0.932 0.308 -0.120 -0.442 -0.475 -0.292 0.412 -0.584 0.181 0.439 -0.165 -0.408 -0.349 0.235 0.883 -0.679 -0.777 -0.755 -0.658 0.043 0.801 -0.525 0.125 -0.113 0.329 0.212 0.117 -0.809 0.732 -0.399 -0.275 -0.570 0.203 -0.398 0.010 0.036 1.065 0.691 -0.608 -0.194 0.502 0.651 -0.866 -0.622 -0.676 -0.129 0.444 0.635 -0.969 0.303 0.393 0.901 0.134 0.450 -0.062 -0.397 0.750 0.246 0.743 -0.227 -0.748 0.363 -0.446 -0.299 0.063 0.152 -0.772 0.187 -0.949 0.853 -0.456 -0.557 0.158 0.912 -0.548 0.197 0.388 -0.570 -0.067 0.814 -0.716 0.083 0.107 0.336 -0.770 -0.130 -0.391 -0.267 -0.037 -0.968 0.764 -0.807 0.063 -0.116 -0.935 -0.794 0.535 -0.440 -0.786 -0.891 0.740 0.679 -0.944 -0.786 0.563 0.546 0.761 -0.632 -0.313 0.940 -0.098 0.525 0.343 -0.931 0.638 0.283 -0.702 -0.165 -0.048 0.107 -0.941 0.222 -0.591 -0.508 -0.345 0.145 0.239 -0.188 -0.049 0.606 -0.589 0.843 -0.366 -0.702 -0.781 -0.749 0.079 0.003 -0.493 0.576 0.400 0.342 -0.486 0.240 -0.145 -0.317 -0.127 -0.202 0.770 -0.303 0.363 0.637 0.191 0.473 -0.992 0.253 -0.796 0.196 -0.555 0.378 0.123 -0.332 0.141 0.175 -0.227 -0.045 -0.396 -0.661 -0.728 -0.308 -0.513 -0.437 0.312 0.409 -0.501 0.859 0.580 -0.857 0.598 0.955 -0.358 -0.505 0.890 0.865 0.521 0.918 0.677 -0.430 0.512 0.739 0.655 0.795 -0.269 -0.533 -0.576 -0.873 0.132 -0.150 -0.408 0.987 -0.044 0.962 0.858 0.218 0.209 -0.662 -0.956 0.812 0.744 0.653 0.302 0.938 -0.606 0.269 -0.458 0.191 -0.977 0.981 -0.084
7 785 -0.610 0.865 -0.599 0.759 -0.327 0.205 0.027 0.861 0.654 0.721 -0.038 0.771 -0.028 -0.696 -0.303 -0.739 -0.322 0.269 0.885 0.559 -0.569 0.010 0.425 0.548 -0.638 -0.409 0.581 0.155 -0.998 0.005 -0.355 0.655 0.039 0.175 0.827 0.711 0.149 0.884 0.190 -0.643 0.064 0.338 0.895 -0.733 -0.551 0.510 -0.454 0.352 0.094 0.372 -0.996 -0.012 0.114 0.120 0.861 -0.215 0.665 -0.485 -0.921 0.675 -0.016 0.267 0.513 0.957 0.668 -0.287 -0.032 -0.609 0.850 -0.928 -0.005 -0.782 0.375 -0.926 -0.592 -0.086 -0.420 0.762 0.136 -0.371 -0.936 0.252 -0.769 0.525 -0.771 -0.029 0.570 -0.398 -0.082 0.574 -0.525 0.870 0.687 0.114 -0.844 -0.645 0.456 0.587 -0.252 -0.710 -0.273 -0.715 -0.797 0.450 0.568 -0.342 -0.920 -0.649 0.194 0.350 0.548 0.382 -0.522 -0.570 -0.422 0.187 -0.853 0.095 -0.966 0.173 -0.724 0.050 -0.718 0.206 0.611 0.500 0.679 -0.635 -0.041 0.166 0.435 -0.354 -0.752 -0.581 -0.634 -0.184 0.923 -0.027 0.227 0.749 -0.668 0.225 0.769 0.078 -0.420 -0.317 0.464 0.536 0.377 0.252 0.656 -0.902 -0.315 0.403 -0.013 -1.090 0.654 -0.182 -0.484 -0.068 0.035 0.138 0.594 -0.930 0.470 -0.649 -0.365 -0.364 -0.833 -0.301 -0.419 -0.920 -0.855 -0.835 0.205 -0.529 -0.318 0.212 0.339 0.467 -0.069 -0.562 -0.147 0.618 -0.127 -0.768 -0.207 -0.707 -0.424 0.505 0.757 0.376 0.590 -0.519 0.964 -0.382 0.707 -0.800 0.637 -0.454 0.731 0.740 0.751 0.295 0.693 -0.024 -0.494 -0.703 -0.720 -0.055 0.733 0.059 -0.867 0.296 -0.391 0.333 0.295 -0.647 0.288 0.842 -0.722 0.945 -0.423 -0.720 0.335 -0.104 -0.801 0.346 0.719 0.504 -1.041 0.831 0.181 -0.030 0.242 0.854 0.006 0.948 -0.841 -0.684 0.988 0.332 -0.192 -0.337 -0.571 0.640 0.144 -0.436 -0.989 -0.342 0.550 -0.305 0.767 -0.172 -0.058 -0.784 -0.767 -0.516 0.969 0.822 -0.701 -0.159 0.576 0.998 -0.196 -0.745 0.735 0.580 0.535 -0.473 0.044 1.282 -0.004 0.752 -0.361 0.465 -0.991 0.385 0.127 -0.097 -0.115 0.114 -0.936 -0.707 -0.632 0.702 0.256 -0.847 -0.129 0.028 -0.003 -0.451 0.064 -0.382 0.547 -0.458 -0.060 0.729 -0.399 -0.324 0.244 0.203 0.761 0.786 0.115 0.804 0.686 -0.095 -0.743 0.683 0.378 0.073 -0.175 0.811 0.981 0.717 0.251 -0.053 -0.376 -0.514 0.624 -0.670 0.326 0.617 0.050 0.223 0.740 -0.218 -0.173 -0.345 -0.195 0.643 -0.334 0.300 -0.421 0.555 0.747 -0.691 0.824 -0.051 0.008 -0.887 0.632 -0.193 -0.715 -0.535 0.072 0.378 -0.715 0.063 -0.675 -0.345 0.016 0.055 -0.662 -0.070 -0.315 0.396 -0.778 -0.543 -0.957 -0.615 -0.213 0.260 0.203 0.113 -0.778 0.932 0.304 0.234 -0.324 -0.375 0.294 0.793 -0.356 0.392 -1.364 0.351 -0.157 0.084 -0.636 0.155 0.635 -0.013 0.988 0.286 -0.597 -0.814 0.312 -0.668 -0.461 -0.502 0.790 -0.658 -0.349 -0.794 0.880 0.247 -0.636 0.114 -0.853 -0.593 -1.122 -0.674 0.110 -0.889 -0.370 -0.398 0.368 0.766 -0.790 0.666 0.177 -0.269 -0.343 0.151 -0.683 0.591 0.034 -0.486 0.172 -0.139 0.880 0.162 -0.920 -0.756 0.273 -0.266 -0.080 -0.284 -1.037 -0.196 0.236 0.299 -1.144 0.421 -0.560 -0.085 0.848 0.131 -0.038 -0.197 -0.357 0.439 0.782 0.177 -0.409 0.317 0.112 0.208 0.221 0.499 -0.357 0.583 -0.556 -0.903 0.358 -1.088 0.665 -0.074 0.440 -0.127 -0.895 -0.558 -0.599 0.920 -0.287 -0.492 0.338 0.631 -0.856 0.396 0.705 0.461 -0.203 -0.850 0.606 0.979 -0.360 0.827 -0.619 -0.660 -0.965 -0.293 0.079 0.377 0.230 -0.499 -0.734 0.070 0.018 0.546 0.342 -0.484 0.004 0.674 0.391 -0.186 -0.382 -0.137 0.385 0.914 -0.852 -0.615 -0.713 0.629 -0.959 -0.040 0.102 0.844 0.815 -0.072 0.413 -0.650 -0.500 0.183 -0.005 0.362 -0.276 -0.322 0.289 -0.618 -0.882 -0.919 -0.212 0.599 -0.422 -1.050 0.088 -0.968 -0.399 0.025 0.409 -0.660 0.019 -0.083 -0.295 -0.061 0.017 0.844 -0.882 -0.832 0.302 -0.267 0.573 0.920 -0.463 -0.327 0.665 -0.749 0.975 -0.359 -1.035 -0.291 0.465 -0.329 0.266 -0.849 -0.429 -0.660 -0.306 0.413 -0.759 -0.659 0.378 -0.542 0.451 -0.519 0.375 -0.853 0.578 -0.321 0.183 0.193 -0.669 -0.413 -0.286 -0.339 -0.003 0.670 -0.618 0.476 0.239 -0.847 0.117 -0.944 -0.908 0.151 -0.906 0.771 0.828 -0.775 -0.112 -0.441 0.188 0.699 -0.822 0.269 -0.268 -0.533 -0.385 -0.280 0.717 0.248 0.722 -0.060 0.203 -0.138 -0.992 -0.564 -0.901 0.755 0.487 0.362 0.615 -0.097 0.979 0.776 -0.771 -0.346 0.160 -0.698 -0.784 0.154 -0.862 -0.766 0.765 -0.295 -0.422 0.232 -0.577 0.294 -0.563 0.175 -0.909 -0.464 0.258 -0.089 0.645 0.170 -0.729 -0.867 0.692 -0.701 0.758 -0.315 -0.170 -0.073 0.862 -0.470 -0.885 -0.499 0.125 0.065 -0.762 0.177 0.735 -0.651 -0.897 0.705 -0.435 -0.683 -0.078 -0.693 0.560 -1.020 -0.155 0.674 0.084 0.510 0.374 0.207 -0.948 -0.123 0.983 -0.305 -0.064 -0.868 -0.035 -0.144 0.305 0.858 -0.100 -0.105 0.681 0.028 0.873 -0.767 0.692 -0.020 0.832 0.853 0.863 0.709 -0.308 0.068 0.926 0.032 0.377 -0.653 -0.573 -0.774 0.518 0.614 -0.373 -0.213 -0.619 -0.769 -0.197 -0.487 0.424 0.904 0.785 -0.374 0.591 -0.116 0.592 0.751 -0.753 0.682 0.179 0.621 -0.336 -0.443 -0.260 0.109 -0.200 -0.055 -0.128 -0.348 -0.976 -0.843 0.397 -0.986 -0.957 -0.662 -0.133 -0.014 0.607 0.137 0.831 0.915 0.472 0.322 0.038 -0.566 -0.156 -0.235 0.823 0.216 0.608 -0.368 -0.714 0.326 0.648 -0.035 -0.079 0.145 -0.109 -0.814 0.826 0.480 0.066 0.516 0.117 0.163 -0.694 0.381 -0.961 0.525 0.845 0.977 0.806 0.165 -0.686 -0.082 0.944 -0.353 -0.315 -0.780 0.995 0.418 0.095 0.479 -0.639
8 785 -0.244 -0.640 0.621 0.427 0.365 0.055 -0.807 -0.010 -0.147 0.756 -0.388 -0.317 -0.001 0.680 0.322 -0.968 -0.403 -0.753 0.980 0.218 0.217 0.016 -0.612 0.803 -0.686 -0.672 0.801 0.535 -0.404 -0.523 0.407 0.326 -0.219 0.394 0.769 -0.956 -0.962 -0.267 0.688 0.909 0.245 -0.366 -0.064 0.794 0.697 0.572 -0.345 -0.768 -0.963 -0.687 0.241 -0.557 0.647 0.585 -0.447 -0.437 0.359 -0.556 0.597 0.422 0.953 -0.501 -0.020 0.555 -0.087 -0.437 -0.853 0.203 -0.734 0.557 -0.594 0.589 0.474 0.264 0.623 -0.661 0.750 -0.577 0.634 0.020 -0.813 -0.371 -0.667 -0.535 -0.946 0.428 -0.243 -0.557 0.352 0.889 0.881 -0.449 -0.905 0.897 -0.676 -0.759 0.923 -0.902 -0.980 0.457 -0.910 0.065 -0.933 -0.419 0.947 -0.211 -0.046 0.696 0.958 0.982 -0.764 0.329 -0.830 -0.675 -0.741 0.531 -0.856 -0.330 -0.700 -0.200 0.711 -0.914 0.554 -0.446 0.570 -0.805 0.788 -0.727 -0.215 0.481 -0.059 0.369 -0.494 0.491 -0.472 -0.688 0.512 0.150 -0.416 -0.701 -0.525 -0.603 0.084 0.114 0.789 0.774 0.670 -0.785 0.487 0.643 -0.257 -0.657 0.710 -0.939 0.088 0.604 0.644 -0.485 -0.392 -0.493 -0.460 0.128 -0.066 -0.142 0.652 -0.906 -0.188 -0.366 0.260 -0.162 0.880 0.523 -0.142 -0.386 0.622 -0.054 -0.534 -0.551 -0.026 -0.614 0.289 0.240 -0.882 0.755 -0.679 0.086 0.553 0.269 0.970 -0.094 -0.133 0.469 -0.654 0.136 -0.311 -0.334 -0.777 0.306 -0.668 0.113 -0.850 -0.105 -0.439 0.512 -0.082 0.041 0.717 0.620 -0.591 0.256 0.074 0.310 0.156 0.201 -0.719 -0.128 -0.234 -0.233 -0.448 -0.538 0.505 -0.267 -0.281 0.817 0.436 0.406 -0.818 0.497 0.223 0.725 0.448 -0.228 0.124 0.392 -0.832 0.243 -0.166 0.499 -0.568 -0.681 0.018 0.149 -0.880 0.686 0.008 -0.359 0.742 0.796 0.036 -0.163 0.271 0.248 -0.779 -0.768 0.943 0.407 0.522 0.140 -0.192 0.999 -0.597 0.342 0.735 -0.148 0.250 -0.023 0.200 -0.374 0.448 -0.096 0.088 -0.560 -0.442 -0.596 0.664 0.373 -0.775 -0.911 0.826 -0.625 -0.749 0.270 -0.202 0.619 0.363 -0.958 0.440 -0.273 -0.161 0.139 -0.398 0.460 -0.764 0.557 -0.176 -0.806 0.053 -0.563 0.214 0.809 0.288 0.238 0.214 -0.405 0.855 -0.320 0.420 0.399 0.666 0.637 0.140 0.385 0.843 -0.809 -0.856 -0.582 -0.407 0.189 0.518 0.122 -0.467 0.476 -0.537 -0.230 -0.162 -0.573 0.107 0.406 -0.448 0.825 0.019 0.174 1.003 0.279 -0.448 -0.616 -0.925 0.809 -0.432 -0.518 -0.989 0.879 -0.444 0.000 0.858 0.029 -0.891 0.486 0.499 0.895 0.673 -0.300 -0.378 -0.149 -0.414 -0.350 -0.029 0.265 0.362 -0.325 0.424 0.336 -0.577 0.139 0.637 -0.846 -0.896 0.640 -0.599 0.619 -0.363 -0.168 0.266 0.232 0.213 -0.454 -0.612 -0.043 -0.065 0.627 0.573 -0.317 -0.032 0.572 -0.493 0.673 -0.487 -0.911 0.344 0.869 -0.337 -0.246 0.900 0.948 0.090 -0.843 0.540 0.521 0.400 -0.784 -0.412 0.045 -0.073 -0.441 0.779 -0.338 0.300 0.148 0.410 -0.635 0.320 -0.759 -0.139 -0.377 -0.323 -0.083 -0.694 -0.697 -0.803 -0.474 -0.670 -0.518 0.236 -0.285 0.909 -0.707 -0.912 -0.302 -0.946 -0.607 -0.733 0.341 0.860 -0.035 -0.524 -0.566 0.457 -0.470 0.309 -0.770 -0.147 0.692 -0.006 -0.243 0.120 -0.793 0.627 0.063 0.527 0.056 0.568 -0.058 -0.178 -0.276 0.077 0.099 -0.296 0.655 -0.905 -0.170 0.207 0.078 0.804 0.176 0.373 -0.144 -0.034 -0.234 -0.323 -0.316 -0.336 -0.936 0.259 0.557 0.118 0.057 0.011 -0.763 0.838 0.410 0.321 0.934 0.033 0.738 0.425 0.261 1.005 0.362 0.474 -0.061 -0.689 0.103 0.266 -0.516 0.042 -0.456 0.074 0.697 -0.089 0.514 -0.081 -0.088 0.042 -0.038 0.537 0.748 0.282 0.278 -0.383 -0.988 0.142 -0.819 -0.725 -0.269 -0.581 0.000 -0.042 0.359 -0.628 -1.076 0.210 -0.470 0.597 -0.514 -0.677 -0.428 -0.999 0.294 -0.878 0.895 0.241 0.879 0.938 -0.397 -0.675 -0.482 -0.871 -0.372 -0.596 -0.184 -0.512 -0.191 0.925 -0.379 0.742 0.184 0.503 0.282 0.029 -0.012 -0.723 0.695 -0.842 0.279 -0.156 0.136 0.221 -0.290 -0.890 -0.617 0.622 0.661 -0.422 -0.075 0.839 0.010 -0.448 -0.307 0.614 0.406 -0.205 -0.727 -0.066 -0.731 0.545 -0.527 -0.053 0.005 0.539 -0.707 0.582 0.630 -0.150 -0.922 0.085 -0.507 0.759 0.499 -0.413 0.113 -0.511 -0.105 -0.678 0.859 -0.018 -0.690 0.458 -0.792 0.468 -0.040 0.213 0.048 -0.490 -0.389 -0.222 0.591 -0.879 0.461 -0.585 0.588 -0.076 0.030 0.959 -0.371 -0.665 -0.409 -0.906 -0.009 -0.719 0.671 0.056 -0.700 0.954 0.957 -0.756 0.063 0.643 -0.086 0.493 -0.750 -0.013 0.096 -0.313 -0.586 -0.068 -0.225 0.694 -0.696 0.693 -0.608 0.034 0.852 -0.122 -0.526 0.520 -0.135 -0.902 -0.937 0.080 -0.877 -0.626 -0.778 -0.095 0.073 -0.736 0.038 0.378 0.517 0.549 0.100 0.689 -0.385 1.028 0.577 -0.625 -0.827 0.808 -0.258 -0.524 0.543 -0.179 0.495 0.961 -0.078 0.736 0.624 0.623 0.130 -0.334 0.877 0.855 -0.720 -0.708 -0.489 0.712 -0.208 -0.283 0.490 -0.687 -0.635 -0.831 -0.265 0.323 -0.414 0.839 0.166 0.786 0.572 -0.285 0.016 0.717 0.660 -0.781 0.345 0.932 0.334 0.285 -0.864 -0.057 0.042 0.730 -0.876 0.153 -0.943 -0.119 0.216 0.613 -0.869 0.862 0.337 0.598 0.370 -0.699 0.202 -0.492 -0.840 -0.863 0.089 0.741 -0.410 0.341 -0.059 0.774 -0.191 0.747 -0.648 -0.729 -0.118 0.726 -0.457 0.635 0.408 -0.476 -0.639 0.664 0.822 -0.243 0.511 0.403 -0.120 0.140 -0.849 -0.479 0.536 -0.656 0.172 -0.041 0.954 0.051 0.797 0.816 0.940 -0.324 0.902 0.427 -0.965 0.738 0.192 -0.144 -0.224 0.359 -0.633 -0.460 0.895 0.643 -0.349 0.770 -0.125 0.821 -0.225 0.629 -0.903 0.766 -0.640 -0.392
9 785 -0.141 -0.229 -0.504 -0.424 0.982 0.140 -0.748 0.904 -0.253 -0.249 0.228 0.745 0.796 -0.236 0.280 0.741 -0.602 0.370 -0.130 0.071 0.533 0.477 -0.305 -0.485 -0.090 0.436 -0.807 -0.993 -0.483 -0.378 -0.500 0.239 0.141 0.614 -0.721 0.366 -0.820 -0.030 0.233 -0.228 -0.341 0.862 -0.397 -0.578 -0.601 -0.223 0.198 0.352 -0.570 0.889 -0.688 0.431 -0.218 -0.622 -0.931 -0.899 -0.372 0.035 0.832 -0.509 0.802 -0.325 -0.017 -0.937 0.672 -0.953 0.374 0.895 0.570 0.662 0.957 -0.787 -0.287 -0.312 0.711 -0.450 -0.986 -0.225 -0.039 -0.322 -0.577 -0.580 0.439 0.951 -0.190 -0.349 -0.603 0.199 -0.974 -0.624 0.224 0.294 -0.629 -0.808 -0.795 0.546 -0.219 -0.845 0.080 -0.512 0.517 -0.054 -0.631 -0.464 -0.200 0.164 -0.273 0.867 -0.959 0.978 -0.534 0.823 -0.933 0.330 -0.096 0.619 0.254 0.948 -0.414 0.627 -0.205 0.250 -0.924 -0.961 0.741 0.117 -0.894 -0.609 -0.306 -0.316 0.790 -0.347 -0.417 -0.702 -0.624 0.559 0.793 0.109 -0.879 -0.589 -0.763 -0.799 -0.759 0.266 0.484 0.643 -0.173 -0.703 0.738 0.537 0.173 0.340 0.122 -0.829 0.772 -0.772 -0.051 -0.792 -0.597 0.637 -0.179 -1.017 -0.695 -0.674 -0.668 0.773 0.561 0.744 -0.419 0.285 0.005 0.232 -0.888 0.474 0.376 0.411 -1.014 -0.249 -1.015 0.430 -0.690 -0.386 -0.144 0.426 0.150 -0.205 -0.296 0.562 0.006 -0.171 0.331 0.321 0.594 -0.074 -0.185 0.095 -0.026 -0.311 0.800 -0.811 -0.298 0.345 -0.957 0.673 -0.153 -0.006 0.195 0.014 0.052 0.628 0.458 -0.044 -0.349 1.111 -0.352 0.204 -0.889 -0.383 -0.276 0.437 0.309 0.253 -0.228 0.966 -0.637 0.291 0.145 -0.836 -0.489 -0.276 0.276 -0.066 -0.698 -0.593 0.358 0.628 -0.874 0.710 0.063 0.498 0.460 0.241 -0.342 0.680 0.703 0.542 -0.960 -1.026 -0.542 -1.031 -0.063 0.175 0.366 0.215 -0.788 -0.898 0.547 0.720 -0.559 0.300 0.521 -0.695 -0.328 -0.398 0.083 -0.755 0.583 -0.363 0.198 -0.757 -0.586 0.147 -0.792 -0.160 -0.816 -0.143 0.108 -0.758 0.837 -0.760 0.469 -0.512 -0.758 -0.621 0.743 -0.453 0.368 -0.546 -0.741 -0.046 -0.715 0.803 0.522 -0.295 -1.028 0.253 0.116 0.240 -0.196 0.390 -0.457 0.094 0.795 0.171 -0.857 -0.151 -0.266 -0.824 -0.996 -0.712 -0.932 0.341 -0.066 -0.535 0.719 -0.240 -0.348 0.928 0.401 -0.717 0.603 -0.057 0.426 0.070 0.392 -0.885 -0.221 -0.672 0.378 0.580 0.656 0.192 -0.090 -0.425 0.750 -0.321 -0.259 -0.918 0.755 0.078 0.544 -0.471 0.582 0.009 1.188 0.645 -0.272 0.594 -0.235 -0.308 -0.905 0.242 0.595 1.030 0.619 1.066 -0.347 -0.080 -0.381 1.000 -0.296 -0.121 -0.039 0.520 0.674 0.634 -0.331 -0.146 0.351 0.759 -0.663 -0.253 -0.260 -0.117 -0.616 0.280 0.143 -0.354 0.120 -0.260 0.395 -0.613 -0.268 -0.511 0.847 -0.056 -0.797 0.601 0.006 -0.173 -0.302 -0.199 -0.392 0.372 0.838 -1.001 0.888 0.602 0.775 -0.561 -0.640 0.805 -0.191 0.966 -0.423 -0.208 -0.441 0.590 0.106 0.326 0.030 0.404 -0.722 0.565 -0.454 -0.920 0.757 0.814 -0.964 0.865 -0.266 -0.392 -0.380 -0.355 0.395 -0.022 0.527 0.298 0.112 0.418 -0.712 -0.628 0.716 -0.635 0.587 -0.434 -0.019 0.885 0.569 0.670 -0.220 -0.223 -0.926 -0.423 0.872 0.649 0.114 -0.683 0.257 0.911 -0.825 0.883 -0.387 -0.685 -0.862 0.215 0.135 0.017 0.269 -0.189 0.810 -0.373 0.057 -0.356 -0.807 -0.044 -0.625 -0.580 0.497 0.169 0.477 -0.942 -0.919 -0.785 -0.229 0.260 -0.658 -0.568 0.032 -0.056 -0.552 -0.531 0.894 -1.005 -0.666 0.610 0.348 0.345 0.511 -0.784 -0.300 0.451 -0.316 0.359 0.247 0.228 -0.499 -0.217 0.644 -0.924 -0.683 0.313 -0.429 0.882 -0.172 0.015 0.152 -0.469 0.137 -0.325 0.454 0.850 0.185 -0.165 -0.632 -0.191 0.343 0.027 0.153 -1.087 -0.371 -0.909 -0.198 -1.105 0.305 0.114 0.587 -0.769 -0.646 0.401 0.586 0.641 -0.428 0.184 0.738 -0.750 0.833 -0.866 0.666 -0.765 -0.379 0.529 -0.658 0.056 -0.580 -0.355 0.448 0.710 0.076 0.685 -0.013 -0.485 0.738 -0.917 -0.412 0.254 -0.346 -0.596 0.584 -0.923 0.239 -0.573 -0.952 0.020 0.518 -0.748 0.151 -0.919 -0.427 0.577 -0.632 0.367 -0.547 -0.238 -0.019 -0.599 -0.450 -1.180 0.544 -0.404 -0.448 0.159 -0.746 0.249 0.134 0.707 0.784 -0.755 -0.957 0.395 0.657 0.336 0.469 -0.349 -0.029 0.855 -0.697 -0.117 -0.972 -0.736 0.105 -1.094 0.609 -0.072 -0.038 0.425 -0.534 -0.284 -0.493 -0.545 -0.740 -0.288 -0.802 -0.947 -0.902 -0.047 0.186 0.408 -0.656 0.866 0.110 0.064 -0.352 0.142 -0.109 0.088 0.834 -0.574 -0.123 -0.024 -0.106 -0.172 0.105 -0.742 0.748 0.297 0.492 -0.629 0.826 0.218 0.667 0.627 0.369 0.138 -0.846 0.551 0.265 -0.759 0.226 0.918 -0.398 -0.037 0.566 -0.323 0.590 0.482 -0.270 -0.581 -0.232 -0.714 0.342 0.337 -0.943 0.233 0.569 -0.885 0.594 -0.619 0.025 -0.506 0.760 0.684 0.633 -0.245 0.232 0.810 0.923 0.604 -0.369 -0.162 -0.203 0.593 -0.267 -0.403 0.550 -0.356 -0.133 -0.238 0.106 -0.452 0.182 0.755 -0.056 0.885 -0.327 0.652 -0.843 0.281 0.876 -0.984 -0.326 0.043 0.964 -0.532 0.083 0.357 0.297 -0.610 -0.010 -0.582 -0.733 0.850 0.081 0.306 -0.342 0.751 0.179 -0.592 -0.693 1.046 -0.336 1.063 -0.699 0.504 0.700 0.753 0.809 0.488 0.504 0.971 0.610 -0.561 0.860 0.945 -0.017 -0.842 0.612 -0.961 0.205 0.264 0.046 -0.646 0.483 0.029 0.752 0.895 -0.828 -0.841 -0.743 0.317 -0.586 -0.060 -0.130 0.034 0.338 -0.186 -0.551 -0.202 -0.254 -0.557 -0.741 -0.205 0.584 0.576 0.997 0.122 -0.528 -0.495 -0.779 -0.196 -0.144 -0.204 -0.454 0.488 0.470 -0.062 0.626 -0.850 0.075 -0.463 0.849 0.478 -0.669 -0.362 -0.767